{"learner":{"attributes":{"scikit_learn":"{\"_estimator_type\": \"regressor\"}"},"feature_names":["xg_per_60","shots_per_60","primary_assists_per_60","pp_toi_pct","corsi_pct","xg_pct","toi_per_game"],"feature_types":["float","float","float","float","float","float","float"],"gradient_booster":{"model":{"cats":{"enc":[],"feature_segments":[],"sorted_idx":[]},"gbtree_model_param":{"num_parallel_tree":"1","num_trees":"300"},"iteration_indptr":[0,1,2,3,4,5,6,7,8,9,10,11,12,13,14,15,16,17,18,19,20,21,22,23,24,25,26,27,28,29,30,31,32,33,34,35,36,37,38,39,40,41,42,43,44,45,46,47,48,49,50,51,52,53,54,55,56,57,58,59,60,61,62,63,64,65,66,67,68,69,70,71,72,73,74,75,76,77,78,79,80,81,82,83,84,85,86,87,88,89,90,91,92,93,94,95,96,97,98,99,100,101,102,103,104,105,106,107,108,109,110,111,112,113,114,115,116,117,118,119,120,121,122,123,124,125,126,127,128,129,130,131,132,133,134,135,136,137,138,139,140,141,142,143,144,145,146,147,148,149,150,151,152,153,154,155,156,157,158,159,160,161,162,163,164,165,166,167,168,169,170,171,172,173,174,175,176,177,178,179,180,181,182,183,184,185,186,187,188,189,190,191,192,193,194,195,196,197,198,199,200,201,202,203,204,205,206,207,208,209,210,211,212,213,214,215,216,217,218,219,220,221,222,223,224,225,226,227,228,229,230,231,232,233,234,235,236,237,238,239,240,241,242,243,244,245,246,247,248,249,250,251,252,253,254,255,256,257,258,259,260,261,262,263,264,265,266,267,268,269,270,271,272,273,274,275,276,277,278,279,280,281,282,283,284,285,286,287,288,289,290,291,292,293,294,295,296,297,298,299,300],"tree_info":[0,0,0,0,0,0,0,0,0,0,0,0,0,0,0,0,0,0,0,0,0,0,0,0,0,0,0,0,0,0,0,0,0,0,0,0,0,0,0,0,0,0,0,0,0,0,0,0,0,0,0,0,0,0,0,0,0,0,0,0,0,0,0,0,0,0,0,0,0,0,0,0,0,0,0,0,0,0,0,0,0,0,0,0,0,0,0,0,0,0,0,0,0,0,0,0,0,0,0,0,0,0,0,0,0,0,0,0,0,0,0,0,0,0,0,0,0,0,0,0,0,0,0,0,0,0,0,0,0,0,0,0,0,0,0,0,0,0,0,0,0,0,0,0,0,0,0,0,0,0,0,0,0,0,0,0,0,0,0,0,0,0,0,0,0,0,0,0,0,0,0,0,0,0,0,0,0,0,0,0,0,0,0,0,0,0,0,0,0,0,0,0,0,0,0,0,0,0,0,0,0,0,0,0,0,0,0,0,0,0,0,0,0,0,0,0,0,0,0,0,0,0,0,0,0,0,0,0,0,0,0,0,0,0,0,0,0,0,0,0,0,0,0,0,0,0,0,0,0,0,0,0,0,0,0,0,0,0,0,0,0,0,0,0,0,0,0,0,0,0,0,0,0,0,0,0,0,0,0,0,0,0,0,0,0,0,0,0,0,0,0,0,0,0,0,0,0,0,0,0],"trees":[{"base_weights":[4.753218E-3,-3.348317E-1,6.213929E-1,-6.277677E-1,-4.590199E-2,3.3750635E-2,7.789616E-1,-7.449393E-1,-4.641155E-1,-3.4275824E-1,4.463908E-2,-2.1762729E-1,1.19312875E-1,6.1894387E-1,1.2076598E0,-4.0279668E-2,-2.8636057E-2,-2.7262447E-2,-2.6513867E-3,-2.094071E-2,7.3670144E-3,-1.1612221E-2,5.8638225E-3,-0E0,-1.5530496E-2,-1.3306305E-4,1.2748902E-2,1.7613458E-2,3.563703E-2,4.5066383E-2,8.0284245E-2],"categories":[],"categories_nodes":[],"categories_segments":[],"categories_sizes":[],"default_left":[0,0,0,0,0,0,0,0,0,0,0,0,0,0,0,0,0,0,0,0,0,0,0,0,0,0,0,0,0,0,0],"id":0,"left_children":[1,3,5,7,9,11,13,15,17,19,21,23,25,27,29,-1,-1,-1,-1,-1,-1,-1,-1,-1,-1,-1,-1,-1,-1,-1,-1],"loss_changes":[1.8734558E2,4.8356964E1,2.8985962E1,4.1689835E0,8.054822E0,1.5083663E0,1.4741577E1,6.984711E-2,3.8455067E0,2.8683968E0,4.5222096E0,3.5259444E-1,1.0376358E0,3.642807E0,3.7773132E0,0E0,0E0,0E0,0E0,0E0,0E0,0E0,0E0,0E0,0E0,0E0,0E0,0E0,0E0,0E0,0E0],"parents":[2147483647,0,0,1,1,2,2,3,3,4,4,5,5,6,6,7,7,8,8,9,9,10,10,11,11,12,12,13,13,14,14],"right_children":[2,4,6,8,10,12,14,16,18,20,22,24,26,28,30,-1,-1,-1,-1,-1,-1,-1,-1,-1,-1,-1,-1,-1,-1,-1,-1],"split_conditions":[1.6960127E1,5E-1,5.2E-1,1.3823913E1,1.2585119E1,4.7E-1,6.2E-1,4.7E-1,4.8E-1,5.9E-1,6.2706203E0,6.7001057E-1,8.4673524E-1,1.7879488E1,1.9824583E1,-4.0279668E-2,-2.8636057E-2,-2.7262447E-2,-2.6513867E-3,-2.094071E-2,7.3670144E-3,-1.1612221E-2,5.8638225E-3,-0E0,-1.5530496E-2,-1.3306305E-4,1.2748902E-2,1.7613458E-2,3.563703E-2,4.5066383E-2,8.0284245E-2],"split_indices":[6,4,5,6,6,4,5,4,4,4,1,0,0,6,6,0,0,0,0,0,0,0,0,0,0,0,0,0,0,0,0],"split_type":[0,0,0,0,0,0,0,0,0,0,0,0,0,0,0,0,0,0,0,0,0,0,0,0,0,0,0,0,0,0,0],"sum_hessian":[8.9E2,5.74E2,3.16E2,2.83E2,2.91E2,6.8E1,2.48E2,1.59E2,1.24E2,6.8E1,2.23E2,1.5E1,5.3E1,1.85E2,6.3E1,1.1E2,4.9E1,1.02E2,2.2E1,6E1,8E0,4.4E1,1.79E2,5E0,1E1,2.7E1,2.6E1,5.2E1,1.33E2,4E1,2.3E1],"tree_param":{"num_deleted":"0","num_feature":"7","num_nodes":"31","size_leaf_vector":"1"}},{"base_weights":[-3.7515193E-2,-4.5591623E-1,4.8870423E-1,-6.605187E-1,-2.395615E-1,3.3492842E-1,1.0312994E0,-7.486526E-1,-2.5340384E-2,-4.6401492E-1,-9.483772E-2,1.7504829E-1,6.328885E-1,4.0164124E-2,6.59927E-2,-3.876406E-2,-1.53097855E-2,-2.5411401E-2,-1.9602561E-3,-9.668097E-3,3.7536125E-3,-6.664425E-3,1.1542168E-2,1.704374E-2,4.2457264E-2],"categories":[],"categories_nodes":[],"categories_segments":[],"categories_sizes":[],"default_left":[0,0,0,0,0,0,0,0,0,0,0,0,0,0,0,0,0,0,0,0,0,0,0,0,0],"id":1,"left_children":[1,3,5,7,9,11,13,15,-1,17,19,21,23,-1,-1,-1,-1,-1,-1,-1,-1,-1,-1,-1,-1],"loss_changes":[1.9307863E2,2.0879913E1,3.1000015E1,1.9866638E0,7.4936285E0,1.3951656E1,2.3448105E0,7.753525E-1,0E0,1.4331741E0,2.6159544E0,3.6026602E0,5.4568253E0,0E0,0E0,0E0,0E0,0E0,0E0,0E0,0E0,0E0,0E0,0E0,0E0],"parents":[2147483647,0,0,1,1,2,2,3,3,4,4,5,5,6,6,7,7,9,9,10,10,11,11,12,12],"right_children":[2,4,6,8,10,12,14,16,-1,18,20,22,24,-1,-1,-1,-1,-1,-1,-1,-1,-1,-1,-1,-1],"split_conditions":[1.1357522E-1,4.8E-1,1.1595362E0,2.4181517E-2,5.7102364E-2,8.937683E0,6.2E-1,7.2221917E-1,-2.5340384E-2,5.6E-1,7.972833E0,5.994358E0,8.246073E-1,4.0164124E-2,6.59927E-2,-3.876406E-2,-1.53097855E-2,-2.5411401E-2,-1.9602561E-3,-9.668097E-3,3.7536125E-3,-6.664425E-3,1.1542168E-2,1.704374E-2,4.2457264E-2],"split_indices":[3,4,2,3,3,1,5,2,0,5,1,1,2,0,0,0,0,0,0,0,0,0,0,0,0],"split_type":[0,0,0,0,0,0,0,0,0,0,0,0,0,0,0,0,0,0,0,0,0,0,0,0,0],"sum_hessian":[8.73E2,4.87E2,3.86E2,2.47E2,2.4E2,3.04E2,8.2E1,1.5E2,9.7E1,9.1E1,1.49E2,2.01E2,1.03E2,5.1E1,3.1E1,1.39E2,1.1E1,8.1E1,1E1,9.6E1,5.3E1,2.9E1,1.72E2,4.7E1,5.6E1],"tree_param":{"num_deleted":"0","num_feature":"7","num_nodes":"25","size_leaf_vector":"1"}},{"base_weights":[-1.4807483E-2,-4.001035E-1,4.6659547E-1,-6.207974E-1,-1.9894952E-1,2.7868623E-1,9.155551E-1,-6.3510156E-1,-0E0,-3.4622088E-1,-0E0,8.172463E-2,5.909377E-1,6.270131E-1,5.819528E-2,-3.5515573E-2,-2.5344575E-2,-1.9440103E-2,-2.1169202E-3,-1.2188332E-2,2.515887E-3,-1.5573021E-3,1.6580788E-2,3.7915944E-4,3.3306696E-2,1.3442528E-2,3.4894403E-2],"categories":[],"categories_nodes":[],"categories_segments":[],"categories_sizes":[],"default_left":[0,0,0,0,0,0,0,0,0,0,0,0,0,0,0,0,0,0,0,0,0,0,0,0,0,0,0],"id":2,"left_children":[1,3,5,7,9,11,13,15,-1,17,19,21,23,25,-1,-1,-1,-1,-1,-1,-1,-1,-1,-1,-1,-1,-1],"loss_changes":[1.6375034E2,2.1140297E1,3.1963135E1,1.747673E0,7.529846E0,1.6787514E1,5.814163E0,8.5053253E-1,0E0,1.6795197E0,1.4883937E0,5.1068325E0,4.3467064E0,6.1369133E-1,0E0,0E0,0E0,0E0,0E0,0E0,0E0,0E0,0E0,0E0,0E0,0E0,0E0],"parents":[2147483647,0,0,1,1,2,2,3,3,4,4,5,5,6,6,7,7,9,9,10,10,11,11,12,12,13,13],"right_children":[2,4,6,8,10,12,14,16,-1,18,20,22,24,26,-1,-1,-1,-1,-1,-1,-1,-1,-1,-1,-1,-1,-1],"split_conditions":[1.1357522E-1,3.815731E-2,1.9156061E1,5.8E-1,5.2E-1,8.922887E0,1.6098724E-1,1.3041936E1,-0E0,1.7267073E1,1.2760094E1,5.8E-1,1.5093376E1,5.2E-1,5.819528E-2,-3.5515573E-2,-2.5344575E-2,-1.9440103E-2,-2.1169202E-3,-1.2188332E-2,2.515887E-3,-1.5573021E-3,1.6580788E-2,3.7915944E-4,3.3306696E-2,1.3442528E-2,3.4894403E-2],"split_indices":[3,3,6,5,5,1,3,6,0,6,6,5,6,5,0,0,0,0,0,0,0,0,0,0,0,0,0],"split_type":[0,0,0,0,0,0,0,0,0,0,0,0,0,0,0,0,0,0,0,0,0,0,0,0,0,0,0],"sum_hessian":[8.79E2,4.89E2,3.9E2,2.3E2,2.59E2,2.78E2,1.12E2,2.24E2,6E0,1.47E2,1.12E2,1.73E2,1.05E2,5.6E1,5.6E1,1.33E2,9.1E1,1.27E2,2E1,1.9E1,9.3E1,1.19E2,5.4E1,1.3E1,9.2E1,1.2E1,4.4E1],"tree_param":{"num_deleted":"0","num_feature":"7","num_nodes":"27","size_leaf_vector":"1"}},{"base_weights":[8.560351E-3,-3.8169324E-1,4.9491253E-1,-5.7199526E-1,-1.6104059E-1,2.4533856E-1,7.7225727E-1,-5.9693354E-1,-1.0561666E-1,-3.298936E-1,-1.8208189E-3,1.0153766E-1,4.021111E-1,6.104324E-1,1.176394E0,-3.071112E-2,-1.281334E-2,-1.05756745E-2,1.7334189E-3,-1.8836064E-2,-5.7461187E-3,-1.0850215E-2,2.4329254E-3,6.143899E-4,1.366394E-2,2.5263953E-3,2.6768653E-2,9.812987E-3,3.4211125E-2,3.989724E-2,7.430728E-2],"categories":[],"categories_nodes":[],"categories_segments":[],"categories_sizes":[],"default_left":[0,0,0,0,0,0,0,0,0,0,0,0,0,0,0,0,0,0,0,0,0,0,0,0,0,0,0,0,0,0,0],"id":3,"left_children":[1,3,5,7,9,11,13,15,17,19,21,23,25,27,29,-1,-1,-1,-1,-1,-1,-1,-1,-1,-1,-1,-1,-1,-1,-1,-1],"loss_changes":[1.7163463E2,2.0486572E1,2.7007141E1,2.6280212E0,6.177739E0,4.536027E0,1.0030846E1,7.34169E-1,3.5563576E-1,8.0511856E-1,1.463081E0,1.643862E0,4.385063E0,3.5698547E0,2.464714E0,0E0,0E0,0E0,0E0,0E0,0E0,0E0,0E0,0E0,0E0,0E0,0E0,0E0,0E0,0E0,0E0],"parents":[2147483647,0,0,1,1,2,2,3,3,4,4,5,5,6,6,7,7,8,8,9,9,10,10,11,11,12,12,13,13,14,14],"right_children":[2,4,6,8,10,12,14,16,18,20,22,24,26,28,30,-1,-1,-1,-1,-1,-1,-1,-1,-1,-1,-1,-1,-1,-1,-1,-1],"split_conditions":[1.1542019E-1,5.132331E-2,1.8185232E1,5.5E-1,5.1E-1,9.7956944E-1,6.2E-1,1.6055895E1,8.773413E-1,1.7241442E1,1.2987302E1,5.7E-1,1.6118055E1,5.3E-1,1.9824583E1,-3.071112E-2,-1.281334E-2,-1.05756745E-2,1.7334189E-3,-1.8836064E-2,-5.7461187E-3,-1.0850215E-2,2.4329254E-3,6.143899E-4,1.366394E-2,2.5263953E-3,2.6768653E-2,9.812987E-3,3.4211125E-2,3.989724E-2,7.430728E-2],"split_indices":[3,3,6,4,5,0,5,6,0,6,6,4,6,4,6,0,0,0,0,0,0,0,0,0,0,0,0,0,0,0,0],"split_type":[0,0,0,0,0,0,0,0,0,0,0,0,0,0,0,0,0,0,0,0,0,0,0,0,0,0,0,0,0,0,0],"sum_hessian":[9E2,4.99E2,4.01E2,2.65E2,2.34E2,2.14E2,1.87E2,2.5E2,1.5E1,1.11E2,1.23E2,1.15E2,9.9E1,1.38E2,4.9E1,2.35E2,1.5E1,1E1,5E0,8.8E1,2.3E1,2.4E1,9.9E1,7.9E1,3.6E1,2.9E1,7E1,2.3E1,1.15E2,2.6E1,2.3E1],"tree_param":{"num_deleted":"0","num_feature":"7","num_nodes":"31","size_leaf_vector":"1"}},{"base_weights":[1.5699588E-2,-3.5933012E-1,4.9412712E-1,-5.3952855E-1,-1.153357E-1,3.330084E-1,8.4989214E-1,-5.8072424E-1,-1.7709282E-1,-3.7155074E-1,-3.7782177E-2,9.722269E-2,4.6392366E-1,6.0863966E-1,6.334877E-2,-3.391459E-2,-2.2417376E-2,-1.139953E-2,2.8338432E-4,-2.2187172E-2,-0E0,-4.9330746E-3,6.3453885E-3,7.0962803E-3,-8.25674E-3,-0E0,2.777341E-2,2.322526E-3,3.3143517E-2],"categories":[],"categories_nodes":[],"categories_segments":[],"categories_sizes":[],"default_left":[0,0,0,0,0,0,0,0,0,0,0,0,0,0,0,0,0,0,0,0,0,0,0,0,0,0,0,0,0],"id":4,"left_children":[1,3,5,7,9,11,13,15,17,19,21,23,25,27,-1,-1,-1,-1,-1,-1,-1,-1,-1,-1,-1,-1,-1,-1,-1],"loss_changes":[1.5867497E2,2.1311974E1,2.1140137E1,3.640831E0,4.019519E0,8.025303E0,9.493996E0,2.0832062E0,4.207152E-1,1.2499323E0,1.695322E0,1.2198119E0,7.5050583E0,2.022789E0,0E0,0E0,0E0,0E0,0E0,0E0,0E0,0E0,0E0,0E0,0E0,0E0,0E0,0E0,0E0],"parents":[2147483647,0,0,1,1,2,2,3,3,4,4,5,5,6,6,7,7,8,8,9,9,10,10,11,11,12,12,13,13],"right_children":[2,4,6,8,10,12,14,16,18,20,22,24,26,28,-1,-1,-1,-1,-1,-1,-1,-1,-1,-1,-1,-1,-1,-1,-1],"split_conditions":[1.1542019E-1,5.7102364E-2,1.9156061E1,5.3E-1,4.8E-1,8.980603E-1,6E-1,1.3041936E1,1.1902941E0,1.7241442E1,7.964112E-1,8.6947924E-1,5.331571E-1,6.947413E-1,6.334877E-2,-3.391459E-2,-2.2417376E-2,-1.139953E-2,2.8338432E-4,-2.2187172E-2,-0E0,-4.9330746E-3,6.3453885E-3,7.0962803E-3,-8.25674E-3,-0E0,2.777341E-2,2.322526E-3,3.3143517E-2],"split_indices":[3,3,6,4,4,0,4,6,0,6,2,0,2,0,0,0,0,0,0,0,0,0,0,0,0,0,0,0,0],"split_type":[0,0,0,0,0,0,0,0,0,0,0,0,0,0,0,0,0,0,0,0,0,0,0,0,0,0,0,0,0],"sum_hessian":[8.8E2,4.93E2,3.87E2,2.81E2,2.12E2,2.7E2,1.17E2,2.5E2,3.1E1,4.6E1,1.66E2,9.9E1,1.71E2,7.8E1,3.9E1,1.37E2,1.13E2,2.6E1,5E0,3.8E1,8E0,1.24E2,4.2E1,8.7E1,1.2E1,2.8E1,1.43E2,8E0,7E1],"tree_param":{"num_deleted":"0","num_feature":"7","num_nodes":"29","size_leaf_vector":"1"}},{"base_weights":[-2.0523248E-3,-3.393026E-1,4.4405547E-1,-5.4935646E-1,-1.4190528E-1,1.8291494E-1,6.572199E-1,-5.868012E-1,-2.524141E-1,-3.080421E-1,2.02572E-2,8.858293E-2,3.558386E-1,4.6535677E-1,9.669769E-1,-3.3275258E-2,-2.2441637E-2,-0E0,-1.689571E-2,-1.6553717E-2,6.978637E-3,-1.8839211E-3,7.2336025E-3,2.716579E-2,2.337146E-3,1.148168E-2,2.4960157E-2,1.27429515E-2,2.7389517E-2,3.2782238E-2,6.126218E-2],"categories":[],"categories_nodes":[],"categories_segments":[],"categories_sizes":[],"default_left":[0,0,0,0,0,0,0,0,0,0,0,0,0,0,0,0,0,0,0,0,0,0,0,0,0,0,0,0,0,0,0],"id":5,"left_children":[1,3,5,7,9,11,13,15,17,19,21,23,25,27,29,-1,-1,-1,-1,-1,-1,-1,-1,-1,-1,-1,-1,-1,-1,-1,-1],"loss_changes":[1.3715845E2,2.1059784E1,2.1160515E1,2.0638733E0,7.4843693E0,2.650949E0,1.1102081E1,1.2234879E0,7.521243E-1,1.5902691E0,1.05911E0,1.9563277E0,5.1000595E-1,1.6966877E0,3.8050385E0,0E0,0E0,0E0,0E0,0E0,0E0,0E0,0E0,0E0,0E0,0E0,0E0,0E0,0E0,0E0,0E0],"parents":[2147483647,0,0,1,1,2,2,3,3,4,4,5,5,6,6,7,7,8,8,9,9,10,10,11,11,12,12,13,13,14,14],"right_children":[2,4,6,8,10,12,14,16,18,20,22,24,26,28,30,-1,-1,-1,-1,-1,-1,-1,-1,-1,-1,-1,-1,-1,-1,-1,-1],"split_conditions":[1.1542019E-1,4.8E-1,1.784065E1,6.856272E-1,7.720061E-2,8.7734264E-1,6E-1,2.4181517E-2,7.278383E-1,8.8244563E-1,1.6339241E1,1.1820224E-1,1.7096104E1,7.951873E-1,1.9555626E1,-3.3275258E-2,-2.2441637E-2,-0E0,-1.689571E-2,-1.6553717E-2,6.978637E-3,-1.8839211E-3,7.2336025E-3,2.716579E-2,2.337146E-3,1.148168E-2,2.4960157E-2,1.27429515E-2,2.7389517E-2,3.2782238E-2,6.126218E-2],"split_indices":[3,4,6,2,3,2,5,3,2,2,6,3,6,2,6,0,0,0,0,0,0,0,0,0,0,0,0,0,0,0,0],"split_type":[0,0,0,0,0,0,0,0,0,0,0,0,0,0,0,0,0,0,0,0,0,0,0,0,0,0,0,0,0,0,0],"sum_hessian":[9.08E2,5.18E2,3.9E2,2.48E2,2.7E2,1.78E2,2.12E2,2.17E2,3.1E1,1.34E2,1.36E2,1.19E2,5.9E1,1.35E2,7.7E1,1.31E2,8.6E1,8E0,2.3E1,1.29E2,5E0,9.1E1,4.5E1,7E0,1.12E2,3.6E1,2.3E1,4.2E1,9.3E1,3.9E1,3.8E1],"tree_param":{"num_deleted":"0","num_feature":"7","num_nodes":"31","size_leaf_vector":"1"}},{"base_weights":[-5.142503E-3,-3.8813183E-1,3.6649507E-1,-5.220981E-1,-1.9268325E-1,1.11748286E-1,6.202822E-1,-2.976439E-2,-4.2506176E-1,-4.309493E-1,-1.2034986E-1,1.3250707E-2,3.4404537E-1,4.502177E-1,9.184735E-1,-1.1515741E-3,-2.207156E-2,-2.4639113E-2,-2.6453198E-3,-8.963697E-3,3.0698552E-4,-1.114727E-2,3.1447068E-3,-5.074542E-4,2.2470558E-2,6.031617E-3,2.624678E-2,3.455265E-2,5.5416714E-2],"categories":[],"categories_nodes":[],"categories_segments":[],"categories_sizes":[],"default_left":[0,0,0,0,0,0,0,0,0,0,0,0,0,0,0,0,0,0,0,0,0,0,0,0,0,0,0,0,0],"id":6,"left_children":[1,3,5,7,9,11,13,-1,15,17,19,21,23,25,27,-1,-1,-1,-1,-1,-1,-1,-1,-1,-1,-1,-1,-1,-1],"loss_changes":[1.2583323E2,1.08574295E1,2.8459202E1,8.018799E-1,2.7573166E0,5.006154E0,9.797356E0,0E0,5.3715897E-1,6.1003304E-1,1.1620407E0,1.8592885E0,2.6918712E0,3.1705818E0,9.363785E-1,0E0,0E0,0E0,0E0,0E0,0E0,0E0,0E0,0E0,0E0,0E0,0E0,0E0,0E0],"parents":[2147483647,0,0,1,1,2,2,3,3,4,4,5,5,6,6,8,8,9,9,10,10,11,11,12,12,13,13,14,14],"right_children":[2,4,6,8,10,12,14,-1,16,18,20,22,24,26,28,-1,-1,-1,-1,-1,-1,-1,-1,-1,-1,-1,-1,-1,-1],"split_conditions":[1.0369437E-1,4.9E-1,1.7879488E1,4.5E-1,1.1879325E1,8.747286E0,6E-1,-2.976439E-2,4.1E-1,5.5E-1,9.252883E-2,4.9E-1,1.516761E1,5.3E-1,1.9555626E1,-1.1515741E-3,-2.207156E-2,-2.4639113E-2,-2.6453198E-3,-8.963697E-3,3.0698552E-4,-1.114727E-2,3.1447068E-3,-5.074542E-4,2.2470558E-2,6.031617E-3,2.624678E-2,3.455265E-2,5.5416714E-2],"split_indices":[3,4,6,4,6,1,5,0,5,4,3,5,6,4,6,0,0,0,0,0,0,0,0,0,0,0,0,0,0],"split_type":[0,0,0,0,0,0,0,0,0,0,0,0,0,0,0,0,0,0,0,0,0,0,0,0,0,0,0,0,0],"sum_hessian":[8.8E2,4.34E2,4.46E2,2.54E2,1.8E2,2.25E2,2.21E2,1.36E2,1.18E2,3.8E1,1.42E2,1.61E2,6.4E1,1.45E2,7.6E1,6E0,1.12E2,3.1E1,7E0,9.9E1,4.3E1,2.5E1,1.36E2,1.4E1,5E1,2.9E1,1.16E2,4E1,3.6E1],"tree_param":{"num_deleted":"0","num_feature":"7","num_nodes":"29","size_leaf_vector":"1"}},{"base_weights":[4.0205517E-3,-2.3475611E-1,4.792419E-1,-5.014435E-1,-6.233078E-2,3.5160616E-1,9.616905E-1,-5.366549E-1,-2.212494E-1,-2.781805E-1,1.6809646E-2,1.2329585E-2,4.3722686E-1,6.7951035E-1,6.350238E-2,-2.8357089E-2,-1.3813381E-2,-8.725828E-4,-1.4015371E-2,-1.876334E-2,-2.158548E-3,-1.9434994E-3,1.1895681E-2,-3.806589E-3,1.4951463E-2,1.6260318E-2,2.898377E-2,9.602747E-3,3.640234E-2],"categories":[],"categories_nodes":[],"categories_segments":[],"categories_sizes":[],"default_left":[0,0,0,0,0,0,0,0,0,0,0,0,0,0,0,0,0,0,0,0,0,0,0,0,0,0,0,0,0],"id":7,"left_children":[1,3,5,7,9,11,13,15,17,19,21,23,25,27,-1,-1,-1,-1,-1,-1,-1,-1,-1,-1,-1,-1,-1,-1,-1],"loss_changes":[1.0201796E2,2.7107845E1,1.7201958E1,1.6823654E0,6.3922105E0,6.7943172E0,2.606945E0,8.8435745E-1,2.1444952E-1,2.040001E0,3.417362E0,1.4757959E0,2.2343025E0,1.3569641E-1,0E0,0E0,0E0,0E0,0E0,0E0,0E0,0E0,0E0,0E0,0E0,0E0,0E0,0E0,0E0],"parents":[2147483647,0,0,1,1,2,2,3,3,4,4,5,5,6,6,7,7,8,8,9,9,10,10,11,11,12,12,13,13],"right_children":[2,4,6,8,10,12,14,16,18,20,22,24,26,28,-1,-1,-1,-1,-1,-1,-1,-1,-1,-1,-1,-1,-1,-1,-1],"split_conditions":[1.7267073E1,4.8E-1,6.2E-1,6.856272E-1,1.2987302E1,5.1E-1,1.9824583E1,1.5938889E1,7.359235E-1,5.5E-1,8.5945845E-1,1.9255894E1,9.7459924E-1,8.8539106E-1,6.350238E-2,-2.8357089E-2,-1.3813381E-2,-8.725828E-4,-1.4015371E-2,-1.876334E-2,-2.158548E-3,-1.9434994E-3,1.1895681E-2,-3.806589E-3,1.4951463E-2,1.6260318E-2,2.898377E-2,9.602747E-3,3.640234E-2],"split_indices":[6,4,5,2,6,5,6,6,2,4,2,6,2,2,0,0,0,0,0,0,0,0,0,0,0,0,0,0,0],"split_type":[0,0,0,0,0,0,0,0,0,0,0,0,0,0,0,0,0,0,0,0,0,0,0,0,0,0,0,0,0],"sum_hessian":[8.94E2,5.95E2,2.99E2,2.31E2,3.64E2,2.4E2,5.9E1,2.02E2,2.9E1,9.8E1,2.66E2,5E1,1.9E2,3.5E1,2.4E1,1.77E2,2.5E1,9E0,2E1,6.7E1,3.1E1,2.12E2,5.4E1,3.8E1,1.2E1,1.12E2,7.8E1,5E0,3E1],"tree_param":{"num_deleted":"0","num_feature":"7","num_nodes":"29","size_leaf_vector":"1"}},{"base_weights":[-7.835203E-3,-3.1526098E-1,3.4371772E-1,-4.8399055E-1,-1.381663E-1,9.400703E-2,5.607898E-1,-2.8268268E-2,-3.6684144E-1,-2.6345143E-1,8.054951E-3,-6.239841E-2,2.0268856E-1,4.0805814E-1,9.125091E-1,-2.1046273E-2,-4.0728366E-3,-1.8076437E-2,-6.886897E-3,-3.3539943E-3,8.570137E-3,-9.600096E-3,1.5436917E-3,4.2927862E-4,1.4598255E-2,4.966073E-3,2.702192E-2,3.0702844E-2,5.2975703E-2],"categories":[],"categories_nodes":[],"categories_segments":[],"categories_sizes":[],"default_left":[0,0,0,0,0,0,0,0,0,0,0,0,0,0,0,0,0,0,0,0,0,0,0,0,0,0,0,0,0],"id":8,"left_children":[1,3,5,7,9,11,13,-1,15,17,19,21,23,25,27,-1,-1,-1,-1,-1,-1,-1,-1,-1,-1,-1,-1,-1,-1],"loss_changes":[9.606629E1,1.3748707E1,2.2008133E1,1.4165497E0,4.455309E0,3.4271228E0,1.0413116E1,0E0,1.3317537E0,1.2412977E0,1.4129256E0,1.0594925E0,1.8895144E0,6.030327E0,6.6994476E-1,0E0,0E0,0E0,0E0,0E0,0E0,0E0,0E0,0E0,0E0,0E0,0E0,0E0,0E0],"parents":[2147483647,0,0,1,1,2,2,3,3,4,4,5,5,6,6,8,8,9,9,10,10,11,11,12,12,13,13,14,14],"right_children":[2,4,6,8,10,12,14,-1,16,18,20,22,24,26,28,-1,-1,-1,-1,-1,-1,-1,-1,-1,-1,-1,-1,-1,-1],"split_conditions":[1.1129568E-1,4.8E-1,1.784065E1,1.3953049E1,7.720061E-2,5.5E-1,1.1787498E0,-2.8268268E-2,6.5221685E-1,5.468951E-1,9.2760944E-1,6.345449E-1,9.076243E-1,9.3843025E-1,6E-1,-2.1046273E-2,-4.0728366E-3,-1.8076437E-2,-6.886897E-3,-3.3539943E-3,8.570137E-3,-9.600096E-3,1.5436917E-3,4.2927862E-4,1.4598255E-2,4.966073E-3,2.702192E-2,3.0702844E-2,5.2975703E-2],"split_indices":[3,4,6,6,3,4,2,0,2,2,0,2,0,0,4,0,0,0,0,0,0,0,0,0,0,0,0,0,0],"split_type":[0,0,0,0,0,0,0,0,0,0,0,0,0,0,0,0,0,0,0,0,0,0,0,0,0,0,0,0,0],"sum_hessian":[8.85E2,4.73E2,4.12E2,2.39E2,2.34E2,1.94E2,2.18E2,1.34E2,1.05E2,1.27E2,1.07E2,7.8E1,1.16E2,1.56E2,6.2E1,8.6E1,1.9E1,6.7E1,6E1,7.2E1,3.5E1,3.4E1,4.4E1,3.9E1,7.7E1,4.9E1,1.07E2,2.5E1,3.7E1],"tree_param":{"num_deleted":"0","num_feature":"7","num_nodes":"29","size_leaf_vector":"1"}},{"base_weights":[-1.4413119E-2,-2.9574257E-1,3.4072936E-1,-4.3389907E-1,-1.0551645E-1,1.4769015E-1,5.503383E-1,-4.5609322E-1,-5.002351E-2,-2.6785803E-1,-3.2898847E-3,-2.9444998E-2,2.5912762E-1,2.3163885E-1,6.8830127E-1,-3.093136E-2,-1.9814653E-2,4.3213493E-3,-9.28454E-3,-0E0,-1.4764125E-2,-7.7154445E-3,5.1340195E-3,1.1917837E-2,-3.6383108E-3,9.377164E-5,1.7477697E-2,4.9028266E-3,1.8977491E-2,3.0128283E-2,5.8826078E-2],"categories":[],"categories_nodes":[],"categories_segments":[],"categories_sizes":[],"default_left":[0,0,0,0,0,0,0,0,0,0,0,0,0,0,0,0,0,0,0,0,0,0,0,0,0,0,0,0,0,0,0],"id":9,"left_children":[1,3,5,7,9,11,13,15,17,19,21,23,25,27,29,-1,-1,-1,-1,-1,-1,-1,-1,-1,-1,-1,-1,-1,-1,-1,-1],"loss_changes":[8.830145E1,1.2621529E1,1.5268902E1,2.1209335E0,3.380936E0,4.216176E0,7.3553734E0,1.5973473E0,4.3345478E-1,7.123556E-1,2.2019756E0,8.800131E-1,2.8238192E0,8.722596E-1,3.008545E0,0E0,0E0,0E0,0E0,0E0,0E0,0E0,0E0,0E0,0E0,0E0,0E0,0E0,0E0,0E0,0E0],"parents":[2147483647,0,0,1,1,2,2,3,3,4,4,5,5,6,6,7,7,8,8,9,9,10,10,11,11,12,12,13,13,14,14],"right_children":[2,4,6,8,10,12,14,16,18,20,22,24,26,28,30,-1,-1,-1,-1,-1,-1,-1,-1,-1,-1,-1,-1,-1,-1,-1,-1],"split_conditions":[1.1357522E-1,5.132331E-2,8.9093876E-1,5.5E-1,5E-1,1.6609903E1,9.3843025E-1,2.6632142E-1,8.633494E-3,2.250422E-1,8.314985E-1,6.673835E-1,9.1792583E-1,1.1234932E0,1.5651962E0,-3.093136E-2,-1.9814653E-2,4.3213493E-3,-9.28454E-3,-0E0,-1.4764125E-2,-7.7154445E-3,5.1340195E-3,1.1917837E-2,-3.6383108E-3,9.377164E-5,1.7477697E-2,4.9028266E-3,1.8977491E-2,3.0128283E-2,5.8826078E-2],"split_indices":[3,3,2,4,4,6,0,2,3,2,0,0,0,2,2,0,0,0,0,0,0,0,0,0,0,0,0,0,0,0,0],"split_type":[0,0,0,0,0,0,0,0,0,0,0,0,0,0,0,0,0,0,0,0,0,0,0,0,0,0,0,0,0,0,0],"sum_hessian":[8.8E2,4.92E2,3.88E2,2.82E2,2.1E2,2.05E2,1.83E2,2.65E2,1.7E1,7.8E1,1.32E2,7.8E1,1.27E2,5.8E1,1.25E2,6.4E1,2.01E2,7E0,1E1,6E0,7.2E1,5.6E1,7.6E1,8E0,7E1,3.5E1,9.2E1,3.4E1,2.4E1,1.11E2,1.4E1],"tree_param":{"num_deleted":"0","num_feature":"7","num_nodes":"31","size_leaf_vector":"1"}},{"base_weights":[2.074048E-2,-2.5829056E-1,3.5574248E-1,-3.9923632E-1,-8.0386184E-2,1.2551667E-1,5.3644246E-1,-4.4593894E-1,-2.348689E-1,-2.3714657E-1,-0E0,3.624244E-2,2.7780682E-1,4.3330413E-1,9.1704464E-1,-2.5609998E-2,-1.7199732E-2,-0E0,-1.54421795E-2,-1.4377959E-2,-0E0,-3.2366712E-3,9.031419E-3,4.485186E-3,-6.493782E-3,-0E0,2.0443298E-2,8.362143E-3,2.5047263E-2,2.2846598E-2,5.4703563E-2],"categories":[],"categories_nodes":[],"categories_segments":[],"categories_sizes":[],"default_left":[0,0,0,0,0,0,0,0,0,0,0,0,0,0,0,0,0,0,0,0,0,0,0,0,0,0,0,0,0,0,0],"id":10,"left_children":[1,3,5,7,9,11,13,15,17,19,21,23,25,27,29,-1,-1,-1,-1,-1,-1,-1,-1,-1,-1,-1,-1,-1,-1,-1,-1],"loss_changes":[8.464129E1,1.2057915E1,1.6674297E1,1.5457764E0,2.895814E0,2.3380215E0,7.5194244E0,6.2454224E-1,1.0732701E0,9.6181345E-1,1.7902559E0,1.0778018E0,2.4290543E0,2.827736E0,1.9714622E0,0E0,0E0,0E0,0E0,0E0,0E0,0E0,0E0,0E0,0E0,0E0,0E0,0E0,0E0,0E0,0E0],"parents":[2147483647,0,0,1,1,2,2,3,3,4,4,5,5,6,6,7,7,8,8,9,9,10,10,11,11,12,12,13,13,14,14],"right_children":[2,4,6,8,10,12,14,16,18,20,22,24,26,28,30,-1,-1,-1,-1,-1,-1,-1,-1,-1,-1,-1,-1,-1,-1,-1,-1],"split_conditions":[1.1542019E-1,5.7102364E-2,1.784065E1,8.58465E-1,5E-1,8.7734264E-1,1.3096783E0,4.6885175E-1,9.033696E-1,1.7241442E1,7.929912E-1,7.7319586E-1,8.3641833E-1,8.980603E-1,1.9461868E1,-2.5609998E-2,-1.7199732E-2,-0E0,-1.54421795E-2,-1.4377959E-2,-0E0,-3.2366712E-3,9.031419E-3,4.485186E-3,-6.493782E-3,-0E0,2.0443298E-2,8.362143E-3,2.5047263E-2,2.2846598E-2,5.4703563E-2],"split_indices":[3,3,6,0,4,2,2,2,0,6,2,2,0,0,6,0,0,0,0,0,0,0,0,0,0,0,0,0,0,0,0],"split_type":[0,0,0,0,0,0,0,0,0,0,0,0,0,0,0,0,0,0,0,0,0,0,0,0,0,0,0,0,0,0,0],"sum_hessian":[9.01E2,4.91E2,4.1E2,2.71E2,2.2E2,1.83E2,2.27E2,2.06E2,6.5E1,7.5E1,1.45E2,1.19E2,6.4E1,1.83E2,4.4E1,1.17E2,8.9E1,1.7E1,4.8E1,6.2E1,1.3E1,1.06E2,3.9E1,9.3E1,2.6E1,2.1E1,4.3E1,4E1,1.43E2,1.5E1,2.9E1],"tree_param":{"num_deleted":"0","num_feature":"7","num_nodes":"31","size_leaf_vector":"1"}},{"base_weights":[8.25617E-3,-2.4806146E-1,3.391725E-1,-3.6458004E-1,-6.394469E-2,2.1849427E-1,6.3554454E-1,-2.6555795E-2,-2.9843444E-1,-1.4739105E-1,1.1040532E-1,1.0370866E-1,4.218388E-1,4.0603113E-1,4.2874042E-2,-1.8660037E-2,-7.737208E-3,-2.828972E-3,-1.5389404E-2,1.0500635E-2,-8.548376E-3,-9.181886E-4,9.699626E-3,-9.823441E-6,2.3269847E-2,-0E0,2.4136253E-2],"categories":[],"categories_nodes":[],"categories_segments":[],"categories_sizes":[],"default_left":[0,0,0,0,0,0,0,0,0,0,0,0,0,0,0,0,0,0,0,0,0,0,0,0,0,0,0],"id":11,"left_children":[1,3,5,7,9,11,13,-1,15,17,19,21,23,25,-1,-1,-1,-1,-1,-1,-1,-1,-1,-1,-1,-1,-1],"loss_changes":[7.392215E1,1.0251091E1,1.292197E1,2.5508728E0,2.8735197E0,6.06851E0,4.173149E0,0E0,1.984026E0,1.7348194E0,1.8289957E0,2.0787494E0,2.0159416E0,1.8561964E0,0E0,0E0,0E0,0E0,0E0,0E0,0E0,0E0,0E0,0E0,0E0,0E0,0E0],"parents":[2147483647,0,0,1,1,2,2,3,3,4,4,5,5,6,6,8,8,9,9,10,10,11,11,12,12,13,13],"right_children":[2,4,6,8,10,12,14,-1,16,18,20,22,24,26,-1,-1,-1,-1,-1,-1,-1,-1,-1,-1,-1,-1,-1],"split_conditions":[1.1542019E-1,6.9270045E-2,1.9307318E1,4.7276635E-3,8.036202E0,9.037203E0,1.6370852E-1,-2.6555795E-2,5.4475296E-1,6.8284154E0,5.8E-1,1.6609903E1,1.5093376E1,5.3E-1,4.2874042E-2,-1.8660037E-2,-7.737208E-3,-2.828972E-3,-1.5389404E-2,1.0500635E-2,-8.548376E-3,-9.181886E-4,9.699626E-3,-9.823441E-6,2.3269847E-2,-0E0,2.4136253E-2],"split_indices":[3,3,6,3,1,1,3,0,2,1,4,6,6,4,0,0,0,0,0,0,0,0,0,0,0,0,0],"split_type":[0,0,0,0,0,0,0,0,0,0,0,0,0,0,0,0,0,0,0,0,0,0,0,0,0,0,0],"sum_hessian":[8.67E2,4.88E2,3.79E2,2.96E2,1.92E2,2.73E2,1.06E2,7.8E1,2.18E2,1.32E2,6E1,1.78E2,9.5E1,5.6E1,5E1,1.39E2,7.9E1,8.8E1,4.4E1,4.6E1,1.4E1,7.4E1,1.04E2,8E0,8.7E1,9E0,4.7E1],"tree_param":{"num_deleted":"0","num_feature":"7","num_nodes":"27","size_leaf_vector":"1"}},{"base_weights":[2.5320107E-3,-2.476614E-1,3.2866308E-1,-3.482795E-1,-7.6719016E-2,2.1273616E-1,5.776368E-1,-3.8062686E-1,-9.19339E-2,-2.2672373E-1,-1.8789396E-3,1.2597477E-1,4.7214368E-1,3.709955E-1,3.7572198E-2,-2.552328E-2,-1.671496E-2,-7.489081E-3,5.7201176E-3,-1.4053467E-2,1.5445639E-3,-1.28584225E-2,1.7828885E-3,-7.185764E-3,8.441423E-3,-0E0,2.6280507E-2,2.4250115E-3,2.2295022E-2],"categories":[],"categories_nodes":[],"categories_segments":[],"categories_sizes":[],"default_left":[0,0,0,0,0,0,0,0,0,0,0,0,0,0,0,0,0,0,0,0,0,0,0,0,0,0,0,0,0],"id":12,"left_children":[1,3,5,7,9,11,13,15,17,19,21,23,25,27,-1,-1,-1,-1,-1,-1,-1,-1,-1,-1,-1,-1,-1,-1,-1],"loss_changes":[7.355796E1,8.488808E0,1.0673248E1,2.3306236E0,2.051535E0,5.7037687E0,3.2629318E0,9.205589E-1,5.294035E-1,1.0104697E0,1.4035983E0,2.4649835E0,1.8632622E0,1.1830931E0,0E0,0E0,0E0,0E0,0E0,0E0,0E0,0E0,0E0,0E0,0E0,0E0,0E0,0E0,0E0],"parents":[2147483647,0,0,1,1,2,2,3,3,4,4,5,5,6,6,7,7,8,8,9,9,10,10,11,11,12,12,13,13],"right_children":[2,4,6,8,10,12,14,16,18,20,22,24,26,28,-1,-1,-1,-1,-1,-1,-1,-1,-1,-1,-1,-1,-1,-1,-1],"split_conditions":[1.1542019E-1,7.011187E-2,1.9156061E1,5.3E-1,5E-1,9.6531315E0,1.6370852E-1,4.300321E-3,5.8E-1,1.7241442E1,1.2452381E1,5.994358E0,1.5093376E1,5.3E-1,3.7572198E-2,-2.552328E-2,-1.671496E-2,-7.489081E-3,5.7201176E-3,-1.4053467E-2,1.5445639E-3,-1.28584225E-2,1.7828885E-3,-7.185764E-3,8.441423E-3,-0E0,2.6280507E-2,2.4250115E-3,2.2295022E-2],"split_indices":[3,3,6,4,4,1,3,3,4,6,6,1,6,4,0,0,0,0,0,0,0,0,0,0,0,0,0,0,0],"split_type":[0,0,0,0,0,0,0,0,0,0,0,0,0,0,0,0,0,0,0,0,0,0,0,0,0,0,0,0,0],"sum_hessian":[8.97E2,5.07E2,3.9E2,3.16E2,1.91E2,2.7E2,1.2E2,2.78E2,3.8E1,6E1,1.31E2,2.06E2,6.4E1,5.9E1,6.1E1,6.5E1,2.13E2,3.2E1,6E0,5.1E1,9E0,1.7E1,1.14E2,2.6E1,1.8E2,6E0,5.8E1,1.3E1,4.6E1],"tree_param":{"num_deleted":"0","num_feature":"7","num_nodes":"29","size_leaf_vector":"1"}},{"base_weights":[1.320257E-2,-2.2744355E-1,3.226735E-1,-3.7024304E-1,-1.0079591E-1,1.7863297E-1,5.7170767E-1,-3.8626516E-1,-0E0,-1.3341501E-1,1.5020998E-1,-7.143796E-2,2.3666258E-1,3.3488783E-1,8.052555E-1,-1.9667685E-2,-0E0,5.2984008E-3,-6.452258E-3,-1.1274795E-2,-3.215213E-3,-5.6874733E-3,1.3963168E-2,1.8315854E-3,-1.7010208E-2,-3.6169365E-3,1.4562026E-2,7.7881305E-3,2.1928746E-2,2.8416881E-2,4.909365E-2],"categories":[],"categories_nodes":[],"categories_segments":[],"categories_sizes":[],"default_left":[0,0,0,0,0,0,0,0,0,0,0,0,0,0,0,0,0,0,0,0,0,0,0,0,0,0,0,0,0,0,0],"id":13,"left_children":[1,3,5,7,9,11,13,15,17,19,21,23,25,27,29,-1,-1,-1,-1,-1,-1,-1,-1,-1,-1,-1,-1,-1,-1,-1,-1],"loss_changes":[6.595403E1,8.678194E0,1.3338528E1,1.3079166E0,2.225956E0,3.7443042E0,6.633808E0,4.4768906E-1,1.9517311E-1,1.3534064E0,1.1682348E0,1.5418478E0,3.60884E0,9.406042E-1,9.542084E-1,0E0,0E0,0E0,0E0,0E0,0E0,0E0,0E0,0E0,0E0,0E0,0E0,0E0,0E0,0E0,0E0],"parents":[2147483647,0,0,1,1,2,2,3,3,4,4,5,5,6,6,7,7,8,8,9,9,10,10,11,11,12,12,13,13,14,14],"right_children":[2,4,6,8,10,12,14,16,18,20,22,24,26,28,30,-1,-1,-1,-1,-1,-1,-1,-1,-1,-1,-1,-1,-1,-1,-1,-1],"split_conditions":[1.1542019E-1,3.6504578E-2,9.7459924E-1,7.722744E-1,8.5559285E-1,1.5374375E1,1.0973532E0,1.0681406E0,1.22153845E1,7.720061E-2,7.874693E-1,7.3034847E-1,5.196805E-1,8.3641833E-1,1.9495556E1,-1.9667685E-2,-0E0,5.2984008E-3,-6.452258E-3,-1.1274795E-2,-3.215213E-3,-5.6874733E-3,1.3963168E-2,1.8315854E-3,-1.7010208E-2,-3.6169365E-3,1.4562026E-2,7.7881305E-3,2.1928746E-2,2.8416881E-2,4.909365E-2],"split_indices":[3,3,2,2,2,6,0,0,6,3,0,2,2,0,6,0,0,0,0,0,0,0,0,0,0,0,0,0,0,0,0],"split_type":[0,0,0,0,0,0,0,0,0,0,0,0,0,0,0,0,0,0,0,0,0,0,0,0,0,0,0,0,0,0,0],"sum_hessian":[8.81E2,4.95E2,3.86E2,2.29E2,2.66E2,2.48E2,1.38E2,2.19E2,1E1,2.38E2,2.8E1,4.5E1,2.03E2,7.2E1,6.6E1,2.14E2,5E0,5E0,5E0,9.7E1,1.41E2,8E0,2E1,3.2E1,1.3E1,2.9E1,1.74E2,3E1,4.2E1,3.3E1,3.3E1],"tree_param":{"num_deleted":"0","num_feature":"7","num_nodes":"31","size_leaf_vector":"1"}},{"base_weights":[1.0730443E-2,-2.4925561E-1,2.3909812E-1,-3.0733436E-1,-6.3098907E-3,1.5207064E-1,6.410801E-1,-3.8792464E-1,-2.1481505E-1,-8.514161E-2,2.1073057E-1,-7.314064E-2,2.3950487E-1,4.8715186E-1,5.2227117E-2,-2.0294094E-2,-9.337964E-3,-1.2029067E-2,-0E0,-1.0314329E-2,6.368865E-4,-0E0,1.6456448E-2,-9.075946E-3,5.8936304E-3,1.7712687E-3,1.8491633E-2,9.292192E-3,2.8471386E-2],"categories":[],"categories_nodes":[],"categories_segments":[],"categories_sizes":[],"default_left":[0,0,0,0,0,0,0,0,0,0,0,0,0,0,0,0,0,0,0,0,0,0,0,0,0,0,0,0,0],"id":14,"left_children":[1,3,5,7,9,11,13,15,17,19,21,23,25,27,-1,-1,-1,-1,-1,-1,-1,-1,-1,-1,-1,-1,-1,-1,-1],"loss_changes":[5.2302464E1,5.638502E0,1.5850679E1,1.9924984E0,1.3931922E0,7.797776E0,3.308998E0,1.6979218E-1,9.630828E-1,8.609154E-1,5.8400744E-1,2.331099E0,7.2981834E0,9.9729824E-1,0E0,0E0,0E0,0E0,0E0,0E0,0E0,0E0,0E0,0E0,0E0,0E0,0E0,0E0,0E0],"parents":[2147483647,0,0,1,1,2,2,3,3,4,4,5,5,6,6,7,7,8,8,9,9,10,10,11,11,12,12,13,13],"right_children":[2,4,6,8,10,12,14,16,18,20,22,24,26,28,-1,-1,-1,-1,-1,-1,-1,-1,-1,-1,-1,-1,-1,-1,-1],"split_conditions":[1.0328213E-1,5.3E-1,1.1595362E0,2.497891E-2,7.653423E-1,5.8662975E-1,1.5651962E0,7.2221917E-1,1.7444872E1,8.6947924E-1,6.729754E-2,5.6E-1,9.3843025E-1,1.778363E1,5.2227117E-2,-2.0294094E-2,-9.337964E-3,-1.2029067E-2,-0E0,-1.0314329E-2,6.368865E-4,-0E0,1.6456448E-2,-9.075946E-3,5.8936304E-3,1.7712687E-3,1.8491633E-2,9.292192E-3,2.8471386E-2],"split_indices":[3,4,2,3,2,2,2,2,6,0,3,4,0,6,0,0,0,0,0,0,0,0,0,0,0,0,0,0,0],"split_type":[0,0,0,0,0,0,0,0,0,0,0,0,0,0,0,0,0,0,0,0,0,0,0,0,0,0,0,0,0],"sum_hessian":[8.77E2,4.09E2,4.68E2,3.28E2,8.1E1,3.88E2,8E1,1.69E2,1.59E2,6.2E1,1.9E1,1.07E2,2.81E2,6.2E1,1.8E1,1.51E2,1.8E1,1.43E2,1.6E1,2.9E1,3.3E1,7E0,1.2E1,7E1,3.7E1,1.12E2,1.69E2,1.6E1,4.6E1],"tree_param":{"num_deleted":"0","num_feature":"7","num_nodes":"29","size_leaf_vector":"1"}},{"base_weights":[-6.788302E-3,-2.1521738E-1,2.6480088E-1,-3.6507452E-1,-9.479937E-2,1.8316273E-1,5.605005E-1,-0E0,-3.7682953E-1,-1.4072843E-1,9.2459045E-2,3.1508774E-2,2.905093E-1,3.55421E-1,4.041899E-2,-1.9738063E-2,-7.445725E-3,-1.0740002E-2,-2.539939E-3,-3.5663326E-3,7.922795E-3,-1.0888348E-3,8.8111E-3,-2.9226454E-4,1.8760417E-2,2.2184948E-2,7.1506947E-3],"categories":[],"categories_nodes":[],"categories_segments":[],"categories_sizes":[],"default_left":[0,0,0,0,0,0,0,0,0,0,0,0,0,0,0,0,0,0,0,0,0,0,0,0,0,0,0],"id":15,"left_children":[1,3,5,7,9,11,13,-1,15,17,19,21,23,25,-1,-1,-1,-1,-1,-1,-1,-1,-1,-1,-1,-1,-1],"loss_changes":[5.029967E1,8.795774E0,8.716885E0,1.0840816E0,2.4927294E0,4.8022213E0,2.9610996E0,0E0,4.9336433E-1,1.3841219E0,6.6068256E-1,1.0950533E0,4.631936E0,4.9852562E-1,0E0,0E0,0E0,0E0,0E0,0E0,0E0,0E0,0E0,0E0,0E0,0E0,0E0],"parents":[2147483647,0,0,1,1,2,2,3,3,4,4,5,5,6,6,8,8,9,9,10,10,11,11,12,12,13,13],"right_children":[2,4,6,8,10,12,14,-1,16,18,20,22,24,26,-1,-1,-1,-1,-1,-1,-1,-1,-1,-1,-1,-1,-1],"split_conditions":[1.1542019E-1,4.7E-1,1.1595362E0,4.23735E-1,7.929912E-1,9.4832134E-1,6.2E-1,-0E0,6.856272E-1,8.5193807E-1,5.2E-1,1.497361E-1,5.8662975E-1,1.6403389E-1,4.041899E-2,-1.9738063E-2,-7.445725E-3,-1.0740002E-2,-2.539939E-3,-3.5663326E-3,7.922795E-3,-1.0888348E-3,8.8111E-3,-2.9226454E-4,1.8760417E-2,2.2184948E-2,7.1506947E-3],"split_indices":[3,5,2,0,2,0,5,0,2,0,5,3,2,3,0,0,0,0,0,0,0,0,0,0,0,0,0],"split_type":[0,0,0,0,0,0,0,0,0,0,0,0,0,0,0,0,0,0,0,0,0,0,0,0,0,0,0],"sum_hessian":[8.85E2,5.02E2,3.83E2,2.2E2,2.82E2,3.04E2,7.9E1,6E0,2.14E2,2.29E2,5.3E1,1.29E2,1.75E2,4.7E1,3.2E1,1.95E2,1.9E1,1.21E2,1.08E2,1.3E1,4E1,9.3E1,3.6E1,3.8E1,1.37E2,3E1,1.7E1],"tree_param":{"num_deleted":"0","num_feature":"7","num_nodes":"27","size_leaf_vector":"1"}},{"base_weights":[-4.8581855E-3,-2.0399603E-1,2.4039102E-1,-3.3078778E-1,-8.936393E-2,1.0440335E-1,4.5183626E-1,-4.6150488E-1,-2.92506E-1,-1.7042808E-1,1.2347994E-2,-0E0,2.117643E-1,2.7349558E-1,5.970262E-1,-2.4637489E-2,-3.983786E-3,-1.5869658E-2,-7.4666827E-3,-1.1399517E-2,-4.2649484E-3,3.7019048E-3,-7.4326745E-3,-9.297201E-3,1.930305E-3,2.750925E-3,1.6388789E-2,-6.947306E-4,1.6107827E-2,2.5615135E-2,4.4376835E-2],"categories":[],"categories_nodes":[],"categories_segments":[],"categories_sizes":[],"default_left":[0,0,0,0,0,0,0,0,0,0,0,0,0,0,0,0,0,0,0,0,0,0,0,0,0,0,0,0,0,0,0],"id":16,"left_children":[1,3,5,7,9,11,13,15,17,19,21,23,25,27,29,-1,-1,-1,-1,-1,-1,-1,-1,-1,-1,-1,-1,-1,-1,-1,-1],"loss_changes":[4.27158E1,6.7654552E0,1.0870331E1,4.8893547E-1,2.2187536E0,2.6089487E0,3.1480541E0,1.7212582E-1,3.274603E-1,5.247941E-1,1.1169751E0,8.539605E-1,1.9000993E0,1.1839657E0,3.5975266E-1,0E0,0E0,0E0,0E0,0E0,0E0,0E0,0E0,0E0,0E0,0E0,0E0,0E0,0E0,0E0,0E0],"parents":[2147483647,0,0,1,1,2,2,3,3,4,4,5,5,6,6,7,7,8,8,9,9,10,10,11,11,12,12,13,13,14,14],"right_children":[2,4,6,8,10,12,14,16,18,20,22,24,26,28,30,-1,-1,-1,-1,-1,-1,-1,-1,-1,-1,-1,-1,-1,-1,-1,-1],"split_conditions":[1.1542019E-1,3.459518E-2,9.037203E0,3.0221883E-3,5.2E-1,8.2978445E-1,9.4426227E-1,8.58465E-1,5.1E-1,5.277754E-1,5.8E-1,5.994358E0,1.4849567E-1,5.196805E-1,1.5651962E0,-2.4637489E-2,-3.983786E-3,-1.5869658E-2,-7.4666827E-3,-1.1399517E-2,-4.2649484E-3,3.7019048E-3,-7.4326745E-3,-9.297201E-3,1.930305E-3,2.750925E-3,1.6388789E-2,-6.947306E-4,1.6107827E-2,2.5615135E-2,4.4376835E-2],"split_indices":[3,3,1,3,5,2,2,0,5,2,5,1,3,2,2,0,0,0,0,0,0,0,0,0,0,0,0,0,0,0,0],"split_type":[0,0,0,0,0,0,0,0,0,0,0,0,0,0,0,0,0,0,0,0,0,0,0,0,0,0,0,0,0,0,0],"sum_hessian":[8.71E2,4.82E2,3.89E2,2.25E2,2.57E2,2.4E2,1.49E2,4.3E1,1.82E2,1.45E2,1.12E2,1.25E2,1.15E2,7.1E1,7.8E1,3.8E1,5E0,1.5E2,3.2E1,8.1E1,6.4E1,8.4E1,2.8E1,1.8E1,1.07E2,5.2E1,6.3E1,9E0,6.2E1,6.6E1,1.2E1],"tree_param":{"num_deleted":"0","num_feature":"7","num_nodes":"31","size_leaf_vector":"1"}},{"base_weights":[1.6379654E-2,-1.3391817E-1,3.1909016E-1,-2.678874E-1,-4.9477173E-3,1.9269985E-1,5.8001775E-1,-3.242534E-1,-1.19338974E-1,-1.9218169E-1,6.086326E-2,-6.31399E-2,2.6217303E-1,3.9378816E-1,4.135397E-2,-1.7351288E-2,-3.5016728E-3,-7.654678E-3,8.855146E-3,-1.4315659E-2,-1.1379677E-3,8.444446E-4,1.0306186E-2,-1.658753E-2,-0E0,7.243617E-3,1.9728595E-2,-0E0,2.1713428E-2],"categories":[],"categories_nodes":[],"categories_segments":[],"categories_sizes":[],"default_left":[0,0,0,0,0,0,0,0,0,0,0,0,0,0,0,0,0,0,0,0,0,0,0,0,0,0,0,0,0],"id":17,"left_children":[1,3,5,7,9,11,13,15,17,19,21,23,25,27,-1,-1,-1,-1,-1,-1,-1,-1,-1,-1,-1,-1,-1,-1,-1],"loss_changes":[3.9987686E1,9.968603E0,9.01989E0,2.0871391E0,3.8103123E0,3.7051988E0,3.017128E0,9.1806984E-1,8.827487E-1,1.1242175E0,1.3059967E0,8.1910014E-1,2.1008282E0,1.0012178E0,0E0,0E0,0E0,0E0,0E0,0E0,0E0,0E0,0E0,0E0,0E0,0E0,0E0,0E0,0E0],"parents":[2147483647,0,0,1,1,2,2,3,3,4,4,5,5,6,6,7,7,8,8,9,9,10,10,11,11,12,12,13,13],"right_children":[2,4,6,8,10,12,14,16,18,20,22,24,26,28,-1,-1,-1,-1,-1,-1,-1,-1,-1,-1,-1,-1,-1,-1,-1],"split_conditions":[1.7267073E1,5E-1,9.6531315E0,5.677338E-1,1.2987302E1,5.1E-1,1.1427846E0,1.5986667E1,7.577199E0,5.5E-1,9.112912E0,5.4004297E0,1.9222445E1,4.937188E-1,4.135397E-2,-1.7351288E-2,-3.5016728E-3,-7.654678E-3,8.855146E-3,-1.4315659E-2,-1.1379677E-3,8.444446E-4,1.0306186E-2,-1.658753E-2,-0E0,7.243617E-3,1.9728595E-2,-0E0,2.1713428E-2],"split_indices":[6,4,1,2,6,5,2,6,1,4,1,1,6,2,0,0,0,0,0,0,0,0,0,0,0,0,0,0,0],"split_type":[0,0,0,0,0,0,0,0,0,0,0,0,0,0,0,0,0,0,0,0,0,0,0,0,0,0,0,0,0],"sum_hessian":[8.73E2,5.83E2,2.9E2,2.83E2,3E2,1.99E2,9.1E1,2.01E2,8.2E1,7.9E1,2.21E2,4.1E1,1.58E2,5.6E1,3.5E1,1.82E2,1.9E1,7.6E1,6E0,4.8E1,3.1E1,1.74E2,4.7E1,7E0,3.4E1,8.8E1,7E1,5E0,5.1E1],"tree_param":{"num_deleted":"0","num_feature":"7","num_nodes":"29","size_leaf_vector":"1"}},{"base_weights":[-1.37945255E-2,-1.933512E-1,2.2100312E-1,-3.0439988E-1,-9.518381E-2,-1.0271129E-2,3.1555903E-1,-2.0228151E-2,-2.515101E-1,-1.6443288E-1,-3.6134652E-3,-1.6389963E-1,7.154995E-2,2.0716886E-1,5.168469E-1,-0E0,-1.3912864E-2,-0E0,-8.5384725E-3,-8.281818E-3,1.7798543E-3,-1.0523927E-2,2.8851551E-3,8.373638E-3,-5.3009815E-3,-1.2061853E-3,1.27736125E-2,1.600923E-2,3.9449617E-2],"categories":[],"categories_nodes":[],"categories_segments":[],"categories_sizes":[],"default_left":[0,0,0,0,0,0,0,0,0,0,0,0,0,0,0,0,0,0,0,0,0,0,0,0,0,0,0,0,0],"id":18,"left_children":[1,3,5,7,9,11,13,-1,15,17,19,21,23,25,27,-1,-1,-1,-1,-1,-1,-1,-1,-1,-1,-1,-1,-1,-1],"loss_changes":[3.7846535E1,5.3019543E0,8.644043E0,7.186947E-1,1.6649487E0,1.4900445E0,5.4673233E0,0E0,1.2256956E0,1.812892E-1,8.6458474E-1,5.3420293E-1,1.3096443E0,2.1948595E0,3.971117E0,0E0,0E0,0E0,0E0,0E0,0E0,0E0,0E0,0E0,0E0,0E0,0E0,0E0,0E0],"parents":[2147483647,0,0,1,1,2,2,3,3,4,4,5,5,6,6,8,8,9,9,10,10,11,11,12,12,13,13,14,14],"right_children":[2,4,6,8,10,12,14,-1,16,18,20,22,24,26,28,-1,-1,-1,-1,-1,-1,-1,-1,-1,-1,-1,-1,-1,-1],"split_conditions":[1.1542019E-1,3.815731E-2,1.6747154E1,4.7276635E-3,5.2E-1,1.4990769E1,6E-1,-2.0228151E-2,5.610323E-3,4.384888E-1,1.2760094E1,6.2E-1,1.6366667E1,5.1E-1,1.9555626E1,-0E0,-1.3912864E-2,-0E0,-8.5384725E-3,-8.281818E-3,1.7798543E-3,-1.0523927E-2,2.8851551E-3,8.373638E-3,-5.3009815E-3,-1.2061853E-3,1.27736125E-2,1.600923E-2,3.9449617E-2],"split_indices":[3,3,6,3,5,6,5,0,3,0,6,5,6,5,6,0,0,0,0,0,0,0,0,0,0,0,0,0,0],"split_type":[0,0,0,0,0,0,0,0,0,0,0,0,0,0,0,0,0,0,0,0,0,0,0,0,0,0,0,0,0],"sum_hessian":[8.94E2,5.08E2,3.86E2,2.34E2,2.74E2,1.11E2,2.75E2,7.3E1,1.61E2,1.52E2,1.22E2,4E1,7.1E1,1.83E2,9.2E1,1.4E1,1.47E2,5E0,1.47E2,2.5E1,9.7E1,3.5E1,5E0,4.8E1,2.3E1,3E1,1.53E2,5.7E1,3.5E1],"tree_param":{"num_deleted":"0","num_feature":"7","num_nodes":"29","size_leaf_vector":"1"}},{"base_weights":[6.847623E-3,-1.4400512E-1,2.9298964E-1,-2.549501E-1,-3.146487E-3,5.7070766E-2,3.953284E-1,-2.0674836E-2,-2.1297173E-1,-4.2332266E-2,1.9603278E-1,-9.502156E-2,1.501054E-1,3.0450147E-1,5.939798E-1,-1.2706275E-2,-3.041899E-3,-8.441403E-3,-7.012885E-4,1.528051E-2,-0E0,-1.1982968E-2,-0E0,-1.4912644E-4,1.0884031E-2,1.21721085E-2,2.647233E-2,3.151723E-2,6.194277E-3],"categories":[],"categories_nodes":[],"categories_segments":[],"categories_sizes":[],"default_left":[0,0,0,0,0,0,0,0,0,0,0,0,0,0,0,0,0,0,0,0,0,0,0,0,0,0,0,0,0],"id":19,"left_children":[1,3,5,7,9,11,13,-1,15,17,19,21,23,25,27,-1,-1,-1,-1,-1,-1,-1,-1,-1,-1,-1,-1,-1,-1],"loss_changes":[3.8446507E1,8.948961E0,7.164917E0,1.6603737E0,1.9690455E0,1.4286044E0,3.0321617E0,0E0,1.4519472E0,6.9516134E-1,7.59357E-1,5.365016E-1,7.603792E-1,1.4434958E0,5.436821E-1,0E0,0E0,0E0,0E0,0E0,0E0,0E0,0E0,0E0,0E0,0E0,0E0,0E0,0E0],"parents":[2147483647,0,0,1,1,2,2,3,3,4,4,5,5,6,6,8,8,9,9,10,10,11,11,12,12,13,13,14,14],"right_children":[2,4,6,8,10,12,14,-1,16,18,20,22,24,26,28,-1,-1,-1,-1,-1,-1,-1,-1,-1,-1,-1,-1,-1,-1],"split_conditions":[1.7096104E1,7.720061E-2,1.3770483E-1,4.042619E-3,9.264586E0,6.7041507E0,6.2E-1,-2.0674836E-2,7.3314123E0,4.9E-1,1.4849567E-1,4.9E-1,5.1E-1,1.025932E1,6.8E-1,-1.2706275E-2,-3.041899E-3,-8.441403E-3,-7.012885E-4,1.528051E-2,-0E0,-1.1982968E-2,-0E0,-1.4912644E-4,1.0884031E-2,1.21721085E-2,2.647233E-2,3.151723E-2,6.194277E-3],"split_indices":[6,3,3,3,1,1,5,0,1,4,3,4,5,1,5,0,0,0,0,0,0,0,0,0,0,0,0,0,0],"split_type":[0,0,0,0,0,0,0,0,0,0,0,0,0,0,0,0,0,0,0,0,0,0,0,0,0,0,0,0,0],"sum_hessian":[8.85E2,5.79E2,3.06E2,3.21E2,2.58E2,9.5E1,2.11E2,6.1E1,2.6E2,2.19E2,3.9E1,3.4E1,6.1E1,1.5E2,6.1E1,2.01E2,5.9E1,3.5E1,1.84E2,2.3E1,1.6E1,1.3E1,2.1E1,1.7E1,4.4E1,1.23E2,2.7E1,5.5E1,6E0],"tree_param":{"num_deleted":"0","num_feature":"7","num_nodes":"29","size_leaf_vector":"1"}},{"base_weights":[3.908179E-3,-1.3587318E-1,2.837097E-1,-2.524394E-1,-0E0,-1.9615872E-2,3.5111535E-1,-3.343891E-1,-1.7084332E-1,-1.7307141E-1,2.2265663E-2,-7.815035E-2,1.7051278E-2,2.7278638E-1,5.682625E-1,-1.9294225E-2,-8.840844E-3,-1.1908701E-2,-3.6916637E-3,2.1671057E-4,-1.38415815E-2,3.081801E-3,-4.374919E-3,1.0123308E-2,-6.416229E-3,-0E0,1.4549151E-2,1.9973686E-2,4.2199276E-2],"categories":[],"categories_nodes":[],"categories_segments":[],"categories_sizes":[],"default_left":[0,0,0,0,0,0,0,0,0,0,0,0,0,0,0,0,0,0,0,0,0,0,0,0,0,0,0,0,0],"id":20,"left_children":[1,3,5,7,9,11,13,15,17,19,21,23,-1,25,27,-1,-1,-1,-1,-1,-1,-1,-1,-1,-1,-1,-1,-1,-1],"loss_changes":[3.574206E1,9.632144E0,6.4155083E0,1.819704E0,1.0834504E0,1.1040225E0,3.5386848E0,8.642349E-1,9.257555E-1,7.2769314E-1,1.0868602E0,7.3295766E-1,0E0,1.0177717E0,1.6359253E0,0E0,0E0,0E0,0E0,0E0,0E0,0E0,0E0,0E0,0E0,0E0,0E0,0E0,0E0],"parents":[2147483647,0,0,1,1,2,2,3,3,4,4,5,5,6,6,7,7,8,8,9,9,10,10,11,11,13,13,14,14],"right_children":[2,4,6,8,10,12,14,16,18,20,22,24,-1,26,28,-1,-1,-1,-1,-1,-1,-1,-1,-1,-1,-1,-1,-1,-1],"split_conditions":[1.7241442E1,7.720061E-2,5.1E-1,1.2799531E1,4.8E-1,1.9743828E1,6.2E-1,7.104971E0,6.297488E0,5.091603E0,1.4590882E-1,8.779605E-2,1.7051278E-2,5.87893E0,2.0116026E1,-1.9294225E-2,-8.840844E-3,-1.1908701E-2,-3.6916637E-3,2.1671057E-4,-1.38415815E-2,3.081801E-3,-4.374919E-3,1.0123308E-2,-6.416229E-3,-0E0,1.4549151E-2,1.9973686E-2,4.2199276E-2],"split_indices":[6,3,5,6,4,6,5,1,1,1,3,3,0,1,6,0,0,0,0,0,0,0,0,0,0,0,0,0,0],"split_type":[0,0,0,0,0,0,0,0,0,0,0,0,0,0,0,0,0,0,0,0,0,0,0,0,0,0,0,0,0],"sum_hessian":[9.08E2,6.05E2,3.03E2,3.25E2,2.8E2,5.4E1,2.49E2,1.56E2,1.69E2,3E1,2.5E2,4.9E1,5E0,1.88E2,6.1E1,1.13E2,4.3E1,9.5E1,7.4E1,1E1,2E1,1.88E2,6.2E1,5E0,4.4E1,1.1E1,1.77E2,4.2E1,1.9E1],"tree_param":{"num_deleted":"0","num_feature":"7","num_nodes":"29","size_leaf_vector":"1"}},{"base_weights":[-6.994255E-3,-1.2899089E-1,2.7084473E-1,-2.4094743E-1,-1.8164314E-2,1.8222834E-1,4.8243898E-1,-2.509807E-1,8.376171E-3,-9.787852E-2,8.8820025E-2,9.106089E-2,3.22648E-1,1.2159996E-1,5.6357163E-1,-1.5588388E-2,-1.0119561E-2,7.796506E-3,-3.5071194E-3,-5.76042E-3,7.7445987E-3,-5.7175416E-3,6.965687E-3,-2.6633935E-3,7.2555593E-3,-0E0,1.7322343E-2,-0E0,1.3076328E-2,2.9702162E-2,4.1498323E-3],"categories":[],"categories_nodes":[],"categories_segments":[],"categories_sizes":[],"default_left":[0,0,0,0,0,0,0,0,0,0,0,0,0,0,0,0,0,0,0,0,0,0,0,0,0,0,0,0,0,0,0],"id":21,"left_children":[1,3,5,7,9,11,13,15,17,19,21,23,25,27,29,-1,-1,-1,-1,-1,-1,-1,-1,-1,-1,-1,-1,-1,-1,-1,-1],"loss_changes":[3.0504824E1,7.653764E0,4.629534E0,9.009819E-1,2.7509313E0,2.2691212E0,1.8038692E0,5.028057E-1,2.0379716E-1,8.34998E-1,1.4292878E0,1.0365078E0,5.941496E-1,3.4940735E-1,4.7079277E-1,0E0,0E0,0E0,0E0,0E0,0E0,0E0,0E0,0E0,0E0,0E0,0E0,0E0,0E0,0E0,0E0],"parents":[2147483647,0,0,1,1,2,2,3,3,4,4,5,5,6,6,7,7,8,8,9,9,10,10,11,11,12,12,13,13,14,14],"right_children":[2,4,6,8,10,12,14,16,18,20,22,24,26,28,30,-1,-1,-1,-1,-1,-1,-1,-1,-1,-1,-1,-1,-1,-1,-1,-1],"split_conditions":[1.7420477E1,5E-1,9.69106E0,5.2E-1,1.5374375E1,1.9307318E1,5.5E-1,1.2799531E1,5.4E-1,1.0645726E1,6.5426497E0,5.1E-1,5.495085E0,1.084946E1,6.5E-1,-1.5588388E-2,-1.0119561E-2,7.796506E-3,-3.5071194E-3,-5.76042E-3,7.7445987E-3,-5.7175416E-3,6.965687E-3,-2.6633935E-3,7.2555593E-3,-0E0,1.7322343E-2,-0E0,1.3076328E-2,2.9702162E-2,4.1498323E-3],"split_indices":[6,4,1,5,6,6,5,6,5,1,1,5,1,1,4,0,0,0,0,0,0,0,0,0,0,0,0,0,0,0,0],"split_type":[0,0,0,0,0,0,0,0,0,0,0,0,0,0,0,0,0,0,0,0,0,0,0,0,0,0,0,0,0,0,0],"sum_hessian":[8.98E2,6.26E2,2.72E2,3.08E2,3.18E2,1.96E2,7.6E1,2.98E2,1E1,1.85E2,1.33E2,1.23E2,7.3E1,1.6E1,6E1,1.23E2,1.75E2,5E0,5E0,1.76E2,9E0,2.4E1,1.09E2,3.1E1,9.2E1,5E0,6.8E1,9E0,7E0,5.5E1,5E0],"tree_param":{"num_deleted":"0","num_feature":"7","num_nodes":"31","size_leaf_vector":"1"}},{"base_weights":[4.9316143E-3,-1.8042485E-1,1.5075698E-1,-2.69015E-1,-9.962159E-2,6.215518E-2,2.9792008E-1,-3.272062E-1,-1.455058E-1,-1.9175488E-1,-2.3290722E-2,1.9324116E-2,2.0580927E-1,1.2128762E-3,3.5984617E-1,-1.9260911E-2,-1.0038349E-2,-0E0,-9.145082E-3,-1.2900355E-2,-4.094147E-3,-2.3123778E-3,1.2214859E-2,-1.0164523E-2,2.2065362E-3,-4.695921E-3,1.3111618E-2,-6.921492E-3,5.952041E-3,1.5474771E-2,3.0792926E-2],"categories":[],"categories_nodes":[],"categories_segments":[],"categories_sizes":[],"default_left":[0,0,0,0,0,0,0,0,0,0,0,0,0,0,0,0,0,0,0,0,0,0,0,0,0,0,0,0,0,0,0],"id":22,"left_children":[1,3,5,7,9,11,13,15,17,19,21,23,25,27,29,-1,-1,-1,-1,-1,-1,-1,-1,-1,-1,-1,-1,-1,-1,-1,-1],"loss_changes":[2.3771622E1,2.5252142E0,6.2241526E0,9.621086E-1,1.3463287E0,1.8053235E0,3.1810226E0,4.1785908E-1,3.176465E-1,4.5021462E-1,6.545848E-1,1.2968515E0,1.3003116E0,5.9914654E-1,1.0896759E0,0E0,0E0,0E0,0E0,0E0,0E0,0E0,0E0,0E0,0E0,0E0,0E0,0E0,0E0,0E0,0E0],"parents":[2147483647,0,0,1,1,2,2,3,3,4,4,5,5,6,6,7,7,8,8,9,9,10,10,11,11,12,12,13,13,14,14],"right_children":[2,4,6,8,10,12,14,16,18,20,22,24,26,28,30,-1,-1,-1,-1,-1,-1,-1,-1,-1,-1,-1,-1,-1,-1,-1,-1],"split_conditions":[9.4367005E-2,4.6E-1,5.8E-1,1.865636E-2,1.2987302E1,9.037203E0,1.5859957E1,1.3041936E1,1.2970909E1,7.274501E0,1.7367332E1,4.8E-1,1.5998215E1,1.2781516E-1,2.0695473E1,-1.9260911E-2,-1.0038349E-2,-0E0,-9.145082E-3,-1.2900355E-2,-4.094147E-3,-2.3123778E-3,1.2214859E-2,-1.0164523E-2,2.2065362E-3,-4.695921E-3,1.3111618E-2,-6.921492E-3,5.952041E-3,1.5474771E-2,3.0792926E-2],"split_indices":[3,5,5,3,6,1,6,6,6,1,6,4,6,3,6,0,0,0,0,0,0,0,0,0,0,0,0,0,0,0,0],"split_type":[0,0,0,0,0,0,0,0,0,0,0,0,0,0,0,0,0,0,0,0,0,0,0,0,0,0,0,0,0,0,0],"sum_hessian":[8.76E2,3.84E2,4.92E2,1.78E2,2.06E2,3.11E2,1.81E2,1.16E2,6.2E1,8.9E1,1.17E2,2.44E2,6.7E1,3.3E1,1.48E2,7.4E1,4.2E1,1.4E1,4.8E1,5.1E1,3.8E1,1.11E2,6E0,2.1E1,2.23E2,9E0,5.8E1,1.3E1,2E1,1.29E2,1.9E1],"tree_param":{"num_deleted":"0","num_feature":"7","num_nodes":"31","size_leaf_vector":"1"}},{"base_weights":[1.1096209E-2,-8.8565506E-2,2.941498E-1,-1.802883E-1,2.3281792E-2,1.17043935E-1,4.1628286E-1,-2.5155908E-1,-1.1152293E-1,-1.15380995E-1,8.1603274E-2,3.1692132E-2,2.8614524E-1,3.280967E-1,6.7502433E-1,-1.3644454E-2,1.1344533E-3,3.3793666E-3,-6.7104916E-3,-1.1616829E-2,-1.9127218E-3,-1.4791786E-3,5.9565785E-3,-4.153565E-3,5.9931506E-3,1.9652192E-2,4.0347873E-5,-0E0,1.7347822E-2,1.7655006E-2,4.2919934E-2],"categories":[],"categories_nodes":[],"categories_segments":[],"categories_sizes":[],"default_left":[0,0,0,0,0,0,0,0,0,0,0,0,0,0,0,0,0,0,0,0,0,0,0,0,0,0,0,0,0,0,0],"id":23,"left_children":[1,3,5,7,9,11,13,15,17,19,21,23,25,27,29,-1,-1,-1,-1,-1,-1,-1,-1,-1,-1,-1,-1,-1,-1,-1,-1],"loss_changes":[2.5853846E1,7.001428E0,4.8055744E0,1.5904083E0,2.452309E0,1.2951205E0,2.2271156E0,1.178731E0,8.51954E-1,6.4072216E-1,9.5728827E-1,7.668633E-1,7.785127E-1,7.8582287E-1,6.770935E-1,0E0,0E0,0E0,0E0,0E0,0E0,0E0,0E0,0E0,0E0,0E0,0E0,0E0,0E0,0E0,0E0],"parents":[2147483647,0,0,1,1,2,2,3,3,4,4,5,5,6,6,7,7,8,8,9,9,10,10,11,11,12,12,13,13,14,14],"right_children":[2,4,6,8,10,12,14,16,18,20,22,24,26,28,30,-1,-1,-1,-1,-1,-1,-1,-1,-1,-1,-1,-1,-1,-1,-1,-1],"split_conditions":[8.8244563E-1,1.5202604E1,9.8489845E-1,4.8E-1,6.315928E0,1.1727817E0,1.3500502E0,7.2221917E-1,5.874384E-1,5.0914794E-1,5.1E-1,7.401963E-1,1.3708317E0,5.3E-1,1.9650406E1,-1.3644454E-2,1.1344533E-3,3.3793666E-3,-6.7104916E-3,-1.1616829E-2,-1.9127218E-3,-1.4791786E-3,5.9565785E-3,-4.153565E-3,5.9931506E-3,1.9652192E-2,4.0347873E-5,-0E0,1.7347822E-2,1.7655006E-2,4.2919934E-2],"split_indices":[2,6,0,4,1,2,2,2,0,2,4,0,2,4,6,0,0,0,0,0,0,0,0,0,0,0,0,0,0,0,0],"split_type":[0,0,0,0,0,0,0,0,0,0,0,0,0,0,0,0,0,0,0,0,0,0,0,0,0,0,0,0,0,0,0],"sum_hessian":[9.09E2,6.72E2,2.37E2,3.71E2,3.01E2,1E2,1.37E2,1.76E2,1.95E2,8.6E1,2.15E2,7E1,3E1,1.07E2,3E1,1.65E2,1.1E1,1.9E1,1.76E2,3E1,5.6E1,5.1E1,1.64E2,2.8E1,4.2E1,2E1,1E1,5E0,1.02E2,1.4E1,1.6E1],"tree_param":{"num_deleted":"0","num_feature":"7","num_nodes":"31","size_leaf_vector":"1"}},{"base_weights":[1.0666311E-2,-1.5389352E-1,1.6869743E-1,-2.6587903E-1,-9.4932444E-2,1.0462503E-1,4.701092E-1,-3.1548065E-1,-6.1759517E-2,-1.8851596E-1,-5.716159E-2,-5.5615228E-2,1.4669572E-1,3.4778252E-1,7.271423E-1,-5.16836E-3,-1.6447557E-2,-7.6424615E-3,3.171612E-3,-1.0633275E-2,2.460616E-3,-4.7023334E-3,-0E0,5.9626084E-3,-7.6016947E-3,1.3240468E-3,1.0648485E-2,2.1090193E-2,4.5112404E-3,1.4546583E-2,4.72957E-2],"categories":[],"categories_nodes":[],"categories_segments":[],"categories_sizes":[],"default_left":[0,0,0,0,0,0,0,0,0,0,0,0,0,0,0,0,0,0,0,0,0,0,0,0,0,0,0,0,0,0,0],"id":24,"left_children":[1,3,5,7,9,11,13,15,17,19,21,23,25,27,29,-1,-1,-1,-1,-1,-1,-1,-1,-1,-1,-1,-1,-1,-1,-1,-1],"loss_changes":[2.317828E1,2.641326E0,8.420615E0,1.2506123E0,8.8421583E-1,2.6235962E0,1.4092388E0,4.4421196E-2,4.4042113E-1,5.5619955E-1,4.5058727E-1,1.367769E0,2.2909975E0,7.7362776E-1,9.306555E-1,0E0,0E0,0E0,0E0,0E0,0E0,0E0,0E0,0E0,0E0,0E0,0E0,0E0,0E0,0E0,0E0],"parents":[2147483647,0,0,1,1,2,2,3,3,4,4,5,5,6,6,7,7,8,8,9,9,10,10,11,11,12,12,13,13,14,14],"right_children":[2,4,6,8,10,12,14,16,18,20,22,24,26,28,30,-1,-1,-1,-1,-1,-1,-1,-1,-1,-1,-1,-1,-1,-1,-1,-1],"split_conditions":[1.0369437E-1,4.5E-1,1.1787498E0,3.1092003E-2,1.1905556E1,1.5495025E1,1.5651962E0,4.5228982E-1,7.3899156E-1,7.4469185E-1,5.2E-1,7.633732E-1,9.3843025E-1,1.4100229E0,6E-1,-5.16836E-3,-1.6447557E-2,-7.6424615E-3,3.171612E-3,-1.0633275E-2,2.460616E-3,-4.7023334E-3,-0E0,5.9626084E-3,-7.6016947E-3,1.3240468E-3,1.0648485E-2,2.1090193E-2,4.5112404E-3,1.4546583E-2,4.72957E-2],"split_indices":[3,4,2,3,6,6,2,0,0,2,4,0,0,2,4,0,0,0,0,0,0,0,0,0,0,0,0,0,0,0,0],"split_type":[0,0,0,0,0,0,0,0,0,0,0,0,0,0,0,0,0,0,0,0,0,0,0,0,0,0,0,0,0,0,0],"sum_hessian":[8.87E2,4.33E2,4.54E2,1.44E2,2.89E2,3.78E2,7.6E1,1.13E2,3.1E1,7.7E1,2.12E2,7.6E1,3.02E2,5.6E1,2E1,1E1,1.03E2,2E1,1.1E1,7.2E1,5E0,1.28E2,8.4E1,2.5E1,5.1E1,1.11E2,1.91E2,4.1E1,1.5E1,9E0,1.1E1],"tree_param":{"num_deleted":"0","num_feature":"7","num_nodes":"31","size_leaf_vector":"1"}},{"base_weights":[-1.1215179E-2,-1.5495387E-1,1.3210481E-1,-1.827298E-1,3.332673E-2,3.3064869E-3,2.2712049E-1,-2.4714635E-1,-1.396728E-1,-1.2276701E-2,8.456197E-2,1.861654E-2,-7.577801E-3,1.8497293E-1,2.5452314E-2,-1.517007E-2,-8.131065E-3,-5.4171025E-3,-1.2953986E-2,4.5315232E-4,1.1102583E-2,-6.003671E-3,2.2673777E-3,-0E0,1.1495581E-2],"categories":[],"categories_nodes":[],"categories_segments":[],"categories_sizes":[],"default_left":[0,0,0,0,0,0,0,0,0,0,0,0,0,0,0,0,0,0,0,0,0,0,0,0,0],"id":25,"left_children":[1,3,5,7,9,11,13,15,17,-1,19,-1,21,23,-1,-1,-1,-1,-1,-1,-1,-1,-1,-1,-1],"loss_changes":[1.8757736E1,2.471609E0,5.439272E0,8.469858E-1,7.8971446E-1,9.7928315E-1,2.5422344E0,3.9581776E-1,6.9168615E-1,0E0,4.201945E-1,0E0,1.1913961E0,2.015252E0,0E0,0E0,0E0,0E0,0E0,0E0,0E0,0E0,0E0,0E0,0E0],"parents":[2147483647,0,0,1,1,2,2,3,3,4,4,5,5,6,6,7,7,8,8,10,10,12,12,13,13],"right_children":[2,4,6,8,10,12,14,16,18,-1,20,-1,22,24,-1,-1,-1,-1,-1,-1,-1,-1,-1,-1,-1],"split_conditions":[5.3E-1,1.7617172E1,1.6699791E1,1.2799531E1,4.407591E0,6.2648183E-1,2.0554792E1,4.7E-1,9.1228646E-1,-1.2276701E-2,1.9255894E1,1.861654E-2,8.4557456E-1,7.540028E0,2.5452314E-2,-1.517007E-2,-8.131065E-3,-5.4171025E-3,-1.2953986E-2,4.5315232E-4,1.1102583E-2,-6.003671E-3,2.2673777E-3,-0E0,1.1495581E-2],"split_indices":[4,6,6,6,1,0,6,4,0,0,6,0,0,1,0,0,0,0,0,0,0,0,0,0,0],"split_type":[0,0,0,0,0,0,0,0,0,0,0,0,0,0,0,0,0,0,0,0,0,0,0,0,0],"sum_hessian":[9.06E2,4.54E2,4.52E2,3.98E2,5.6E1,1.95E2,2.57E2,1.51E2,2.47E2,6E0,5E1,5E0,1.9E2,2.28E2,2.9E1,8.4E1,6.7E1,2.02E2,4.5E1,3.6E1,1.4E1,6.3E1,1.27E2,4.3E1,1.85E2],"tree_param":{"num_deleted":"0","num_feature":"7","num_nodes":"25","size_leaf_vector":"1"}},{"base_weights":[-1.5494521E-4,-1.3945927E-1,1.4947005E-1,-2.5853923E-1,-8.775769E-2,6.894881E-2,3.6028016E-1,-2.6855993E-1,-0E0,-1.2934327E-2,-6.437086E-2,-1.8872421E-2,1.5739435E-1,2.96706E-1,3.8749207E-2,-1.6972495E-2,-9.852909E-3,-6.3902186E-3,-9.444013E-4,-2.845911E-3,4.219391E-3,2.5960929E-3,1.1721553E-2,-0E0,1.5670272E-2],"categories":[],"categories_nodes":[],"categories_segments":[],"categories_sizes":[],"default_left":[0,0,0,0,0,0,0,0,0,0,0,0,0,0,0,0,0,0,0,0,0,0,0,0,0],"id":26,"left_children":[1,3,5,7,9,11,13,15,-1,-1,17,19,21,23,-1,-1,-1,-1,-1,-1,-1,-1,-1,-1,-1],"loss_changes":[1.8399729E1,2.6073627E0,6.932971E0,3.524332E-1,1.1083472E0,2.490862E0,2.0361814E0,2.5690174E-1,0E0,0E0,7.6428556E-1,6.048075E-1,1.1162694E0,3.7204456E-1,0E0,0E0,0E0,0E0,0E0,0E0,0E0,0E0,0E0,0E0,0E0],"parents":[2147483647,0,0,1,1,2,2,3,3,4,4,5,5,6,6,7,7,10,10,11,11,12,12,13,13],"right_children":[2,4,6,8,10,12,14,16,-1,-1,18,20,22,24,-1,-1,-1,-1,-1,-1,-1,-1,-1,-1,-1],"split_conditions":[1.0949965E-1,4.5E-1,9.69106E0,7.5068814E-1,4.7276635E-3,8.2978445E-1,1.5651962E0,6.2648183E-1,-0E0,-1.2934327E-2,6.297488E0,5.8E-1,9.0150005E-1,5.4E-1,3.8749207E-2,-1.6972495E-2,-9.852909E-3,-6.3902186E-3,-9.444013E-4,-2.845911E-3,4.219391E-3,2.5960929E-3,1.1721553E-2,-0E0,1.5670272E-2],"split_indices":[3,4,1,2,3,2,2,0,0,0,1,4,0,4,0,0,0,0,0,0,0,0,0,0,0],"split_type":[0,0,0,0,0,0,0,0,0,0,0,0,0,0,0,0,0,0,0,0,0,0,0,0,0],"sum_hessian":[8.79E2,4.57E2,4.22E2,1.33E2,3.24E2,3.09E2,1.13E2,1.28E2,5E0,3.4E1,2.9E2,1.53E2,1.56E2,1.02E2,1.1E1,5.7E1,7.1E1,1.15E2,1.75E2,1.16E2,3.7E1,7E1,8.6E1,7E0,9.5E1],"tree_param":{"num_deleted":"0","num_feature":"7","num_nodes":"25","size_leaf_vector":"1"}},{"base_weights":[-4.2929347E-3,-9.693941E-2,2.3841685E-1,-1.8400784E-1,-0E0,1.5252143E-1,4.4957972E-1,-2.2161974E-1,-1.03977926E-1,-3.5923816E-2,1.591531E-1,-7.383377E-2,1.9294803E-1,3.41992E-1,6.8863475E-1,-1.1490531E-2,-0E0,-1.0493892E-2,-0E0,-5.302945E-3,5.934027E-4,-8.205618E-3,1.0671202E-2,-1.16589805E-2,-0E0,-3.639247E-3,1.03011215E-2,1.9035524E-2,-0E0,1.2464248E-2,4.3872096E-2],"categories":[],"categories_nodes":[],"categories_segments":[],"categories_sizes":[],"default_left":[0,0,0,0,0,0,0,0,0,0,0,0,0,0,0,0,0,0,0,0,0,0,0,0,0,0,0,0,0,0,0],"id":27,"left_children":[1,3,5,7,9,11,13,15,17,19,21,23,25,27,29,-1,-1,-1,-1,-1,-1,-1,-1,-1,-1,-1,-1,-1,-1,-1,-1],"loss_changes":[2.0235558E1,5.492259E0,4.060013E0,8.2658005E-1,1.7767478E0,1.7443385E0,7.8831005E-1,3.6773872E-1,1.3231279E0,9.143996E-1,1.0947101E0,3.9653882E-1,6.3860035E-1,7.583418E-1,4.9231339E-1,0E0,0E0,0E0,0E0,0E0,0E0,0E0,0E0,0E0,0E0,0E0,0E0,0E0,0E0,0E0,0E0],"parents":[2147483647,0,0,1,1,2,2,3,3,4,4,5,5,6,6,7,7,8,8,9,9,10,10,11,11,12,12,13,13,14,14],"right_children":[2,4,6,8,10,12,14,16,18,20,22,24,26,28,30,-1,-1,-1,-1,-1,-1,-1,-1,-1,-1,-1,-1,-1,-1,-1,-1],"split_conditions":[1.7770834E1,7.720061E-2,1.1595362E0,5.4256636E-1,9.112912E0,6.297488E0,1.5651962E0,7.088675E-2,6.209841E0,5.9352076E-1,1.22153845E1,1.8170092E1,9.6541196E-2,1.8397544E-1,1.061976E0,-1.1490531E-2,-0E0,-1.0493892E-2,-0E0,-5.302945E-3,5.934027E-4,-8.205618E-3,1.0671202E-2,-1.16589805E-2,-0E0,-3.639247E-3,1.03011215E-2,1.9035524E-2,-0E0,1.2464248E-2,4.3872096E-2],"split_indices":[6,3,2,2,1,1,2,3,1,2,6,6,3,3,0,0,0,0,0,0,0,0,0,0,0,0,0,0,0,0,0],"split_type":[0,0,0,0,0,0,0,0,0,0,0,0,0,0,0,0,0,0,0,0,0,0,0,0,0,0,0,0,0,0,0],"sum_hessian":[8.99E2,6.53E2,2.46E2,3.42E2,3.11E2,1.79E2,6.7E1,2.26E2,1.16E2,2.56E2,5.5E1,2.5E1,1.54E2,5.1E1,1.6E1,2.17E2,9E0,5.7E1,5.9E1,1.07E2,1.49E2,6E0,4.9E1,8E0,1.7E1,5E0,1.49E2,4.6E1,5E0,7E0,9E0],"tree_param":{"num_deleted":"0","num_feature":"7","num_nodes":"31","size_leaf_vector":"1"}},{"base_weights":[1.2395408E-2,-1.384187E-1,1.4054038E-1,-1.7010346E-1,1.8092992E-2,6.4053096E-2,3.5618982E-1,-0E0,-1.7918003E-1,-7.45851E-2,1.3974622E-1,3.8784917E-2,2.8001836E-1,2.7670383E-1,6.2563854E-1,-2.8577924E-3,1.5068277E-3,-2.0112546E-2,-8.160045E-3,1.1109591E-3,-1.3625458E-2,1.0192447E-2,-0E0,-2.3170297E-4,5.0498247E-3,1.7220398E-2,-2.2568021E-4,2.1409357E-2,1.1345512E-2,1.4512417E-2,4.0599056E-2],"categories":[],"categories_nodes":[],"categories_segments":[],"categories_sizes":[],"default_left":[0,0,0,0,0,0,0,0,0,0,0,0,0,0,0,0,0,0,0,0,0,0,0,0,0,0,0,0,0,0,0],"id":28,"left_children":[1,3,5,7,9,11,13,15,17,19,21,23,25,27,29,-1,-1,-1,-1,-1,-1,-1,-1,-1,-1,-1,-1,-1,-1,-1,-1],"loss_changes":[1.7027584E1,2.0806513E0,7.6285906E0,5.257673E-1,8.08824E-1,1.7670441E0,1.8369341E0,3.55825E-2,7.30176E-1,8.4617114E-1,3.3082277E-1,9.242942E-1,8.142874E-1,2.3242092E-1,5.3996944E-1,0E0,0E0,0E0,0E0,0E0,0E0,0E0,0E0,0E0,0E0,0E0,0E0,0E0,0E0,0E0,0E0],"parents":[2147483647,0,0,1,1,2,2,3,3,4,4,5,5,6,6,7,7,8,8,9,9,10,10,11,11,12,12,13,13,14,14],"right_children":[2,4,6,8,10,12,14,16,18,20,22,24,26,28,30,-1,-1,-1,-1,-1,-1,-1,-1,-1,-1,-1,-1,-1,-1,-1,-1],"split_conditions":[5.2E-1,7.680189E-1,1.065474E0,4.6389523E-1,7.633732E-1,1.0700897E1,1.5651962E0,3.858718E0,5.0308806E-1,6.1527715E0,1.01856E0,5.7E-1,6.4E-1,1.1083273E0,6E-1,-2.8577924E-3,1.5068277E-3,-2.0112546E-2,-8.160045E-3,1.1109591E-3,-1.3625458E-2,1.0192447E-2,-0E0,-2.3170297E-4,5.0498247E-3,1.7220398E-2,-2.2568021E-4,2.1409357E-2,1.1345512E-2,1.4512417E-2,4.0599056E-2],"split_indices":[5,2,2,0,0,1,2,1,0,1,0,5,4,2,4,0,0,0,0,0,0,0,0,0,0,0,0,0,0,0,0],"split_type":[0,0,0,0,0,0,0,0,0,0,0,0,0,0,0,0,0,0,0,0,0,0,0,0,0,0,0,0,0,0,0],"sum_hessian":[8.77E2,4.01E2,4.76E2,3.36E2,6.5E1,3.55E2,1.21E2,1.7E1,3.19E2,3.5E1,3E1,3.22E2,3.3E1,9.8E1,2.3E1,5E0,1.2E1,1.6E1,3.03E2,2.3E1,1.2E1,2.1E1,9E0,1.86E2,1.36E2,2.8E1,5E0,1.8E1,8E1,1.1E1,1.2E1],"tree_param":{"num_deleted":"0","num_feature":"7","num_nodes":"31","size_leaf_vector":"1"}},{"base_weights":[-2.7973414E-3,-1.6316594E-1,8.9305714E-2,-2.0493403E-1,-7.6013364E-2,2.9216269E-2,2.2762112E-1,-2.163609E-1,9.524931E-5,-1.9613646E-1,-1.3020216E-2,9.380029E-3,1.850006E-1,1.1312673E-1,3.474154E-1,-1.1184839E-2,-0E0,-0E0,-1.2161303E-2,9.566952E-4,-1.3036229E-2,-1.7426839E-5,9.941382E-3,1.2858263E-2,-0E0,-1.1589801E-2,8.136761E-3,1.3516595E-2,2.5537867E-2],"categories":[],"categories_nodes":[],"categories_segments":[],"categories_sizes":[],"default_left":[0,0,0,0,0,0,0,0,0,0,0,0,0,0,0,0,0,0,0,0,0,0,0,0,0,0,0,0,0],"id":29,"left_children":[1,3,5,7,9,11,13,15,-1,17,19,21,23,25,27,-1,-1,-1,-1,-1,-1,-1,-1,-1,-1,-1,-1,-1,-1],"loss_changes":[1.3196993E1,1.0187159E0,4.545852E0,6.185732E-1,7.4537754E-1,1.1292288E0,1.9953747E0,3.1795692E-1,0E0,4.4902408E-1,7.5998515E-1,7.591913E-1,6.788275E-1,1.5980222E0,3.279934E-1,0E0,0E0,0E0,0E0,0E0,0E0,0E0,0E0,0E0,0E0,0E0,0E0,0E0,0E0],"parents":[2147483647,0,0,1,1,2,2,3,3,4,4,5,5,6,6,7,7,9,9,10,10,11,11,12,12,13,13,14,14],"right_children":[2,4,6,8,10,12,14,16,-1,18,20,22,24,26,28,-1,-1,-1,-1,-1,-1,-1,-1,-1,-1,-1,-1,-1,-1],"split_conditions":[7.720061E-2,5.4475296E-1,9.112912E0,7.088675E-2,6.439794E-1,1.1595362E0,9.4426227E-1,5.7E-1,9.524931E-5,4.337042E0,7.176105E-2,1.2944144E0,1.6521859E-1,9.1792583E-1,1.14887085E1,-1.1184839E-2,-0E0,-0E0,-1.2161303E-2,9.566952E-4,-1.3036229E-2,-1.7426839E-5,9.941382E-3,1.2858263E-2,-0E0,-1.1589801E-2,8.136761E-3,1.3516595E-2,2.5537867E-2],"split_indices":[3,2,1,3,0,2,2,5,0,1,3,0,3,0,1,0,0,0,0,0,0,0,0,0,0,0,0,0,0],"split_type":[0,0,0,0,0,0,0,0,0,0,0,0,0,0,0,0,0,0,0,0,0,0,0,0,0,0,0,0,0],"sum_hessian":[8.87E2,3.25E2,5.62E2,2.14E2,1.11E2,3.96E2,1.66E2,2.05E2,9E0,3.4E1,7.7E1,3.56E2,4E1,8.9E1,7.7E1,1.98E2,7E0,5E0,2.9E1,6.8E1,9E0,3.38E2,1.8E1,3E1,1E1,9E0,8E1,5.8E1,1.9E1],"tree_param":{"num_deleted":"0","num_feature":"7","num_nodes":"29","size_leaf_vector":"1"}},{"base_weights":[-6.022334E-3,-1.2393454E-1,1.12383164E-1,-1.7366754E-1,-4.289833E-2,4.485359E-2,2.8833255E-1,-1.892404E-1,4.1927114E-2,-2.9875175E-3,-1.2987502E-1,-6.707215E-2,7.196131E-2,1.9407104E-1,4.5059547E-1,-8.823324E-3,-2.110088E-2,9.369007E-3,-6.211711E-3,-2.0272955E-3,4.426478E-3,-1.0498331E-2,-0E0,-7.903583E-3,2.4177895E-3,1.7550128E-3,8.5724415E-3,1.5241498E-2,1.4686715E-3,2.5473177E-2,8.9494436E-4],"categories":[],"categories_nodes":[],"categories_segments":[],"categories_sizes":[],"default_left":[0,0,0,0,0,0,0,0,0,0,0,0,0,0,0,0,0,0,0,0,0,0,0,0,0,0,0,0,0,0,0],"id":30,"left_children":[1,3,5,7,9,11,13,15,17,19,21,23,25,27,29,-1,-1,-1,-1,-1,-1,-1,-1,-1,-1,-1,-1,-1,-1,-1,-1],"loss_changes":[1.2515171E1,1.6944256E0,5.0949364E0,1.0128164E0,5.50686E-1,1.0011989E0,1.3534851E0,3.2194424E-1,5.131671E-1,4.2315316E-1,5.777264E-1,7.108824E-1,8.6383605E-1,1.3108125E0,7.624321E-1,0E0,0E0,0E0,0E0,0E0,0E0,0E0,0E0,0E0,0E0,0E0,0E0,0E0,0E0,0E0,0E0],"parents":[2147483647,0,0,1,1,2,2,3,3,4,4,5,5,6,6,7,7,8,8,9,9,10,10,11,11,12,12,13,13,14,14],"right_children":[2,4,6,8,10,12,14,16,18,20,22,24,26,28,30,-1,-1,-1,-1,-1,-1,-1,-1,-1,-1,-1,-1,-1,-1,-1,-1],"split_conditions":[5.3E-1,7.088675E-2,9.69106E0,9.558623E-1,9.145419E-1,9.252883E-2,6.2E-1,9.310385E-1,8.370781E0,8.141892E-1,5.2E-1,7.972833E0,6E-1,1.205619E0,1.7514694E0,-8.823324E-3,-2.110088E-2,9.369007E-3,-6.211711E-3,-2.0272955E-3,4.426478E-3,-1.0498331E-2,-0E0,-7.903583E-3,2.4177895E-3,1.7550128E-3,8.5724415E-3,1.5241498E-2,1.4686715E-3,2.5473177E-2,8.9494436E-4],"split_indices":[4,3,1,0,0,3,5,0,1,0,5,1,5,0,0,0,0,0,0,0,0,0,0,0,0,0,0,0,0,0,0],"split_type":[0,0,0,0,0,0,0,0,0,0,0,0,0,0,0,0,0,0,0,0,0,0,0,0,0,0,0,0,0,0,0],"sum_hessian":[8.92E2,4.49E2,4.43E2,2.73E2,1.76E2,3.24E2,1.19E2,2.57E2,1.6E1,1.26E2,5E1,5.9E1,2.65E2,8E1,3.9E1,2.49E2,8E0,1E1,6E0,9.4E1,3.2E1,3.1E1,1.9E1,3.5E1,2.4E1,1.99E2,6.6E1,4.5E1,3.5E1,3.3E1,6E0],"tree_param":{"num_deleted":"0","num_feature":"7","num_nodes":"31","size_leaf_vector":"1"}},{"base_weights":[6.0896925E-3,-5.6417234E-2,2.3768888E-1,-1.5185033E-1,1.9147411E-3,9.415198E-2,3.1859708E-1,-1.8480657E-1,-5.1473208E-2,-6.1103757E-2,7.13745E-2,-1.1879724E-1,1.6440251E-1,3.3941695E-1,-0E0,-9.560438E-3,-0E0,1.1090497E-2,-4.705453E-3,5.84007E-3,-3.8995475E-3,-1.8096911E-3,4.9696215E-3,-0E0,-9.534303E-3,9.827015E-3,-1.355543E-3,1.4118701E-2,2.5329331E-2],"categories":[],"categories_nodes":[],"categories_segments":[],"categories_sizes":[],"default_left":[0,0,0,0,0,0,0,0,0,0,0,0,0,0,0,0,0,0,0,0,0,0,0,0,0,0,0,0,0],"id":31,"left_children":[1,3,5,7,9,11,13,15,17,19,21,23,25,27,-1,-1,-1,-1,-1,-1,-1,-1,-1,-1,-1,-1,-1,-1,-1],"loss_changes":[1.3189783E1,4.0335445E0,1.9866152E0,7.65934E-1,1.9398477E0,1.1838486E0,7.360401E-1,2.6450634E-1,8.401208E-1,6.837984E-1,6.8375623E-1,1.8230402E-1,4.585054E-1,3.9697647E-1,0E0,0E0,0E0,0E0,0E0,0E0,0E0,0E0,0E0,0E0,0E0,0E0,0E0,0E0,0E0],"parents":[2147483647,0,0,1,1,2,2,3,3,4,4,5,5,6,6,7,7,8,8,9,9,10,10,11,11,12,12,13,13],"right_children":[2,4,6,8,10,12,14,16,18,20,22,24,26,28,-1,-1,-1,-1,-1,-1,-1,-1,-1,-1,-1,-1,-1,-1,-1],"split_conditions":[1.8185232E1,6.231049E0,1.489905E-1,8.71274E-2,1.5374375E1,7.684621E-1,1.5005322E0,5.5E-1,8.928069E-2,5.874384E-1,9.6541196E-2,1.1215117E-1,1.4590882E-1,1.0342407E1,-0E0,-9.560438E-3,-0E0,1.1090497E-2,-4.705453E-3,5.84007E-3,-3.8995475E-3,-1.8096911E-3,4.9696215E-3,-0E0,-9.534303E-3,9.827015E-3,-1.355543E-3,1.4118701E-2,2.5329331E-2],"split_indices":[6,1,3,3,6,0,0,4,3,0,3,3,3,1,0,0,0,0,0,0,0,0,0,0,0,0,0,0,0],"split_type":[0,0,0,0,0,0,0,0,0,0,0,0,0,0,0,0,0,0,0,0,0,0,0,0,0,0,0,0,0],"sum_hessian":[9.01E2,7.09E2,1.92E2,2.71E2,4.38E2,7.3E1,1.19E2,1.99E2,7.2E1,2.26E2,2.12E2,1.6E1,5.7E1,1.11E2,8E0,1.93E2,6E0,7E0,6.5E1,1.6E1,2.1E2,4E1,1.72E2,6E0,1E1,5.1E1,6E0,8.9E1,2.2E1],"tree_param":{"num_deleted":"0","num_feature":"7","num_nodes":"29","size_leaf_vector":"1"}},{"base_weights":[7.1817553E-3,-6.595703E-2,1.9309247E-1,-1.431319E-1,1.4749141E-2,1.0456602E-1,3.5202724E-1,-2.6125175E-1,-1.0915269E-1,5.1420756E-2,-1.3515066E-1,-3.774256E-2,1.9995965E-1,2.6320958E-1,4.8952737E-1,-1.5602628E-2,-6.343907E-3,-1.2621537E-2,-4.425141E-3,-2.838064E-4,5.7702097E-3,-9.909923E-3,-0E0,3.2324032E-3,-1.2370655E-2,-0E0,1.2206109E-2,2.1750374E-2,7.5090462E-3,2.971924E-2,9.575524E-3],"categories":[],"categories_nodes":[],"categories_segments":[],"categories_sizes":[],"default_left":[0,0,0,0,0,0,0,0,0,0,0,0,0,0,0,0,0,0,0,0,0,0,0,0,0,0,0,0,0,0,0],"id":32,"left_children":[1,3,5,7,9,11,13,15,17,19,21,23,25,27,29,-1,-1,-1,-1,-1,-1,-1,-1,-1,-1,-1,-1,-1,-1,-1,-1],"loss_changes":[1.220422E1,4.0484176E0,3.2718449E0,1.0822597E0,1.681622E0,2.376858E0,4.40629E-1,1.7236328E-1,5.629828E-1,9.841008E-1,5.721942E-1,1.5617479E0,1.0068874E0,7.418313E-1,3.1686878E-1,0E0,0E0,0E0,0E0,0E0,0E0,0E0,0E0,0E0,0E0,0E0,0E0,0E0,0E0,0E0,0E0],"parents":[2147483647,0,0,1,1,2,2,3,3,4,4,5,5,6,6,7,7,8,8,9,9,10,10,11,11,12,12,13,13,14,14],"right_children":[2,4,6,8,10,12,14,16,18,20,22,24,26,28,30,-1,-1,-1,-1,-1,-1,-1,-1,-1,-1,-1,-1,-1,-1,-1,-1],"split_conditions":[8.451838E-1,7.720061E-2,1.9222445E1,4.042619E-3,1.1494385E0,8.980603E-1,1.3096783E0,4.5305815E-1,1.0649276E1,5.4E-1,1.8477983E1,1.4400458E-1,1.570122E1,5.5E-1,6.2E-1,-1.5602628E-2,-6.343907E-3,-1.2621537E-2,-4.425141E-3,-2.838064E-4,5.7702097E-3,-9.909923E-3,-0E0,3.2324032E-3,-1.2370655E-2,-0E0,1.2206109E-2,2.1750374E-2,7.5090462E-3,2.971924E-2,9.575524E-3],"split_indices":[2,3,6,3,0,0,2,2,6,4,6,3,6,4,4,0,0,0,0,0,0,0,0,0,0,0,0,0,0,0,0],"split_type":[0,0,0,0,0,0,0,0,0,0,0,0,0,0,0,0,0,0,0,0,0,0,0,0,0,0,0,0,0,0,0],"sum_hessian":[8.89E2,6.37E2,2.52E2,3.28E2,3.09E2,1.66E2,8.6E1,6.7E1,2.61E2,2.52E2,5.7E1,6.5E1,1.01E2,5.8E1,2.8E1,4.4E1,2.3E1,2.7E1,2.34E2,1.3E2,1.22E2,4E1,1.7E1,4.3E1,2.2E1,1.7E1,8.4E1,1.9E1,3.9E1,1.8E1,1E1],"tree_param":{"num_deleted":"0","num_feature":"7","num_nodes":"31","size_leaf_vector":"1"}},{"base_weights":[-0E0,-4.461305E-2,2.6017696E-1,-1.2275256E-1,2.5952347E-2,2.0820357E-1,5.2104986E-1,-1.3867944E-1,8.876989E-2,-9.895341E-2,5.322682E-2,-1.9349568E-3,2.295528E-1,4.1256114E-3,3.3614807E-2,-9.752282E-3,-4.024482E-3,-0E0,1.2886873E-2,-7.217366E-3,1.9830347E-4,-1.625467E-3,4.017848E-3,2.7859537E-3,1.2989664E-2],"categories":[],"categories_nodes":[],"categories_segments":[],"categories_sizes":[],"default_left":[0,0,0,0,0,0,0,0,0,0,0,0,0,0,0,0,0,0,0,0,0,0,0,0,0],"id":33,"left_children":[1,3,5,7,9,11,13,15,17,19,21,-1,23,-1,-1,-1,-1,-1,-1,-1,-1,-1,-1,-1,-1],"loss_changes":[1.0475861E1,4.322566E0,1.2081194E0,1.2994356E0,1.3674002E0,7.193804E-1,7.718668E-1,9.7225285E-1,4.6728355E-1,3.9836973E-1,8.13022E-1,0E0,3.8102913E-1,0E0,0E0,0E0,0E0,0E0,0E0,0E0,0E0,0E0,0E0,0E0,0E0],"parents":[2147483647,0,0,1,1,2,2,3,3,4,4,5,5,6,6,7,7,8,8,9,9,10,10,12,12],"right_children":[2,4,6,8,10,12,14,16,18,20,22,-1,24,-1,-1,-1,-1,-1,-1,-1,-1,-1,-1,-1,-1],"split_conditions":[1.065474E0,5.1E-1,1.5651962E0,1.3799894E-1,6.2528353E0,1.1404297E-1,6.1E-1,4.6508193E-1,8.465332E0,7.754721E-1,8.5193807E-1,-1.9349568E-3,7.239344E0,4.1256114E-3,3.3614807E-2,-9.752282E-3,-4.024482E-3,-0E0,1.2886873E-2,-7.217366E-3,1.9830347E-4,-1.625467E-3,4.017848E-3,2.7859537E-3,1.2989664E-2],"split_indices":[2,5,2,3,1,3,5,2,1,2,0,0,1,0,0,0,0,0,0,0,0,0,0,0,0],"split_type":[0,0,0,0,0,0,0,0,0,0,0,0,0,0,0,0,0,0,0,0,0,0,0,0,0],"sum_hessian":[9.02E2,7.72E2,1.3E2,3.69E2,4.03E2,1.13E2,1.7E1,3.46E2,2.3E1,6.8E1,3.35E2,7E0,1.06E2,6E0,1.1E1,1.69E2,1.77E2,1.5E1,8E0,5E1,1.8E1,7.6E1,2.59E2,1.9E1,8.7E1],"tree_param":{"num_deleted":"0","num_feature":"7","num_nodes":"25","size_leaf_vector":"1"}},{"base_weights":[-2.8162675E-3,-1.4619838E-1,7.6342605E-2,-1.5949796E-1,9.684367E-2,2.1221943E-2,2.3682317E-1,-2.7322936E-1,-1.3760632E-1,1.3925733E-2,-4.597799E-3,-7.340848E-3,1.2576155E-1,-0E0,2.8760767E-1,-2.8152235E-3,-1.4885611E-2,-5.9928456E-3,-1.3649829E-2,-1.4954206E-3,1.185684E-2,1.7041083E-2,2.911292E-3,3.1473644E-3,-3.6771377E-3,2.6577203E-2,1.158136E-2],"categories":[],"categories_nodes":[],"categories_segments":[],"categories_sizes":[],"default_left":[0,0,0,0,0,0,0,0,0,0,0,0,0,0,0,0,0,0,0,0,0,0,0,0,0,0,0],"id":34,"left_children":[1,3,5,7,9,11,13,15,17,-1,-1,19,21,23,25,-1,-1,-1,-1,-1,-1,-1,-1,-1,-1,-1,-1],"loss_changes":[1.0238169E1,1.1030412E0,4.9649506E0,4.8623466E-1,6.9329214E-1,1.3569559E0,1.7111053E0,2.314806E-2,3.7735605E-1,0E0,0E0,1.7809234E0,1.169638E0,1.376711E-1,9.972E-1,0E0,0E0,0E0,0E0,0E0,0E0,0E0,0E0,0E0,0E0,0E0,0E0],"parents":[2147483647,0,0,1,1,2,2,3,3,4,4,5,5,6,6,7,7,8,8,11,11,12,12,13,13,14,14],"right_children":[2,4,6,8,10,12,14,16,18,-1,-1,20,22,24,26,-1,-1,-1,-1,-1,-1,-1,-1,-1,-1,-1,-1],"split_conditions":[5.392774E-1,1.0071863E1,9.223807E0,4.042619E-3,1.1045619E0,1.489905E-1,1.2781516E-1,5.1638734E-1,8.639027E0,1.3925733E-2,-4.597799E-3,1.1172158E0,7.7907133E-1,1.0474251E1,1.4590882E-1,-2.8152235E-3,-1.4885611E-2,-5.9928456E-3,-1.3649829E-2,-1.4954206E-3,1.185684E-2,1.7041083E-2,2.911292E-3,3.1473644E-3,-3.6771377E-3,2.6577203E-2,1.158136E-2],"split_indices":[2,1,1,3,0,3,3,0,1,0,0,2,0,1,3,0,0,0,0,0,0,0,0,0,0,0,0],"split_type":[0,0,0,0,0,0,0,0,0,0,0,0,0,0,0,0,0,0,0,0,0,0,0,0,0,0,0],"sum_hessian":[8.95E2,3.2E2,5.75E2,3.06E2,1.4E1,4.32E2,1.43E2,4.2E1,2.64E2,8E0,6E0,3.37E2,9.5E1,2.6E1,1.17E2,7E0,3.5E1,2.4E2,2.4E1,3.12E2,2.5E1,1.9E1,7.6E1,1.5E1,1.1E1,1.7E1,1E2],"tree_param":{"num_deleted":"0","num_feature":"7","num_nodes":"27","size_leaf_vector":"1"}},{"base_weights":[5.0587626E-4,-6.522991E-2,1.8329133E-1,-1.304642E-1,1.6274896E-3,1.1031134E-1,3.696907E-1,-1.1505083E-2,-1.04278855E-1,-3.6466938E-2,1.5962964E-1,-0E0,1.6038653E-1,2.0331984E-2,-0E0,-6.7053586E-3,-2.8232334E-3,5.7468265E-3,-2.7138686E-3,1.0901585E-2,-5.379264E-3,2.573658E-3,-8.691068E-3,-0E0,9.469496E-3],"categories":[],"categories_nodes":[],"categories_segments":[],"categories_sizes":[],"default_left":[0,0,0,0,0,0,0,0,0,0,0,0,0,0,0,0,0,0,0,0,0,0,0,0,0],"id":35,"left_children":[1,3,5,7,9,11,13,-1,15,17,19,21,23,-1,-1,-1,-1,-1,-1,-1,-1,-1,-1,-1,-1],"loss_changes":[1.1233368E1,3.0393145E0,3.0520878E0,6.9537544E-1,2.089589E0,1.0657992E0,7.643795E-1,0E0,2.9461527E-1,7.075224E-1,1.1633385E0,5.697853E-1,6.8875694E-1,0E0,0E0,0E0,0E0,0E0,0E0,0E0,0E0,0E0,0E0,0E0,0E0],"parents":[2147483647,0,0,1,1,2,2,3,3,4,4,5,5,6,6,8,8,9,9,10,10,11,11,12,12],"right_children":[2,4,6,8,10,12,14,-1,16,18,20,22,24,-1,-1,-1,-1,-1,-1,-1,-1,-1,-1,-1,-1],"split_conditions":[1.7879488E1,7.720061E-2,1.1787498E0,2.6632142E-1,9.112912E0,7.5224757E0,1.8397544E-1,-1.1505083E-2,7.7907133E-1,5.874384E-1,1.6455235E-1,9.337714E-1,5.8662975E-1,2.0331984E-2,-0E0,-6.7053586E-3,-2.8232334E-3,5.7468265E-3,-2.7138686E-3,1.0901585E-2,-5.379264E-3,2.573658E-3,-8.691068E-3,-0E0,9.469496E-3],"split_indices":[6,3,2,2,1,1,3,0,0,0,3,2,2,0,0,0,0,0,0,0,0,0,0,0,0],"split_type":[0,0,0,0,0,0,0,0,0,0,0,0,0,0,0,0,0,0,0,0,0,0,0,0,0],"sum_hessian":[9.26E2,6.8E2,2.46E2,3.47E2,3.33E2,1.81E2,6.5E1,6.5E1,2.82E2,2.67E2,6.6E1,5.5E1,1.26E2,5.8E1,7E0,1.65E2,1.17E2,2.4E1,2.43E2,5.6E1,1E1,4.2E1,1.3E1,1.7E1,1.09E2],"tree_param":{"num_deleted":"0","num_feature":"7","num_nodes":"25","size_leaf_vector":"1"}},{"base_weights":[2.7623347E-3,-5.4619547E-2,1.392314E-1,-1.6849127E-1,-2.9163871E-2,3.6995027E-2,2.8813544E-1,-1.9351823E-2,-1.3640237E-1,-2.2733929E-2,-1.1799705E-2,-7.8124776E-3,1.7729326E-1,2.0440573E-2,3.3674484E-1,-7.460194E-3,-0E0,-3.548224E-3,2.015193E-4,-3.1987017E-3,4.5151766E-3,1.9407904E-2,3.064938E-3,7.797663E-3,-3.6667015E-3,1.3998124E-2,2.914013E-2],"categories":[],"categories_nodes":[],"categories_segments":[],"categories_sizes":[],"default_left":[0,0,0,0,0,0,0,0,0,0,0,0,0,0,0,0,0,0,0,0,0,0,0,0,0,0,0],"id":36,"left_children":[1,3,5,7,9,11,13,-1,15,17,-1,19,21,23,25,-1,-1,-1,-1,-1,-1,-1,-1,-1,-1,-1,-1],"loss_changes":[7.011312E0,1.7001225E0,3.865543E0,4.0411162E-1,5.461375E-1,1.1059096E0,1.186964E0,0E0,1.6891932E-1,6.8592215E-1,0E0,6.7065185E-1,7.54969E-1,3.1833595E-1,4.7180462E-1,0E0,0E0,0E0,0E0,0E0,0E0,0E0,0E0,0E0,0E0,0E0,0E0],"parents":[2147483647,0,0,1,1,2,2,3,3,4,4,5,5,6,6,8,8,9,9,11,11,12,12,13,13,14,14],"right_children":[2,4,6,8,10,12,14,-1,16,18,-1,20,22,24,26,-1,-1,-1,-1,-1,-1,-1,-1,-1,-1,-1,-1],"split_conditions":[8.2978445E-1,4.4E-1,8.945628E0,1.0264013E-1,8.08099E-1,1.1727817E0,5.5E-1,-1.9351823E-2,6.2862134E-1,4.6885175E-1,-1.1799705E-2,5.7E-1,5.4E-1,5.3E-1,1.5651962E0,-7.460194E-3,-0E0,-3.548224E-3,2.015193E-4,-3.1987017E-3,4.5151766E-3,1.9407904E-2,3.064938E-3,7.797663E-3,-3.6667015E-3,1.3998124E-2,2.914013E-2],"split_indices":[2,4,1,2,2,2,5,0,2,2,0,5,5,5,2,0,0,0,0,0,0,0,0,0,0,0,0],"split_type":[0,0,0,0,0,0,0,0,0,0,0,0,0,0,0,0,0,0,0,0,0,0,0,0,0,0,0],"sum_hessian":[8.86E2,6.22E2,2.64E2,1.08E2,5.14E2,1.6E2,1.04E2,9E0,9.9E1,5.03E2,1.1E1,1.2E2,4E1,1.8E1,8.6E1,9E1,9E0,1.85E2,3.18E2,8E1,4E1,1.1E1,2.9E1,9E0,9E0,7.5E1,1.1E1],"tree_param":{"num_deleted":"0","num_feature":"7","num_nodes":"27","size_leaf_vector":"1"}},{"base_weights":[3.7124725E-3,-6.689628E-2,1.4920361E-1,-1.3026565E-1,-7.698247E-3,1.09984726E-1,3.528301E-1,-1.7188822E-1,-4.8512507E-2,-9.82588E-2,3.2866586E-2,1.8728683E-2,1.5191443E-1,1.9051045E-1,2.5583932E-2,-9.462419E-3,-1.2721976E-4,1.658375E-3,-4.46396E-3,-7.7071586E-3,2.1141934E-5,3.388942E-3,-2.9675744E-3,2.744845E-3,-1.4256785E-2,2.0543037E-2,6.28436E-3,-0E0,1.1365994E-2],"categories":[],"categories_nodes":[],"categories_segments":[],"categories_sizes":[],"default_left":[0,0,0,0,0,0,0,0,0,0,0,0,0,0,0,0,0,0,0,0,0,0,0,0,0,0,0,0,0],"id":37,"left_children":[1,3,5,7,9,11,13,15,17,19,21,23,25,27,-1,-1,-1,-1,-1,-1,-1,-1,-1,-1,-1,-1,-1,-1,-1],"loss_changes":[9.306769E0,2.1985745E0,2.0628247E0,8.531213E-1,1.211025E0,8.808782E-1,6.142354E-1,4.4995022E-1,3.8027987E-1,6.4501095E-1,7.141191E-1,8.613467E-1,7.829921E-1,1.5689099E-1,0E0,0E0,0E0,0E0,0E0,0E0,0E0,0E0,0E0,0E0,0E0,0E0,0E0,0E0,0E0],"parents":[2147483647,0,0,1,1,2,2,3,3,4,4,5,5,6,6,7,7,8,8,9,9,10,10,11,11,12,12,13,13],"right_children":[2,4,6,8,10,12,14,16,18,20,22,24,26,28,-1,-1,-1,-1,-1,-1,-1,-1,-1,-1,-1,-1,-1,-1,-1],"split_conditions":[1.7367332E1,5E-1,2.046469E1,5.4256636E-1,7.720061E-2,7.5224757E0,1.2912003E0,1.5986667E1,6.1657274E-1,5.5E-1,1.4590882E-1,7.415036E0,7.7756777E0,7.359235E-1,2.5583932E-2,-9.462419E-3,-1.2721976E-4,1.658375E-3,-4.46396E-3,-7.7071586E-3,2.1141934E-5,3.388942E-3,-2.9675744E-3,2.744845E-3,-1.4256785E-2,2.0543037E-2,6.28436E-3,-0E0,1.1365994E-2],"split_indices":[6,4,6,2,3,1,2,6,2,4,3,1,1,2,0,0,0,0,0,0,0,0,0,0,0,0,0,0,0],"split_type":[0,0,0,0,0,0,0,0,0,0,0,0,0,0,0,0,0,0,0,0,0,0,0,0,0,0,0,0,0],"sum_hessian":[8.98E2,6.03E2,2.95E2,2.86E2,3.17E2,2.52E2,4.3E1,1.84E2,1.02E2,1.01E2,2.16E2,8.4E1,1.68E2,2.5E1,1.8E1,1.64E2,2E1,3E1,7.2E1,6.7E1,3.4E1,1.61E2,5.5E1,7.8E1,6E0,1.1E1,1.57E2,5E0,2E1],"tree_param":{"num_deleted":"0","num_feature":"7","num_nodes":"29","size_leaf_vector":"1"}},{"base_weights":[-1.7391454E-3,-7.3472746E-2,1.1556301E-1,-1.011512E-1,1.0222904E-2,-1.2456072E-2,1.7576523E-1,-1.6187353E-1,-5.3424485E-2,8.582515E-2,-4.0169228E-2,-1.07721195E-1,5.209833E-2,-7.967686E-2,2.0431328E-1,-4.7301347E-3,-9.858178E-3,1.4236203E-3,-4.536404E-3,4.051154E-4,1.3122126E-2,-5.964012E-3,3.1092155E-3,-7.0385733E-3,2.4964649E-3,5.315196E-3,-6.505397E-3,-0E0,-6.555783E-3,7.646955E-3,1.660595E-2],"categories":[],"categories_nodes":[],"categories_segments":[],"categories_sizes":[],"default_left":[0,0,0,0,0,0,0,0,0,0,0,0,0,0,0,0,0,0,0,0,0,0,0,0,0,0,0,0,0,0,0],"id":38,"left_children":[1,3,5,7,9,11,13,15,17,19,21,23,25,27,29,-1,-1,-1,-1,-1,-1,-1,-1,-1,-1,-1,-1,-1,-1,-1,-1],"loss_changes":[7.5100904E0,1.3401761E0,2.6833038E0,1.1038399E0,5.4785013E-1,6.9706243E-1,1.7867064E0,2.465043E-1,7.847811E-1,6.703799E-1,6.830687E-1,3.0436665E-1,6.28109E-1,1.4623909E-1,1.0412922E0,0E0,0E0,0E0,0E0,0E0,0E0,0E0,0E0,0E0,0E0,0E0,0E0,0E0,0E0,0E0,0E0],"parents":[2147483647,0,0,1,1,2,2,3,3,4,4,5,5,6,6,7,7,8,8,9,9,10,10,11,11,12,12,13,13,14,14],"right_children":[2,4,6,8,10,12,14,16,18,20,22,24,26,28,30,-1,-1,-1,-1,-1,-1,-1,-1,-1,-1,-1,-1,-1,-1,-1,-1],"split_conditions":[1.6747154E1,5.5E-1,7.446466E0,1.2907031E1,6.124532E-1,5.1E-1,5.196805E-1,3.203303E-1,1.4135257E1,9.037203E0,8.5945845E-1,1.9420528E1,5.8E-1,3.3233836E-1,6.2E-1,-4.7301347E-3,-9.858178E-3,1.4236203E-3,-4.536404E-3,4.051154E-4,1.3122126E-2,-5.964012E-3,3.1092155E-3,-7.0385733E-3,2.4964649E-3,5.315196E-3,-6.505397E-3,-0E0,-6.555783E-3,7.646955E-3,1.660595E-2],"split_indices":[6,4,1,6,2,5,2,2,6,1,2,6,4,2,5,0,0,0,0,0,0,0,0,0,0,0,0,0,0,0,0],"split_type":[0,0,0,0,0,0,0,0,0,0,0,0,0,0,0,0,0,0,0,0,0,0,0,0,0,0,0,0,0,0,0],"sum_hessian":[8.91E2,5.56E2,3.35E2,4.22E2,1.34E2,1.05E2,2.3E2,1.79E2,2.43E2,5.7E1,7.7E1,4.5E1,6E1,2.1E1,2.09E2,6.9E1,1.1E2,7.2E1,1.71E2,4.3E1,1.4E1,4.6E1,3.1E1,4E1,5E0,4.9E1,1.1E1,6E0,1.5E1,1.55E2,5.4E1],"tree_param":{"num_deleted":"0","num_feature":"7","num_nodes":"31","size_leaf_vector":"1"}},{"base_weights":[-1.6933482E-3,-4.046332E-2,2.5090203E-1,-1.140622E-1,1.30531285E-2,1.2889199E-1,4.2622524E-1,-2.0415111E-1,-8.783151E-2,-5.358289E-2,4.3919943E-2,2.6776034E-1,1.761371E-2,7.4506267E-3,4.6678743E-1,-1.6650116E-2,-7.475757E-3,-1.386443E-2,-3.4780398E-3,6.446319E-3,-4.1989237E-3,4.8354357E-3,-1.1021203E-3,6.7079667E-4,1.697831E-2,-1.1582107E-3,7.687093E-3,2.6060412E-2,8.82469E-3],"categories":[],"categories_nodes":[],"categories_segments":[],"categories_sizes":[],"default_left":[0,0,0,0,0,0,0,0,0,0,0,0,0,0,0,0,0,0,0,0,0,0,0,0,0,0,0,0,0],"id":39,"left_children":[1,3,5,7,9,11,13,15,17,19,21,23,25,-1,27,-1,-1,-1,-1,-1,-1,-1,-1,-1,-1,-1,-1,-1,-1],"loss_changes":[8.190268E0,2.9524024E0,1.98699E0,5.601587E-1,8.719761E-1,9.295927E-1,3.6492348E-2,1.1675763E-1,6.568389E-1,7.2035193E-1,1.0722897E0,3.4403682E-1,3.1110546E-1,0E0,2.0099163E-2,0E0,0E0,0E0,0E0,0E0,0E0,0E0,0E0,0E0,0E0,0E0,0E0,0E0,0E0],"parents":[2147483647,0,0,1,1,2,2,3,3,4,4,5,5,6,6,7,7,8,8,9,9,10,10,11,11,12,12,14,14],"right_children":[2,4,6,8,10,12,14,16,18,20,22,24,26,-1,28,-1,-1,-1,-1,-1,-1,-1,-1,-1,-1,-1,-1,-1,-1],"split_conditions":[1.9255894E1,7.720061E-2,6E-1,4.042619E-3,5.2E-1,5.5E-1,1.0973532E0,4E-1,1.0283929E1,8.779605E-2,1.4487943E-1,6.947413E-1,2.0554792E1,7.4506267E-3,6.3E-1,-1.6650116E-2,-7.475757E-3,-1.386443E-2,-3.4780398E-3,6.446319E-3,-4.1989237E-3,4.8354357E-3,-1.1021203E-3,6.7079667E-4,1.697831E-2,-1.1582107E-3,7.687093E-3,2.6060412E-2,8.82469E-3],"split_indices":[6,3,5,3,5,4,0,4,6,3,3,0,6,0,4,0,0,0,0,0,0,0,0,0,0,0,0,0,0],"split_type":[0,0,0,0,0,0,0,0,0,0,0,0,0,0,0,0,0,0,0,0,0,0,0,0,0,0,0,0,0],"sum_hessian":[8.43E2,7.34E2,1.09E2,3.12E2,4.22E2,6.8E1,4.1E1,6.3E1,2.49E2,1.28E2,2.94E2,2.7E1,4.1E1,8E0,3.3E1,1.3E1,5E1,1.7E1,2.32E2,1.5E1,1.13E2,1.67E2,1.27E2,8E0,1.9E1,3E1,1.1E1,2.5E1,8E0],"tree_param":{"num_deleted":"0","num_feature":"7","num_nodes":"29","size_leaf_vector":"1"}},{"base_weights":[5.650448E-3,-4.6230976E-2,1.4613678E-1,-1.060087E-1,1.3396372E-2,1.1490172E-1,5.4757583E-1,-1.2126892E-1,4.403006E-2,-1.3508077E-1,3.1106459E-2,-0E0,1.4891112E-1,6.4163604E-3,3.3467833E-2,-1.9788438E-2,-5.570403E-3,8.643462E-3,-0E0,-0E0,-1.2019163E-2,4.8031826E-3,-1.5665805E-3,-5.1119397E-3,5.68148E-3,1.29739195E-2,4.003878E-3],"categories":[],"categories_nodes":[],"categories_segments":[],"categories_sizes":[],"default_left":[0,0,0,0,0,0,0,0,0,0,0,0,0,0,0,0,0,0,0,0,0,0,0,0,0,0,0],"id":40,"left_children":[1,3,5,7,9,11,13,15,17,19,21,23,25,-1,-1,-1,-1,-1,-1,-1,-1,-1,-1,-1,-1,-1,-1],"loss_changes":[6.601367E0,2.3802557E0,2.6149745E0,8.071637E-1,8.110181E-1,9.1948414E-1,2.462678E-1,4.8109674E-1,2.1273324E-1,5.14E-1,1.2348472E0,6.4928687E-1,1.1509876E0,0E0,0E0,0E0,0E0,0E0,0E0,0E0,0E0,0E0,0E0,0E0,0E0,0E0,0E0],"parents":[2147483647,0,0,1,1,2,2,3,3,4,4,5,5,6,6,7,7,8,8,9,9,10,10,11,11,12,12],"right_children":[2,4,6,8,10,12,14,16,18,20,22,24,26,-1,-1,-1,-1,-1,-1,-1,-1,-1,-1,-1,-1,-1,-1],"split_conditions":[1.7753252E1,7.720061E-2,1.5651962E0,5.5E-1,4.7E-1,1.32859E-1,1.8798944E1,3.6E-1,8.633494E-3,9.299689E-2,1.2407541E-1,9.3843025E-1,1.0093977E0,6.4163604E-3,3.3467833E-2,-1.9788438E-2,-5.570403E-3,8.643462E-3,-0E0,-0E0,-1.2019163E-2,4.8031826E-3,-1.5665805E-3,-5.1119397E-3,5.68148E-3,1.29739195E-2,4.003878E-3],"split_indices":[6,3,2,4,4,3,6,4,3,3,3,0,0,0,0,0,0,0,0,0,0,0,0,0,0,0,0],"split_type":[0,0,0,0,0,0,0,0,0,0,0,0,0,0,0,0,0,0,0,0,0,0,0,0,0,0,0],"sum_hessian":[8.95E2,6.52E2,2.43E2,3.29E2,3.23E2,2.29E2,1.4E1,3.02E2,2.7E1,3E1,2.93E2,5.2E1,1.77E2,5E0,9E0,6E0,2.96E2,7E0,2E1,1.3E1,1.7E1,1.47E2,1.46E2,2.8E1,2.4E1,6.3E1,1.14E2],"tree_param":{"num_deleted":"0","num_feature":"7","num_nodes":"27","size_leaf_vector":"1"}},{"base_weights":[1.0750807E-2,-3.0776313E-2,2.1391411E-1,-7.7017516E-2,3.7334353E-2,1.23561256E-1,3.1308103E-1,-1.6242612E-2,-6.806628E-2,9.912572E-3,1.6761258E-1,1.7159621E-1,-4.9192622E-2,2.5386095E-1,2.3687564E-2,-7.5887847E-3,-2.5684962E-3,-1.0733049E-2,1.1103129E-3,1.4296158E-2,1.3139392E-3,3.3672233E-3,1.3165656E-2,-4.6603614E-3,-0E0,1.4012414E-2,2.355253E-3],"categories":[],"categories_nodes":[],"categories_segments":[],"categories_sizes":[],"default_left":[0,0,0,0,0,0,0,0,0,0,0,0,0,0,0,0,0,0,0,0,0,0,0,0,0,0,0],"id":41,"left_children":[1,3,5,7,9,11,13,-1,15,17,19,21,23,25,-1,-1,-1,-1,-1,-1,-1,-1,-1,-1,-1,-1,-1],"loss_changes":[7.596603E0,2.3467882E0,1.075192E0,7.4429965E-1,9.6179044E-1,7.917317E-1,5.2188396E-2,0E0,4.880128E-1,6.0075444E-1,6.314932E-1,4.6852088E-1,6.938018E-2,1.2089825E-1,0E0,0E0,0E0,0E0,0E0,0E0,0E0,0E0,0E0,0E0,0E0,0E0,0E0],"parents":[2147483647,0,0,1,1,2,2,3,3,4,4,5,5,6,6,8,8,9,9,10,10,11,11,12,12,13,13],"right_children":[2,4,6,8,10,12,14,-1,16,18,20,22,24,26,-1,-1,-1,-1,-1,-1,-1,-1,-1,-1,-1,-1,-1],"split_conditions":[9.7459924E-1,1.58924055E1,1.9255894E1,1.0264013E-1,9.6531315E0,1.8770277E1,1.5126384E0,-1.6242612E-2,4.042619E-3,4.407591E0,1.8125738E1,8.922887E0,1.3096783E0,1.3708317E0,2.3687564E-2,-7.5887847E-3,-2.5684962E-3,-1.0733049E-2,1.1103129E-3,1.4296158E-2,1.3139392E-3,3.3672233E-3,1.3165656E-2,-4.6603614E-3,-0E0,1.4012414E-2,2.355253E-3],"split_indices":[2,6,6,2,1,6,2,0,3,1,6,1,2,2,0,0,0,0,0,0,0,0,0,0,0,0,0],"split_type":[0,0,0,0,0,0,0,0,0,0,0,0,0,0,0,0,0,0,0,0,0,0,0,0,0,0,0],"sum_hessian":[8.86E2,7.35E2,1.51E2,4.42E2,2.93E2,8.4E1,6.7E1,1.1E1,4.31E2,2.47E2,4.6E1,6.8E1,1.6E1,5.5E1,1.2E1,6.4E1,3.67E2,9E0,2.38E2,2.2E1,2.4E1,3.6E1,3.2E1,1.1E1,5E0,4.6E1,9E0],"tree_param":{"num_deleted":"0","num_feature":"7","num_nodes":"27","size_leaf_vector":"1"}},{"base_weights":[6.784698E-3,-5.462715E-2,8.8601865E-2,-1.4877145E-1,-3.9540526E-2,-1.01846576E-1,1.1251459E-1,-1.6527553E-1,-0E0,9.733203E-2,-4.9667552E-2,-1.6155809E-1,8.572094E-3,2.9128853E-2,9.5123105E-2,-0E0,-8.787676E-3,-0E0,1.6139422E-2,-3.3346533E-3,1.4428842E-3,-1.106425E-2,8.9389423E-4,3.472294E-4,7.5478735E-3],"categories":[],"categories_nodes":[],"categories_segments":[],"categories_sizes":[],"default_left":[0,0,0,0,0,0,0,0,0,0,0,0,0,0,0,0,0,0,0,0,0,0,0,0,0],"id":42,"left_children":[1,3,5,7,9,11,13,15,-1,17,19,21,-1,-1,23,-1,-1,-1,-1,-1,-1,-1,-1,-1,-1],"loss_changes":[4.5236335E0,6.170217E-1,1.7952597E0,2.0031857E-1,6.040421E-1,7.3582935E-1,2.3952475E0,5.9951305E-2,0E0,4.6408775E-1,5.842786E-1,5.0615054E-1,0E0,0E0,1.5879822E0,0E0,0E0,0E0,0E0,0E0,0E0,0E0,0E0,0E0,0E0],"parents":[2147483647,0,0,1,1,2,2,3,3,4,4,5,5,6,6,7,7,9,9,10,10,11,11,14,14],"right_children":[2,4,6,8,10,12,14,16,-1,18,20,22,-1,-1,24,-1,-1,-1,-1,-1,-1,-1,-1,-1,-1],"split_conditions":[1.1542019E-1,4.246485E-3,6.2528353E0,6.725279E-1,5.610323E-3,5.8E-1,1.1820224E-1,7.704365E-4,-0E0,5.0925743E-3,7.680189E-1,1.0342778E0,8.572094E-3,2.9128853E-2,8.2978445E-1,-0E0,-8.787676E-3,-0E0,1.6139422E-2,-3.3346533E-3,1.4428842E-3,-1.106425E-2,8.9389423E-4,3.472294E-4,7.5478735E-3],"split_indices":[3,3,1,2,3,4,3,3,0,3,2,2,0,0,2,0,0,0,0,0,0,0,0,0,0],"split_type":[0,0,0,0,0,0,0,0,0,0,0,0,0,0,0,0,0,0,0,0,0,0,0,0,0],"sum_hessian":[8.93E2,5.07E2,3.86E2,6.3E1,4.44E2,4E1,3.46E2,5.8E1,5E0,2.6E1,4.18E2,3.5E1,5E0,9E0,3.37E2,5E0,5.3E1,2.1E1,5E0,3.49E2,6.9E1,2.8E1,7E0,1.35E2,2.02E2],"tree_param":{"num_deleted":"0","num_feature":"7","num_nodes":"25","size_leaf_vector":"1"}},{"base_weights":[7.980965E-3,-5.5631917E-2,1.292143E-1,-1.2677625E-1,-2.3080459E-2,7.5943366E-2,2.8066957E-1,-2.5325745E-1,-9.665711E-2,4.698192E-2,-5.4822035E-2,-0E0,1.269874E-1,2.0795982E-1,2.7381713E-2,-1.577459E-2,-3.282863E-3,5.120916E-3,-5.5614547E-3,-1.9610685E-4,6.9080046E-3,-8.533298E-3,-6.882563E-4,-9.795737E-4,8.581999E-3,8.566693E-3,1.2217205E-3,2.0496158E-2,4.9116616E-3],"categories":[],"categories_nodes":[],"categories_segments":[],"categories_sizes":[],"default_left":[0,0,0,0,0,0,0,0,0,0,0,0,0,0,0,0,0,0,0,0,0,0,0,0,0,0,0,0,0],"id":43,"left_children":[1,3,5,7,9,11,13,15,17,19,21,23,25,27,-1,-1,-1,-1,-1,-1,-1,-1,-1,-1,-1,-1,-1,-1,-1],"loss_changes":[6.968834E0,1.278624E0,2.296331E0,4.5798588E-1,9.208664E-1,8.9650655E-1,9.08484E-1,1.1825192E-1,4.6522856E-1,6.4372885E-1,1.2728696E0,3.5822362E-1,5.304439E-1,1.127995E0,0E0,0E0,0E0,0E0,0E0,0E0,0E0,0E0,0E0,0E0,0E0,0E0,0E0,0E0,0E0],"parents":[2147483647,0,0,1,1,2,2,3,3,4,4,5,5,6,6,7,7,8,8,9,9,10,10,11,11,12,12,13,13],"right_children":[2,4,6,8,10,12,14,16,18,20,22,24,26,28,-1,-1,-1,-1,-1,-1,-1,-1,-1,-1,-1,-1,-1,-1,-1],"split_conditions":[1.6986382E1,1.2585119E1,6E-1,1.9974478E-1,1.4063836E1,1.3916348E-1,1.5651962E0,4.8E-1,2.1434951E-1,5.2E-1,1.4820576E1,1.9420528E1,1.9607723E1,1.5731664E-1,2.7381713E-2,-1.577459E-2,-3.282863E-3,5.120916E-3,-5.5614547E-3,-1.9610685E-4,6.9080046E-3,-8.533298E-3,-6.882563E-4,-9.795737E-4,8.581999E-3,8.566693E-3,1.2217205E-3,2.0496158E-2,4.9116616E-3],"split_indices":[6,6,4,2,6,3,2,4,2,4,6,6,6,3,0,0,0,0,0,0,0,0,0,0,0,0,0,0,0],"split_type":[0,0,0,0,0,0,0,0,0,0,0,0,0,0,0,0,0,0,0,0,0,0,0,0,0,0,0,0,0],"sum_hessian":[8.95E2,5.85E2,3.1E2,1.77E2,4.08E2,2.34E2,7.6E1,2.8E1,1.49E2,1.22E2,2.86E2,9.6E1,1.38E2,6.4E1,1.2E1,1.8E1,1E1,7E0,1.42E2,7.6E1,4.6E1,7E1,2.16E2,8.7E1,9E0,9.2E1,4.6E1,1.9E1,4.5E1],"tree_param":{"num_deleted":"0","num_feature":"7","num_nodes":"29","size_leaf_vector":"1"}},{"base_weights":[3.7608258E-4,-9.35629E-3,2.4438886E-2,-6.918974E-2,5.1613312E-2,-7.712366E-2,1.1671319E-2,-2.8969316E-2,8.1747E-2,-7.069209E-3,-2.301977E-3,-7.068722E-5,-1.6044695E-2,1.6176624E-2,2.9186863E-3],"categories":[],"categories_nodes":[],"categories_segments":[],"categories_sizes":[],"default_left":[0,0,0,0,0,0,0,0,0,0,0,0,0,0,0],"id":44,"left_children":[1,3,-1,5,7,9,-1,11,13,-1,-1,-1,-1,-1,-1],"loss_changes":[4.3747272E0,3.1240447E0,0E0,1.002259E0,1.0485628E0,7.4619436E-1,0E0,7.3083925E-1,1.5231845E0,0E0,0E0,0E0,0E0,0E0,0E0],"parents":[2147483647,0,0,1,1,3,3,4,4,5,5,7,7,8,8],"right_children":[2,4,-1,6,8,10,-1,12,14,-1,-1,-1,-1,-1,-1],"split_conditions":[1.5651962E0,1.5773745E1,2.4438886E-2,1.0645726E1,6.7181096E0,1.2154285E1,1.1671319E-2,6.6403956E0,6.9939275E0,-7.069209E-3,-2.301977E-3,-7.068722E-5,-1.6044695E-2,1.6176624E-2,2.9186863E-3],"split_indices":[2,6,0,1,1,6,0,1,1,0,0,0,0,0,0],"split_type":[0,0,0,0,0,0,0,0,0,0,0,0,0,0,0],"sum_hessian":[8.66E2,8.5E2,1.6E1,4.33E2,4.17E2,4.25E2,8E0,1.09E2,3.08E2,1.31E2,2.94E2,1.03E2,6E0,2.3E1,2.85E2],"tree_param":{"num_deleted":"0","num_feature":"7","num_nodes":"15","size_leaf_vector":"1"}},{"base_weights":[-0E0,-7.0302606E-2,6.316313E-2,-7.850571E-2,1.4191622E-1,3.885014E-2,2.3611206E-1,-1.3520624E-2,-7.103123E-2,9.267449E-3,-0E0,-5.566212E-2,6.5988146E-2,1.4620368E-1,3.6475912E-1,-3.7315048E-3,3.942856E-3,-1.4266108E-2,-1.0099814E-3,6.0464577E-3,5.442791E-4,1.0733657E-2,-0E0,2.3095729E-2,-0E0],"categories":[],"categories_nodes":[],"categories_segments":[],"categories_sizes":[],"default_left":[0,0,0,0,0,0,0,0,0,0,0,0,0,0,0,0,0,0,0,0,0,0,0,0,0],"id":45,"left_children":[1,3,5,7,9,11,13,-1,15,-1,-1,17,19,21,23,-1,-1,-1,-1,-1,-1,-1,-1,-1,-1],"loss_changes":[3.94105E0,7.182534E-1,1.8204783E0,3.7322998E-1,2.7225286E-2,1.0820615E0,2.7401495E-1,0E0,2.2327006E-1,0E0,0E0,5.6870085E-1,9.2747116E-1,3.3984423E-1,4.5917606E-1,0E0,0E0,0E0,0E0,0E0,0E0,0E0,0E0,0E0,0E0],"parents":[2147483647,0,0,1,1,2,2,3,3,4,4,5,5,6,6,8,8,11,11,12,12,13,13,14,14],"right_children":[2,4,6,8,10,12,14,-1,16,-1,-1,18,20,22,24,-1,-1,-1,-1,-1,-1,-1,-1,-1,-1],"split_conditions":[5.2E-1,1.4736027E-1,1.2822162E0,1.0264013E-1,7.8599663E0,9.252883E-2,1.5651962E0,-1.3520624E-2,1.1054553E0,9.267449E-3,-0E0,5.4306636E0,1.4590882E-1,1.4100229E0,1.9611938E0,-3.7315048E-3,3.942856E-3,-1.4266108E-2,-1.0099814E-3,6.0464577E-3,5.442791E-4,1.0733657E-2,-0E0,2.3095729E-2,-0E0],"split_indices":[5,3,2,2,1,3,2,0,2,0,0,1,3,2,2,0,0,0,0,0,0,0,0,0,0],"split_type":[0,0,0,0,0,0,0,0,0,0,0,0,0,0,0,0,0,0,0,0,0,0,0,0,0],"sum_hessian":[8.84E2,4.16E2,4.68E2,4.04E2,1.2E1,4.15E2,5.3E1,1E1,3.94E2,7E0,5E0,8.8E1,3.27E2,3.6E1,1.7E1,3.89E2,5E0,8E0,8E1,1.58E2,1.69E2,2.3E1,1.3E1,1.2E1,5E0],"tree_param":{"num_deleted":"0","num_feature":"7","num_nodes":"25","size_leaf_vector":"1"}},{"base_weights":[9.750502E-3,-6.5321706E-2,7.219494E-2,-1.2834778E-1,-3.7284654E-2,-4.1401356E-2,1.2250716E-1,-9.3015894E-2,-1.9963595E-1,-1.5477421E-2,-1.1366627E-1,-5.8720995E-2,8.082322E-2,8.874935E-2,2.6172152E-1,-7.5833164E-3,-0E0,-3.382573E-3,-1.2683037E-2,-1.7410048E-3,9.582559E-3,-3.4810884E-5,-1.0662123E-2,-6.831593E-4,-5.55005E-3,7.034763E-3,-0E0,9.644552E-3,2.3767075E-3,-1.6980012E-3,1.5705159E-2],"categories":[],"categories_nodes":[],"categories_segments":[],"categories_sizes":[],"default_left":[0,0,0,0,0,0,0,0,0,0,0,0,0,0,0,0,0,0,0,0,0,0,0,0,0,0,0,0,0,0,0],"id":46,"left_children":[1,3,5,7,9,11,13,15,17,19,21,23,25,27,29,-1,-1,-1,-1,-1,-1,-1,-1,-1,-1,-1,-1,-1,-1,-1,-1],"loss_changes":[4.241302E0,6.2680864E-1,2.8911915E0,1.1626589E-1,4.149544E-1,3.180906E-1,1.4137607E0,4.8077238E-1,4.032731E-2,8.6842704E-1,5.564322E-1,2.5735494E-1,3.404782E-2,1.0890245E0,1.1526556E0,0E0,0E0,0E0,0E0,0E0,0E0,0E0,0E0,0E0,0E0,0E0,0E0,0E0,0E0,0E0,0E0],"parents":[2147483647,0,0,1,1,2,2,3,3,4,4,5,5,6,6,7,7,8,8,9,9,10,10,11,11,12,12,13,13,14,14],"right_children":[2,4,6,8,10,12,14,16,18,20,22,24,26,28,30,-1,-1,-1,-1,-1,-1,-1,-1,-1,-1,-1,-1,-1,-1,-1,-1],"split_conditions":[1.5374375E1,4.5E-1,5.2E-1,1.4063836E1,7.340011E-1,1.9255894E1,6.2E-1,1.2585119E1,4E-1,6.868481E-1,7.4881196E0,6.626506E-1,4.6E-1,5.5E-1,1.6986382E1,-7.5833164E-3,-0E0,-3.382573E-3,-1.2683037E-2,-1.7410048E-3,9.582559E-3,-3.4810884E-5,-1.0662123E-2,-6.831593E-4,-5.55005E-3,7.034763E-3,-0E0,9.644552E-3,2.3767075E-3,-1.6980012E-3,1.5705159E-2],"split_indices":[6,4,5,6,2,6,5,6,5,2,1,2,5,4,6,0,0,0,0,0,0,0,0,0,0,0,0,0,0,0,0],"split_type":[0,0,0,0,0,0,0,0,0,0,0,0,0,0,0,0,0,0,0,0,0,0,0,0,0,0,0,0,0,0,0],"sum_hessian":[9E2,4.05E2,4.95E2,1.17E2,2.88E2,1.49E2,3.46E2,8.6E1,3.1E1,2.31E2,5.7E1,1.35E2,1.4E1,2.84E2,6.2E1,5.2E1,3.4E1,1.3E1,1.8E1,2.15E2,1.6E1,3E1,2.7E1,7.9E1,5.6E1,5E0,9E0,7.5E1,2.09E2,8E0,5.4E1],"tree_param":{"num_deleted":"0","num_feature":"7","num_nodes":"31","size_leaf_vector":"1"}},{"base_weights":[3.3816209E-3,-4.0660895E-2,1.19094774E-1,-5.6010783E-2,4.2760037E-2,-1.0305197E-2,1.3367485E-1,-6.374765E-2,6.9874264E-2,8.680026E-2,-1.3393908E-2,9.274511E-2,2.4572138E-1,-2.7781425E-3,-1.3546789E-2,-0E0,6.5578707E-3,-1.3316198E-3,1.2752037E-2,6.041602E-3,-1.5858557E-3,1.3993374E-2,-0E0],"categories":[],"categories_nodes":[],"categories_segments":[],"categories_sizes":[],"default_left":[0,0,0,0,0,0,0,0,0,0,0,0,0,0,0,0,0,0,0,0,0,0,0],"id":47,"left_children":[1,3,5,7,9,-1,11,13,15,17,-1,19,21,-1,-1,-1,-1,-1,-1,-1,-1,-1,-1],"loss_changes":[4.584607E0,8.347782E-1,1.1995013E0,5.405468E-1,1.2693001E0,0E0,8.9042187E-1,6.9184685E-1,1.852531E-1,1.7880939E0,0E0,6.91947E-1,6.068542E-1,0E0,0E0,0E0,0E0,0E0,0E0,0E0,0E0,0E0,0E0],"parents":[2147483647,0,0,1,1,2,2,3,3,4,4,6,6,7,7,8,8,9,9,11,11,12,12],"right_children":[2,4,6,8,10,-1,12,14,16,18,-1,20,22,-1,-1,-1,-1,-1,-1,-1,-1,-1,-1],"split_conditions":[1.7617172E1,8.855645E0,4.8513517E0,6E-1,1.6455235E-1,-1.0305197E-2,6.2E-1,8.639027E0,9.884642E-1,1.5998215E1,-1.3393908E-2,1.2176479E0,1.9059725E-1,-2.7781425E-3,-1.3546789E-2,-0E0,6.5578707E-3,-1.3316198E-3,1.2752037E-2,6.041602E-3,-1.5858557E-3,1.3993374E-2,-0E0],"split_indices":[6,1,1,5,3,0,5,1,0,6,0,0,3,0,0,0,0,0,0,0,0,0,0],"split_type":[0,0,0,0,0,0,0,0,0,0,0,0,0,0,0,0,0,0,0,0,0,0,0],"sum_hessian":[8.88E2,6.41E2,2.47E2,5.47E2,9.4E1,8E0,2.39E2,5.2E2,2.7E1,8.5E1,9E0,1.81E2,5.8E1,5.05E2,1.5E1,1E1,1.7E1,5E1,3.5E1,1.51E2,3E1,5.2E1,6E0],"tree_param":{"num_deleted":"0","num_feature":"7","num_nodes":"23","size_leaf_vector":"1"}},{"base_weights":[-2.6883113E-3,-3.2793302E-2,1.2928793E-1,-8.9363344E-2,-0E0,9.519043E-2,3.1644088E-1,7.207289E-2,-1.0138565E-1,-1.3283654E-2,9.0537615E-2,2.3326832E-1,3.41176E-2,3.1888725E-3,4.4308826E-1,-4.506111E-6,9.589669E-3,-3.6001827E-3,-8.788367E-3,-1.970087E-4,-8.364223E-3,-2.9432054E-3,6.788028E-3,9.6527813E-4,1.3440827E-2,-9.4630785E-4,6.2613147E-3,2.911104E-2,4.3027215E-3],"categories":[],"categories_nodes":[],"categories_segments":[],"categories_sizes":[],"default_left":[0,0,0,0,0,0,0,0,0,0,0,0,0,0,0,0,0,0,0,0,0,0,0,0,0,0,0,0,0],"id":48,"left_children":[1,3,5,7,9,11,13,15,17,19,21,23,25,-1,27,-1,-1,-1,-1,-1,-1,-1,-1,-1,-1,-1,-1,-1,-1],"loss_changes":[3.504276E0,1.37005E0,7.7411604E-1,5.5329657E-1,5.713087E-1,1.0562816E0,3.9403057E-1,2.4275585E-1,4.081006E-1,4.9438646E-1,4.6657056E-1,1.5740514E-1,5.60496E-1,0E0,2.1143246E-1,0E0,0E0,0E0,0E0,0E0,0E0,0E0,0E0,0E0,0E0,0E0,0E0,0E0,0E0],"parents":[2147483647,0,0,1,1,2,2,3,3,4,4,5,5,6,6,7,7,8,8,9,9,10,10,11,11,12,12,14,14],"right_children":[2,4,6,8,10,12,14,16,18,20,22,24,26,-1,28,-1,-1,-1,-1,-1,-1,-1,-1,-1,-1,-1,-1,-1,-1],"split_conditions":[9.7459924E-1,4.9E-1,1.5651962E0,4.6389523E-1,6E-1,5.6E-1,6E-1,4E-1,5.8372274E-2,1.735763E-1,1.1542019E-1,7.0928895E-1,1.1902941E0,3.1888725E-3,6.3E-1,-4.506111E-6,9.589669E-3,-3.6001827E-3,-8.788367E-3,-1.970087E-4,-8.364223E-3,-2.9432054E-3,6.788028E-3,9.6527813E-4,1.3440827E-2,-9.4630785E-4,6.2613147E-3,2.911104E-2,4.3027215E-3],"split_indices":[2,4,2,0,4,4,4,4,3,3,3,0,0,0,4,0,0,0,0,0,0,0,0,0,0,0,0,0,0],"split_type":[0,0,0,0,0,0,0,0,0,0,0,0,0,0,0,0,0,0,0,0,0,0,0,0,0,0,0,0,0],"sum_hessian":[8.9E2,7.29E2,1.61E2,2.68E2,4.61E2,1.41E2,2E1,1.5E1,2.53E2,4.02E2,5.9E1,3.9E1,1.02E2,9E0,1.1E1,8E0,7E0,1.89E2,6.4E1,3.84E2,1.8E1,1.1E1,4.8E1,8E0,3.1E1,6.2E1,4E1,6E0,5E0],"tree_param":{"num_deleted":"0","num_feature":"7","num_nodes":"29","size_leaf_vector":"1"}},{"base_weights":[6.5286313E-3,-9.647507E-3,2.2569066E-1,-2.5689686E-2,1.1238142E-1,-0E0,2.5512925E-1,-9.602692E-2,-5.8855056E-3,2.2036145E-2,2.1589915E-1,2.3575991E-2,2.0241036E-1,-5.517041E-3,4.3943455E-3,-2.6465643E-3,7.9371623E-4,8.3544385E-3,-1.6610383E-3,1.2719492E-2,-0E0,1.1971253E-2,-0E0],"categories":[],"categories_nodes":[],"categories_segments":[],"categories_sizes":[],"default_left":[0,0,0,0,0,0,0,0,0,0,0,0,0,0,0,0,0,0,0,0,0,0,0],"id":49,"left_children":[1,3,5,7,9,-1,11,13,15,17,19,-1,21,-1,-1,-1,-1,-1,-1,-1,-1,-1,-1],"loss_changes":[3.299507E0,1.6009477E0,5.153525E-1,9.85677E-1,7.5063705E-1,0E0,1.3381052E-1,4.4656074E-1,6.231731E-1,5.1886946E-1,2.2445834E-1,0E0,3.345101E-1,0E0,0E0,0E0,0E0,0E0,0E0,0E0,0E0,0E0,0E0],"parents":[2147483647,0,0,1,1,2,2,3,3,4,4,6,6,7,7,8,8,9,9,10,10,12,12],"right_children":[2,4,6,8,10,-1,12,14,16,18,20,-1,22,-1,-1,-1,-1,-1,-1,-1,-1,-1,-1],"split_conditions":[1.0700897E1,1.9222445E1,5.4E-1,1.2433712E1,1.6370852E-1,-0E0,1.084946E1,5.8E-1,6.231049E0,6.9939275E0,6.3E-1,2.3575991E-2,1.8266347E-1,-5.517041E-3,4.3943455E-3,-2.6465643E-3,7.9371623E-4,8.3544385E-3,-1.6610383E-3,1.2719492E-2,-0E0,1.1971253E-2,-0E0],"split_indices":[1,6,4,6,3,0,1,4,1,1,5,0,3,0,0,0,0,0,0,0,0,0,0],"split_type":[0,0,0,0,0,0,0,0,0,0,0,0,0,0,0,0,0,0,0,0,0,0,0],"sum_hessian":[8.97E2,8.35E2,6.2E1,7.43E2,9.2E1,6E0,5.6E1,1.56E2,5.87E2,5.3E1,3.9E1,6E0,5E1,1.48E2,8E0,1.92E2,3.95E2,1.6E1,3.7E1,3.1E1,8E0,4.1E1,9E0],"tree_param":{"num_deleted":"0","num_feature":"7","num_nodes":"23","size_leaf_vector":"1"}},{"base_weights":[-0E0,-1.9672215E-2,2.1250711E-1,-7.2829574E-2,1.4529048E-2,2.3978817E-1,-0E0,1.007922E-1,-8.299935E-2,-4.6457653E-3,8.8254474E-2,1.7901331E-1,1.74412E-2,-1.6821027E-3,1.3419188E-2,-3.549636E-3,-1.2538031E-2,-4.9505164E-3,5.295521E-4,1.4767635E-2,1.3704739E-3,-0E0,1.2590644E-2],"categories":[],"categories_nodes":[],"categories_segments":[],"categories_sizes":[],"default_left":[0,0,0,0,0,0,0,0,0,0,0,0,0,0,0,0,0,0,0,0,0,0,0],"id":50,"left_children":[1,3,5,7,9,11,-1,13,15,17,19,21,-1,-1,-1,-1,-1,-1,-1,-1,-1,-1,-1],"loss_changes":[3.7895699E0,1.498432E0,5.476217E-1,5.7638824E-1,7.310823E-1,7.505798E-2,0E0,4.9590945E-1,4.239068E-1,5.9698987E-1,1.1581224E0,5.529603E-1,0E0,0E0,0E0,0E0,0E0,0E0,0E0,0E0,0E0,0E0,0E0],"parents":[2147483647,0,0,1,1,2,2,3,3,4,4,5,5,7,7,8,8,9,9,10,10,11,11],"right_children":[2,4,6,8,10,12,-1,14,16,18,20,22,-1,-1,-1,-1,-1,-1,-1,-1,-1,-1,-1],"split_conditions":[1.1787498E0,5.392774E-1,1.8397544E-1,4.6389523E-1,1.5319115E-1,1.7044349E-1,-0E0,4E-1,1.5015744E-1,6.439794E-1,5.6E-1,1.3096783E0,1.74412E-2,-1.6821027E-3,1.3419188E-2,-3.549636E-3,-1.2538031E-2,-4.9505164E-3,5.295521E-4,1.4767635E-2,1.3704739E-3,-0E0,1.2590644E-2],"split_indices":[2,2,3,0,3,3,0,4,3,0,5,2,0,0,0,0,0,0,0,0,0,0,0],"split_type":[0,0,0,0,0,0,0,0,0,0,0,0,0,0,0,0,0,0,0,0,0,0,0],"sum_hessian":[8.8E2,8.05E2,7.5E1,3.2E2,4.85E2,6.8E1,7E0,1.4E1,3.06E2,3.81E2,1.04E2,5E1,1.8E1,7E0,7E0,2.91E2,1.5E1,5.6E1,3.25E2,2E1,8.4E1,1.7E1,3.3E1],"tree_param":{"num_deleted":"0","num_feature":"7","num_nodes":"23","size_leaf_vector":"1"}},{"base_weights":[4.382571E-3,-6.772017E-2,4.486205E-2,-8.019712E-2,1.4499736E-1,3.641432E-2,1.3722422E-2,4.9265765E-2,-9.200229E-2,1.8216206E-2,-4.7317505E-4,-8.168238E-2,4.8297E-2,-2.7568052E-3,5.608515E-3,-4.959586E-3,3.6334824E-3,3.443647E-3,-6.638918E-3,1.5906437E-3,4.0418026E-3],"categories":[],"categories_nodes":[],"categories_segments":[],"categories_sizes":[],"default_left":[0,0,0,0,0,0,0,0,0,0,0,0,0,0,0,0,0,0,0,0,0],"id":51,"left_children":[1,3,5,7,9,11,-1,13,15,-1,-1,17,19,-1,-1,-1,-1,-1,-1,-1,-1],"loss_changes":[2.5893545E0,8.295417E-1,9.3978345E-1,4.9198914E-1,7.263642E-1,7.756448E-1,0E0,1.919354E-1,3.6035275E-1,0E0,0E0,4.194955E-1,2.1369421E-1,0E0,0E0,0E0,0E0,0E0,0E0,0E0,0E0],"parents":[2147483647,0,0,1,1,2,2,3,3,4,4,5,5,7,7,8,8,11,11,12,12],"right_children":[2,4,6,8,10,12,-1,14,16,-1,-1,18,20,-1,-1,-1,-1,-1,-1,-1,-1],"split_conditions":[5.331571E-1,1.0071863E1,1.5651962E0,4.91629E-1,1.0281227E0,5.1386523E0,1.3722422E-2,3.858718E0,6E-1,1.8216206E-2,-4.7317505E-4,6.1657274E-1,8.922887E0,-2.7568052E-3,5.608515E-3,-4.959586E-3,3.6334824E-3,3.443647E-3,-6.638918E-3,1.5906437E-3,4.0418026E-3],"split_indices":[2,1,2,0,0,1,0,1,5,0,0,2,1,0,0,0,0,0,0,0,0],"split_type":[0,0,0,0,0,0,0,0,0,0,0,0,0,0,0,0,0,0,0,0,0],"sum_hessian":[8.87E2,3.14E2,5.73E2,3E2,1.4E1,5.57E2,1.6E1,2.1E1,2.79E2,6E0,8E0,4.6E1,5.11E2,5E0,1.6E1,2.71E2,8E0,9E0,3.7E1,3.52E2,1.59E2],"tree_param":{"num_deleted":"0","num_feature":"7","num_nodes":"21","size_leaf_vector":"1"}},{"base_weights":[-1.0905319E-3,-3.7605934E-2,9.59397E-2,-8.8661864E-2,-1.3875856E-2,6.330335E-2,2.0715949E-1,-9.5812775E-2,1.5608079E-3,-1.5552284E-3,-1.6332707E-1,3.8436074E-2,2.0932594E-1,8.423585E-3,2.9132605E-1,-1.337075E-2,-4.1990927E-3,-1.8704499E-3,2.0430377E-3,-1.9119281E-2,-2.5699914E-3,1.370388E-2,8.710104E-4,3.1977312E-3,1.6863067E-2,-4.2593614E-3,7.985539E-3,-0E0,1.6732706E-2],"categories":[],"categories_nodes":[],"categories_segments":[],"categories_sizes":[],"default_left":[0,0,0,0,0,0,0,0,0,0,0,0,0,0,0,0,0,0,0,0,0,0,0,0,0,0,0,0,0],"id":52,"left_children":[1,3,5,7,9,11,13,15,-1,17,19,21,23,25,27,-1,-1,-1,-1,-1,-1,-1,-1,-1,-1,-1,-1,-1,-1],"loss_changes":[3.1810095E0,7.4832416E-1,7.242141E-1,2.1229911E-1,7.659052E-1,5.6810844E-1,6.982901E-1,1.7730749E-1,0E0,6.567843E-1,5.28394E-1,6.9648254E-1,2.2120667E-1,3.3355263E-1,3.6219835E-1,0E0,0E0,0E0,0E0,0E0,0E0,0E0,0E0,0E0,0E0,0E0,0E0,0E0,0E0],"parents":[2147483647,0,0,1,1,2,2,3,3,4,4,5,5,6,6,7,7,9,9,10,10,11,11,12,12,13,13,14,14],"right_children":[2,4,6,8,10,12,14,16,-1,18,20,22,24,26,28,-1,-1,-1,-1,-1,-1,-1,-1,-1,-1,-1,-1,-1,-1],"split_conditions":[1.7879488E1,1.2799531E1,1.738779E-1,6E-1,1.6455235E-1,2.0695473E1,1.9018444E1,3.8E-1,1.5608079E-3,5.2E-1,1.693774E-1,1.7963203E1,6.1E-1,6.1E-1,5.7E-1,-1.337075E-2,-4.1990927E-3,-1.8704499E-3,2.0430377E-3,-1.9119281E-2,-2.5699914E-3,1.370388E-2,8.710104E-4,3.1977312E-3,1.6863067E-2,-4.2593614E-3,7.985539E-3,-0E0,1.6732706E-2],"split_indices":[6,6,3,4,3,6,6,4,0,5,3,6,5,4,4,0,0,0,0,0,0,0,0,0,0,0,0,0,0],"split_type":[0,0,0,0,0,0,0,0,0,0,0,0,0,0,0,0,0,0,0,0,0,0,0,0,0,0,0,0,0],"sum_hessian":[9.02E2,6.6E2,2.42E2,2.01E2,4.59E2,1.93E2,4.9E1,1.94E2,7E0,4.29E2,3E1,1.7E2,2.3E1,1.7E1,3.2E1,7E0,1.87E2,2.39E2,1.9E2,7E0,2.3E1,1E1,1.6E2,1.4E1,9E0,9E0,8E0,5E0,2.7E1],"tree_param":{"num_deleted":"0","num_feature":"7","num_nodes":"29","size_leaf_vector":"1"}},{"base_weights":[3.6926281E-3,-3.4032583E-2,5.1351007E-2,-4.058206E-2,1.0684343E-2,-7.664064E-2,9.7507335E-2,-2.979663E-2,-1.7944127E-1,-2.1068978E-1,-1.5130709E-2,1.2859648E-2,1.2323922E-1,-6.35899E-3,-8.05904E-4,-0E0,-1.1190885E-2,-7.8850615E-5,-1.2100161E-2,1.6604712E-3,-1.0118054E-2,1.331504E-2,-4.664807E-4,2.0906864E-2,4.931021E-3],"categories":[],"categories_nodes":[],"categories_segments":[],"categories_sizes":[],"default_left":[0,0,0,0,0,0,0,0,0,0,0,0,0,0,0,0,0,0,0,0,0,0,0,0,0],"id":53,"left_children":[1,3,5,7,-1,9,11,13,15,17,19,21,23,-1,-1,-1,-1,-1,-1,-1,-1,-1,-1,-1,-1],"loss_changes":[1.6087096E0,7.2740597E-1,2.3825216E0,