{"learner":{"attributes":{"scikit_learn":"{\"_estimator_type\": \"regressor\"}"},"feature_names":["xg_per_60","shooting_pct","hd_xg_per_60","hd_shooting_pct","pp_toi_pct","corsi_pct","xg_pct","toi_per_game"],"feature_types":["float","float","float","float","float","float","float","float"],"gradient_booster":{"model":{"cats":{"enc":[],"feature_segments":[],"sorted_idx":[]},"gbtree_model_param":{"num_parallel_tree":"1","num_trees":"300"},"iteration_indptr":[0,1,2,3,4,5,6,7,8,9,10,11,12,13,14,15,16,17,18,19,20,21,22,23,24,25,26,27,28,29,30,31,32,33,34,35,36,37,38,39,40,41,42,43,44,45,46,47,48,49,50,51,52,53,54,55,56,57,58,59,60,61,62,63,64,65,66,67,68,69,70,71,72,73,74,75,76,77,78,79,80,81,82,83,84,85,86,87,88,89,90,91,92,93,94,95,96,97,98,99,100,101,102,103,104,105,106,107,108,109,110,111,112,113,114,115,116,117,118,119,120,121,122,123,124,125,126,127,128,129,130,131,132,133,134,135,136,137,138,139,140,141,142,143,144,145,146,147,148,149,150,151,152,153,154,155,156,157,158,159,160,161,162,163,164,165,166,167,168,169,170,171,172,173,174,175,176,177,178,179,180,181,182,183,184,185,186,187,188,189,190,191,192,193,194,195,196,197,198,199,200,201,202,203,204,205,206,207,208,209,210,211,212,213,214,215,216,217,218,219,220,221,222,223,224,225,226,227,228,229,230,231,232,233,234,235,236,237,238,239,240,241,242,243,244,245,246,247,248,249,250,251,252,253,254,255,256,257,258,259,260,261,262,263,264,265,266,267,268,269,270,271,272,273,274,275,276,277,278,279,280,281,282,283,284,285,286,287,288,289,290,291,292,293,294,295,296,297,298,299,300],"tree_info":[0,0,0,0,0,0,0,0,0,0,0,0,0,0,0,0,0,0,0,0,0,0,0,0,0,0,0,0,0,0,0,0,0,0,0,0,0,0,0,0,0,0,0,0,0,0,0,0,0,0,0,0,0,0,0,0,0,0,0,0,0,0,0,0,0,0,0,0,0,0,0,0,0,0,0,0,0,0,0,0,0,0,0,0,0,0,0,0,0,0,0,0,0,0,0,0,0,0,0,0,0,0,0,0,0,0,0,0,0,0,0,0,0,0,0,0,0,0,0,0,0,0,0,0,0,0,0,0,0,0,0,0,0,0,0,0,0,0,0,0,0,0,0,0,0,0,0,0,0,0,0,0,0,0,0,0,0,0,0,0,0,0,0,0,0,0,0,0,0,0,0,0,0,0,0,0,0,0,0,0,0,0,0,0,0,0,0,0,0,0,0,0,0,0,0,0,0,0,0,0,0,0,0,0,0,0,0,0,0,0,0,0,0,0,0,0,0,0,0,0,0,0,0,0,0,0,0,0,0,0,0,0,0,0,0,0,0,0,0,0,0,0,0,0,0,0,0,0,0,0,0,0,0,0,0,0,0,0,0,0,0,0,0,0,0,0,0,0,0,0,0,0,0,0,0,0,0,0,0,0,0,0,0,0,0,0,0,0,0,0,0,0,0,0,0,0,0,0,0,0],"trees":[{"base_weights":[5.145376E-3,-1.4526415E-1,2.5758907E-1,-2.5641087E-1,-2.1675432E-2,1.0783307E-1,3.9702952E-1,-2.6361144E-1,1.3062284E-4,-7.912627E-2,7.0502706E-2,4.0359877E-2,2.3257656E-2,5.146312E-2,4.2881104E-1,-1.4173095E-2,-7.928507E-3,-8.647972E-3,-1.2154243E-3,9.1511814E-4,1.1677914E-2,-1.5674046E-3,6.8833265E-3,5.795906E-3,-0E0,1.846365E-2,3.2239247E-2],"categories":[],"categories_nodes":[],"categories_segments":[],"categories_sizes":[],"default_left":[0,0,0,0,0,0,0,0,0,0,0,0,0,0,0,0,0,0,0,0,0,0,0,0,0,0,0],"id":0,"left_children":[1,3,5,7,9,11,13,15,-1,17,19,21,-1,23,25,-1,-1,-1,-1,-1,-1,-1,-1,-1,-1,-1,-1],"loss_changes":[3.400018E1,7.528534E0,6.657427E0,6.764908E-1,1.4400153E0,3.7118776E0,1.5937538E0,2.85429E-1,0E0,7.673906E-1,7.2518766E-1,1.0595961E0,0E0,8.669795E-2,1.009861E0,0E0,0E0,0E0,0E0,0E0,0E0,0E0,0E0,0E0,0E0,0E0,0E0],"parents":[2147483647,0,0,1,1,2,2,3,3,4,4,5,5,6,6,7,7,9,9,10,10,11,11,13,13,14,14],"right_children":[2,4,6,8,10,12,14,16,-1,18,20,22,-1,24,26,-1,-1,-1,-1,-1,-1,-1,-1,-1,-1,-1,-1],"split_conditions":[9.3843025E-1,5E-1,8.7096775E-1,4.5305434E-1,8.329003E-1,1.3775162E0,5.3E-1,4.8E-1,1.3062284E-4,8.5714287E-1,1.2727273E0,1.127117E0,2.3257656E-2,5.1E-1,1.3411351E0,-1.4173095E-2,-7.928507E-3,-8.647972E-3,-1.2154243E-3,9.1511814E-4,1.1677914E-2,-1.5674046E-3,6.8833265E-3,5.795906E-3,-0E0,1.846365E-2,3.2239247E-2],"split_indices":[0,5,3,2,0,0,5,5,0,3,3,0,0,6,0,0,0,0,0,0,0,0,0,0,0,0,0],"split_type":[0,0,0,0,0,0,0,0,0,0,0,0,0,0,0,0,0,0,0,0,0,0,0,0,0,0,0],"sum_hessian":[8.9E2,5.57E2,3.33E2,2.9E2,2.67E2,1.64E2,1.69E2,2.84E2,6E0,1.68E2,9.9E1,1.41E2,2.3E1,1.6E1,1.53E2,2.32E2,5.2E1,5.7E1,1.11E2,7.9E1,2E1,7.9E1,6.2E1,8E0,8E0,1.26E2,2.7E1],"tree_param":{"num_deleted":"0","num_feature":"8","num_nodes":"27","size_leaf_vector":"1"}},{"base_weights":[-1.1943741E-2,-1.8752307E-1,2.0811342E-1,-2.8021044E-1,-8.853876E-2,1.5504672E-1,4.11927E-1,-0E0,-2.8663427E-1,-1.736761E-1,-3.7048142E-2,6.496144E-2,2.2904935E-1,-0E0,4.6459597E-1,-1.5203461E-2,-6.6108876E-3,-1.0683096E-2,-1.9240905E-4,-6.33222E-3,3.7647013E-4,3.3818537E-4,1.0647852E-2,2.0635386E-3,1.4858687E-2,1.6800126E-2,3.136234E-2],"categories":[],"categories_nodes":[],"categories_segments":[],"categories_sizes":[],"default_left":[0,0,0,0,0,0,0,0,0,0,0,0,0,0,0,0,0,0,0,0,0,0,0,0,0,0,0],"id":1,"left_children":[1,3,5,7,9,11,13,-1,15,17,19,21,23,-1,25,-1,-1,-1,-1,-1,-1,-1,-1,-1,-1,-1,-1],"loss_changes":[3.387556E1,4.2523804E0,3.7852726E0,3.315754E-1,9.4264257E-1,1.9098654E0,1.6121035E0,0E0,3.5297203E-1,4.8039174E-1,6.885198E-1,1.1533713E0,1.9553547E0,0E0,5.1913834E-1,0E0,0E0,0E0,0E0,0E0,0E0,0E0,0E0,0E0,0E0,0E0,0E0],"parents":[2147483647,0,0,1,1,2,2,3,3,4,4,5,5,6,6,8,8,9,9,10,10,11,11,12,12,14,14],"right_children":[2,4,6,8,10,12,14,-1,16,18,20,22,24,-1,26,-1,-1,-1,-1,-1,-1,-1,-1,-1,-1,-1,-1],"split_conditions":[1.1357522E-1,4.8E-1,6.2E-1,7.448754E-2,1.2907031E1,3.6080948E-1,1.5374375E1,-0E0,1.6128502E1,3.626647E-1,5.1E-1,1.32E0,7E-1,-0E0,1.9824583E1,-1.5203461E-2,-6.6108876E-3,-1.0683096E-2,-1.9240905E-4,-6.33222E-3,3.7647013E-4,3.3818537E-4,1.0647852E-2,2.0635386E-3,1.4858687E-2,1.6800126E-2,3.136234E-2],"split_indices":[4,5,6,2,7,2,7,0,7,2,6,3,3,0,7,0,0,0,0,0,0,0,0,0,0,0,0],"split_type":[0,0,0,0,0,0,0,0,0,0,0,0,0,0,0,0,0,0,0,0,0,0,0,0,0,0,0],"sum_hessian":[8.73E2,4.87E2,3.86E2,2.47E2,2.4E2,3.11E2,7.5E1,7E0,2.4E2,8.5E1,1.55E2,1.45E2,1.66E2,9E0,6.6E1,2.11E2,2.9E1,6.6E1,1.9E1,5.4E1,1.01E2,1.08E2,3.7E1,4.7E1,1.19E2,4.2E1,2.4E1],"tree_param":{"num_deleted":"0","num_feature":"8","num_nodes":"27","size_leaf_vector":"1"}},{"base_weights":[-1.9821934E-3,-1.9385129E-1,1.5301602E-1,-2.3670456E-1,-4.3765847E-2,2.5099998E-2,2.4251163E-1,-2.4443932E-1,-0E0,-1.4229962E-1,-1.8190444E-4,-8.6000144E-2,9.029707E-2,7.954294E-2,3.0209914E-1,-0E0,-1.2538689E-2,-2.1850764E-4,-0E0,-0E0,-8.739563E-3,-1.6622664E-3,5.0553423E-3,-6.0428474E-3,1.2106443E-3,1.9293778E-3,1.044315E-2,4.9329543E-4,1.2138995E-2,1.0011351E-2,2.0528896E-2],"categories":[],"categories_nodes":[],"categories_segments":[],"categories_sizes":[],"default_left":[0,0,0,0,0,0,0,0,0,0,0,0,0,0,0,0,0,0,0,0,0,0,0,0,0,0,0,0,0,0,0],"id":2,"left_children":[1,3,5,7,9,11,13,15,17,19,21,23,25,27,29,-1,-1,-1,-1,-1,-1,-1,-1,-1,-1,-1,-1,-1,-1,-1,-1],"loss_changes":[2.6280127E1,2.3859797E0,5.4291573E0,5.375614E-1,3.2809514E-1,1.5025775E0,2.5190144E0,4.222889E-1,1.3368766E-4,7.425803E-2,2.0721863E-1,3.3845848E-1,6.755769E-1,7.901697E-1,1.7956257E0,0E0,0E0,0E0,0E0,0E0,0E0,0E0,0E0,0E0,0E0,0E0,0E0,0E0,0E0,0E0,0E0],"parents":[2147483647,0,0,1,1,2,2,3,3,4,4,5,5,6,6,7,7,8,8,9,9,10,10,11,11,12,12,13,13,14,14],"right_children":[2,4,6,8,10,12,14,16,18,20,22,24,26,28,30,-1,-1,-1,-1,-1,-1,-1,-1,-1,-1,-1,-1,-1,-1,-1,-1],"split_conditions":[9.6541196E-2,5.2E-1,1.3770483E-1,1.7472E1,1.2154285E1,5.1E-1,3.352234E-1,7.448754E-2,7.906977E-1,1.041982E1,1.0344827E0,1.7938993E1,4.7084355E-1,1.910183E1,9.756098E-1,-0E0,-1.2538689E-2,-2.1850764E-4,-0E0,-0E0,-8.739563E-3,-1.6622664E-3,5.0553423E-3,-6.0428474E-3,1.2106443E-3,1.9293778E-3,1.044315E-2,4.9329543E-4,1.2138995E-2,1.0011351E-2,2.0528896E-2],"split_indices":[4,6,4,7,7,6,2,2,3,7,3,7,2,7,3,0,0,0,0,0,0,0,0,0,0,0,0,0,0,0,0],"split_type":[0,0,0,0,0,0,0,0,0,0,0,0,0,0,0,0,0,0,0,0,0,0,0,0,0,0,0,0,0,0,0],"sum_hessian":[8.79E2,3.94E2,4.85E2,3.03E2,9.1E1,2.03E2,2.82E2,2.93E2,1E1,2.3E1,6.8E1,7.2E1,1.31E2,7.9E1,2.03E2,8E0,2.85E2,5E0,5E0,6E0,1.7E1,5.6E1,1.2E1,5.8E1,1.4E1,9.6E1,3.5E1,5.9E1,2E1,1.1E2,9.3E1],"tree_param":{"num_deleted":"0","num_feature":"8","num_nodes":"31","size_leaf_vector":"1"}},{"base_weights":[1.1191778E-3,-1.5799524E-1,1.9233777E-1,-2.420275E-1,-6.9260456E-2,8.027353E-2,3.52788E-1,-0E0,-2.4775727E-1,-1.4392845E-1,-0E0,4.3262746E-3,1.6583353E-1,1.4698255E-2,3.9007807E-1,-1.3198204E-2,-6.1268057E-3,-9.383599E-3,-1.6127445E-3,-2.1677397E-3,6.819763E-3,-1.5590882E-3,5.9290463E-3,-0E0,1.0429092E-2,-0E0,1.5472671E-3,1.626327E-2,2.6390124E-2],"categories":[],"categories_nodes":[],"categories_segments":[],"categories_sizes":[],"default_left":[0,0,0,0,0,0,0,0,0,0,0,0,0,0,0,0,0,0,0,0,0,0,0,0,0,0,0,0,0],"id":3,"left_children":[1,3,5,7,9,11,13,-1,15,17,19,21,23,25,27,-1,-1,-1,-1,-1,-1,-1,-1,-1,-1,-1,-1,-1,-1],"loss_changes":[2.752187E1,3.4794703E0,7.1348934E0,2.6909637E-1,1.2070029E0,1.5185031E0,1.8915787E0,0E0,2.3318386E-1,4.3970442E-1,7.5359243E-1,6.02841E-1,8.079879E-1,8.128211E-3,5.6012917E-1,0E0,0E0,0E0,0E0,0E0,0E0,0E0,0E0,0E0,0E0,0E0,0E0,0E0,0E0],"parents":[2147483647,0,0,1,1,2,2,3,3,4,4,5,5,6,6,8,8,9,9,10,10,11,11,12,12,13,13,14,14],"right_children":[2,4,6,8,10,12,14,-1,16,18,20,22,24,26,28,-1,-1,-1,-1,-1,-1,-1,-1,-1,-1,-1,-1,-1,-1],"split_conditions":[1.1357522E-1,4.8E-1,1.0881791E0,7.448754E-2,8.199227E-1,8.997173E-1,1.6118055E1,-0E0,1.6055895E1,9.6541196E-2,1.0344827E0,1.32E0,6.666667E-1,5.6E-1,1.3690803E0,-1.3198204E-2,-6.1268057E-3,-9.383599E-3,-1.6127445E-3,-2.1677397E-3,6.819763E-3,-1.5590882E-3,5.9290463E-3,-0E0,1.0429092E-2,-0E0,1.5472671E-3,1.626327E-2,2.6390124E-2],"split_indices":[4,5,0,2,0,0,7,0,7,4,3,3,3,5,0,0,0,0,0,0,0,0,0,0,0,0,0,0,0],"split_type":[0,0,0,0,0,0,0,0,0,0,0,0,0,0,0,0,0,0,0,0,0,0,0,0,0,0,0,0,0],"sum_hessian":[9E2,4.9E2,4.1E2,2.47E2,2.43E2,2.45E2,1.65E2,7E0,2.4E2,1.13E2,1.3E2,1.34E2,1.11E2,1.8E1,1.47E2,2.07E2,3.3E1,7.7E1,3.6E1,1.02E2,2.8E1,1E2,3.4E1,2.3E1,8.8E1,7E0,1.1E1,1.07E2,4E1],"tree_param":{"num_deleted":"0","num_feature":"8","num_nodes":"29","size_leaf_vector":"1"}},{"base_weights":[3.818757E-3,-1.4490375E-1,1.943329E-1,-2.4364908E-1,-4.9617026E-2,6.2479466E-2,2.7807957E-1,-2.6390517E-1,-1.1289819E-1,-1.3743863E-1,-0E0,-1.225087E-2,2.3637024E-1,1.7185408E-1,3.6327696E-1,-1.3429949E-2,-0E0,-7.4896067E-3,1.3564484E-3,-1.050138E-2,-6.9471955E-4,-4.804068E-3,7.296607E-4,-2.3553285E-3,4.1706036E-3,4.6456535E-4,1.3724922E-2,5.3841015E-3,1.8733546E-2,9.193297E-3,1.9954713E-2],"categories":[],"categories_nodes":[],"categories_segments":[],"categories_sizes":[],"default_left":[0,0,0,0,0,0,0,0,0,0,0,0,0,0,0,0,0,0,0,0,0,0,0,0,0,0,0,0,0,0,0],"id":4,"left_children":[1,3,5,7,9,11,13,15,17,19,21,23,25,27,29,-1,-1,-1,-1,-1,-1,-1,-1,-1,-1,-1,-1,-1,-1,-1,-1],"loss_changes":[2.5071394E1,4.486702E0,4.0904207E0,3.8764954E-1,1.0673486E0,2.1450577E0,1.7343559E0,1.4666557E-1,2.70939E-1,6.8931794E-1,2.7090177E-1,3.531553E-1,2.7725172E-1,1.122817E0,3.7143707E-1,0E0,0E0,0E0,0E0,0E0,0E0,0E0,0E0,0E0,0E0,0E0,0E0,0E0,0E0,0E0,0E0],"parents":[2147483647,0,0,1,1,2,2,3,3,4,4,5,5,6,6,7,7,8,8,9,9,10,10,11,11,12,12,13,13,14,14],"right_children":[2,4,6,8,10,12,14,16,18,20,22,24,26,28,30,-1,-1,-1,-1,-1,-1,-1,-1,-1,-1,-1,-1,-1,-1,-1,-1],"split_conditions":[1.1542019E-1,4.8E-1,3.6080948E-1,7.720061E-2,5.5731613E-2,1.32E0,8.8235295E-1,4.6167412E-1,1.2222222E0,3.278623E-1,1.25525255E1,1.5469173E-1,1.6560919E1,6.6235185E-1,5.6E-1,-1.3429949E-2,-0E0,-7.4896067E-3,1.3564484E-3,-1.050138E-2,-6.9471955E-4,-4.804068E-3,7.296607E-4,-2.3553285E-3,4.1706036E-3,4.6456535E-4,1.3724922E-2,5.3841015E-3,1.8733546E-2,9.193297E-3,1.9954713E-2],"split_indices":[4,5,2,4,4,3,3,2,3,2,7,4,7,2,5,0,0,0,0,0,0,0,0,0,0,0,0,0,0,0,0],"split_type":[0,0,0,0,0,0,0,0,0,0,0,0,0,0,0,0,0,0,0,0,0,0,0,0,0,0,0,0,0,0,0],"sum_hessian":[8.8E2,4.93E2,3.87E2,2.38E2,2.55E2,1.54E2,2.33E2,2.01E2,3.7E1,8.8E1,1.67E2,1.07E2,4.7E1,1.09E2,1.24E2,1.96E2,5E0,3.2E1,5E0,5.2E1,3.6E1,2.4E1,1.43E2,8.3E1,2.4E1,9E0,3.8E1,8.7E1,2.2E1,2.5E1,9.9E1],"tree_param":{"num_deleted":"0","num_feature":"8","num_nodes":"31","size_leaf_vector":"1"}},{"base_weights":[-1.2328634E-3,-1.16363645E-1,2.0617259E-1,-2.3012045E-1,-2.1353554E-2,5.965185E-2,2.9509616E-1,-2.3830248E-1,6.679032E-7,-1.2470286E-1,2.6147503E-2,-3.976792E-2,8.844419E-2,2.0947075E-1,2.0807201E-2,-1.2595497E-2,-5.7552806E-3,-7.3765614E-3,6.466365E-3,-2.8515473E-4,5.0320206E-3,-5.506614E-3,2.242076E-3,5.2060294E-3,-3.0621556E-3,-0E0,1.1587467E-2],"categories":[],"categories_nodes":[],"categories_segments":[],"categories_sizes":[],"default_left":[0,0,0,0,0,0,0,0,0,0,0,0,0,0,0,0,0,0,0,0,0,0,0,0,0,0,0],"id":5,"left_children":[1,3,5,7,9,11,13,15,-1,17,19,21,23,25,-1,-1,-1,-1,-1,-1,-1,-1,-1,-1,-1,-1,-1],"loss_changes":[2.1732742E1,6.2195654E0,4.0088634E0,6.1813545E-1,1.6512895E0,3.9491364E-1,1.5754414E0,1.9101048E-1,0E0,6.6196513E-1,5.729708E-1,1.973131E-1,2.7588725E-1,5.1086044E-1,0E0,0E0,0E0,0E0,0E0,0E0,0E0,0E0,0E0,0E0,0E0,0E0,0E0],"parents":[2147483647,0,0,1,1,2,2,3,3,4,4,5,5,6,6,7,7,9,9,10,10,11,11,12,12,13,13],"right_children":[2,4,6,8,10,12,14,16,-1,18,20,22,24,26,-1,-1,-1,-1,-1,-1,-1,-1,-1,-1,-1,-1,-1],"split_conditions":[9.558623E-1,5.132331E-2,1.6986382E1,5.6E-1,7.187592E-1,1.2987302E1,1.2308311E0,8.6947924E-1,6.679032E-7,5.9E-1,1.3475177E-1,1.1206969E0,6.4E-1,5.1E-1,2.0807201E-2,-1.2595497E-2,-5.7552806E-3,-7.3765614E-3,6.466365E-3,-2.8515473E-4,5.0320206E-3,-5.506614E-3,2.242076E-3,5.2060294E-3,-3.0621556E-3,-0E0,1.1587467E-2],"split_indices":[0,4,7,6,0,7,0,0,0,6,1,0,6,6,0,0,0,0,0,0,0,0,0,0,0,0,0],"split_type":[0,0,0,0,0,0,0,0,0,0,0,0,0,0,0,0,0,0,0,0,0,0,0,0,0,0,0],"sum_hessian":[9.08E2,5.86E2,3.22E2,2.63E2,3.23E2,1.25E2,1.97E2,2.56E2,7E0,1.04E2,2.19E2,2.4E1,1.01E2,1.21E2,7.6E1,2.25E2,3.1E1,9.8E1,6E0,1.5E2,6.9E1,1.6E1,8E0,9.5E1,6E0,1.3E1,1.08E2],"tree_param":{"num_deleted":"0","num_feature":"8","num_nodes":"27","size_leaf_vector":"1"}},{"base_weights":[-1.7731657E-3,-1.3631053E-1,1.6893324E-1,-2.0326057E-1,-1.6846718E-2,8.3250776E-2,2.7602175E-1,-0E0,-2.0892076E-1,-1.1163975E-1,2.8281597E-2,-5.975449E-2,1.3205309E-1,1.2942547E-1,3.47752E-1,-1.2111655E-2,-7.3062405E-3,-6.617324E-3,6.528274E-5,-6.388888E-4,4.2161983E-3,-6.003696E-3,-0E0,3.4817252E-3,1.0722205E-2,1.1505771E-4,9.912329E-3,-0E0,1.8577753E-2],"categories":[],"categories_nodes":[],"categories_segments":[],"categories_sizes":[],"default_left":[0,0,0,0,0,0,0,0,0,0,0,0,0,0,0,0,0,0,0,0,0,0,0,0,0,0,0,0,0],"id":6,"left_children":[1,3,5,7,9,11,13,-1,15,17,19,21,23,25,27,-1,-1,-1,-1,-1,-1,-1,-1,-1,-1,-1,-1,-1,-1],"loss_changes":[2.02861E1,3.8501587E0,3.3345413E0,4.2936802E-1,8.3084035E-1,1.5942873E0,1.4484959E0,0E0,3.7932777E-1,2.13206E-1,3.1865788E-1,1.9289617E-1,6.920738E-1,4.3249273E-1,1.0550671E0,0E0,0E0,0E0,0E0,0E0,0E0,0E0,0E0,0E0,0E0,0E0,0E0,0E0,0E0],"parents":[2147483647,0,0,1,1,2,2,3,3,4,4,5,5,6,6,8,8,9,9,10,10,11,11,12,12,13,13,14,14],"right_children":[2,4,6,8,10,12,14,-1,16,18,20,22,24,26,28,-1,-1,-1,-1,-1,-1,-1,-1,-1,-1,-1,-1,-1,-1],"split_conditions":[1.1542019E-1,5.1E-1,4.461255E-1,7.448754E-2,1.2907031E1,8.5E-1,5.8E-1,-0E0,1.4340942E1,4.461255E-1,8.4E-1,6.818182E-1,3.3907416E-1,1.7963203E1,1.516761E1,-1.2111655E-2,-7.3062405E-3,-6.617324E-3,6.528274E-5,-6.388888E-4,4.2161983E-3,-6.003696E-3,-0E0,3.4817252E-3,1.0722205E-2,1.1505771E-4,9.912329E-3,-0E0,1.8577753E-2],"split_indices":[4,6,2,2,7,3,6,0,7,2,3,3,2,7,7,0,0,0,0,0,0,0,0,0,0,0,0,0,0],"split_type":[0,0,0,0,0,0,0,0,0,0,0,0,0,0,0,0,0,0,0,0,0,0,0,0,0,0,0,0,0],"sum_hessian":[8.8E2,4.94E2,3.86E2,3.13E2,1.81E2,2.19E2,1.67E2,7E0,3.06E2,6.1E1,1.2E2,5.3E1,1.66E2,5.9E1,1.08E2,1.91E2,1.15E2,5.5E1,6E0,6.5E1,5.5E1,2.5E1,2.8E1,1E2,6.6E1,2.4E1,3.5E1,6E0,1.02E2],"tree_param":{"num_deleted":"0","num_feature":"8","num_nodes":"29","size_leaf_vector":"1"}},{"base_weights":[-3.9720773E-3,-1.1397321E-1,1.652568E-1,-1.8643306E-1,-3.4649791E-3,4.859263E-2,2.593666E-1,-2.1804808E-1,-7.886037E-2,-9.1952674E-2,3.7172735E-2,-9.522566E-3,1.7790587E-1,1.6121425E-1,3.7324744E-1,-1.3212849E-2,-9.050075E-3,-7.6541076E-3,-0E0,-7.982912E-3,2.5160618E-3,-0E0,7.4963258E-3,-4.5426385E-3,2.71516E-3,-0E0,1.033682E-2,4.074324E-3,1.2101678E-2,4.993483E-3,1.9820703E-2],"categories":[],"categories_nodes":[],"categories_segments":[],"categories_sizes":[],"default_left":[0,0,0,0,0,0,0,0,0,0,0,0,0,0,0,0,0,0,0,0,0,0,0,0,0,0,0,0,0,0,0],"id":7,"left_children":[1,3,5,7,9,11,13,15,17,19,21,23,25,27,29,-1,-1,-1,-1,-1,-1,-1,-1,-1,-1,-1,-1,-1,-1,-1,-1],"loss_changes":[1.6691397E1,4.2758045E0,3.6855068E0,9.292526E-1,8.289284E-1,1.3050202E0,1.7585363E0,1.0625553E-1,5.039324E-1,7.835592E-1,5.583606E-1,6.043388E-1,3.7404096E-1,5.011413E-1,2.110033E-1,0E0,0E0,0E0,0E0,0E0,0E0,0E0,0E0,0E0,0E0,0E0,0E0,0E0,0E0,0E0,0E0],"parents":[2147483647,0,0,1,1,2,2,3,3,4,4,5,5,6,6,7,7,8,8,9,9,10,10,11,11,12,12,13,13,14,14],"right_children":[2,4,6,8,10,12,14,16,18,20,22,24,26,28,30,-1,-1,-1,-1,-1,-1,-1,-1,-1,-1,-1,-1,-1,-1,-1,-1],"split_conditions":[9.3403184E-1,9.6541196E-2,1.7472E1,8.199227E-1,7.187592E-1,8.888889E-1,1.195018E0,6.186406E-1,7.222222E-1,5.4E-1,1.2941177E0,9.0545684E-2,5E-1,1.0526316E0,5.7E-1,-1.3212849E-2,-9.050075E-3,-7.6541076E-3,-0E0,-7.982912E-3,2.5160618E-3,-0E0,7.4963258E-3,-4.5426385E-3,2.71516E-3,-0E0,1.033682E-2,4.074324E-3,1.2101678E-2,4.993483E-3,1.9820703E-2],"split_indices":[0,4,7,0,0,3,0,0,3,6,3,4,6,3,5,0,0,0,0,0,0,0,0,0,0,0,0,0,0,0,0],"split_type":[0,0,0,0,0,0,0,0,0,0,0,0,0,0,0,0,0,0,0,0,0,0,0,0,0,0,0,0,0,0,0],"sum_hessian":[8.94E2,5.44E2,3.5E2,3.25E2,2.19E2,1.6E2,1.9E2,2.46E2,7.9E1,7.2E1,1.47E2,1.09E2,5.1E1,1.07E2,8.3E1,9.8E1,1.48E2,4.1E1,3.8E1,5.1E1,2.1E1,1.15E2,3.2E1,5.1E1,5.8E1,5E0,4.6E1,5.9E1,4.8E1,9E0,7.4E1],"tree_param":{"num_deleted":"0","num_feature":"8","num_nodes":"31","size_leaf_vector":"1"}},{"base_weights":[-9.495231E-3,-1.2610064E-1,1.331486E-1,-2.0873305E-1,-5.5633485E-2,-1.2441741E-2,2.0819916E-1,-1.0922271E-2,-0E0,-1.2917337E-1,-3.0291309E-3,-9.3771495E-2,4.298568E-2,1.6457428E-1,3.929029E-1,-7.4985432E-3,7.2648055E-3,-3.036496E-3,1.3309988E-3,-6.029617E-3,2.2429747E-3,-2.899777E-3,3.8403235E-3,1.2090687E-3,1.0809726E-2,-0E0,2.1627774E-2],"categories":[],"categories_nodes":[],"categories_segments":[],"categories_sizes":[],"default_left":[0,0,0,0,0,0,0,0,0,0,0,0,0,0,0,0,0,0,0,0,0,0,0,0,0,0,0],"id":8,"left_children":[1,3,5,7,9,11,13,-1,-1,15,17,19,21,23,25,-1,-1,-1,-1,-1,-1,-1,-1,-1,-1,-1,-1],"loss_changes":[1.4783564E1,2.7036223E0,4.4518614E0,5.3931046E-1,9.814846E-1,6.420209E-1,1.7272234E0,0E0,0E0,6.6811967E-1,3.008556E-1,2.6805973E-1,2.8470495E-1,1.4637218E0,6.0286236E-1,0E0,0E0,0E0,0E0,0E0,0E0,0E0,0E0,0E0,0E0,0E0,0E0],"parents":[2147483647,0,0,1,1,2,2,3,3,4,4,5,5,6,6,9,9,10,10,11,11,12,12,13,13,14,14],"right_children":[2,4,6,8,10,12,14,-1,-1,16,18,20,22,24,26,-1,-1,-1,-1,-1,-1,-1,-1,-1,-1,-1,-1],"split_conditions":[8.997173E-1,5.3087693E-2,1.1542019E-1,8.6947924E-1,7.187592E-1,6.729754E-2,1.3411351E0,-1.0922271E-2,-0E0,5.9E-1,8.5714287E-1,1.1902941E0,5.1E-1,7.777778E-1,1.7225363E1,-7.4985432E-3,7.2648055E-3,-3.036496E-3,1.3309988E-3,-6.029617E-3,2.2429747E-3,-2.899777E-3,3.8403235E-3,1.2090687E-3,1.0809726E-2,-0E0,2.1627774E-2],"split_indices":[0,4,4,0,0,4,0,0,0,6,3,0,6,3,7,0,0,0,0,0,0,0,0,0,0,0,0],"split_type":[0,0,0,0,0,0,0,0,0,0,0,0,0,0,0,0,0,0,0,0,0,0,0,0,0,0,0],"sum_hessian":[8.85E2,4.89E2,3.96E2,2.2E2,2.69E2,1.33E2,2.63E2,2.12E2,8E0,1.07E2,1.62E2,5.7E1,7.6E1,2.18E2,4.5E1,1.02E2,5E0,6E1,1.02E2,5.1E1,6E0,1.5E1,6.1E1,6.2E1,1.56E2,5E0,4E1],"tree_param":{"num_deleted":"0","num_feature":"8","num_nodes":"27","size_leaf_vector":"1"}},{"base_weights":[-3.296371E-3,-1.054264E-1,1.734231E-1,-1.8609947E-1,-3.986383E-2,2.1431498E-2,2.2738227E-1,-1.999318E-1,-8.889886E-2,-8.2583524E-2,3.391729E-2,-5.0310645E-2,6.809057E-2,1.9247715E-1,1.97874E-2,-0E0,-1.0322731E-2,-6.4302334E-3,-0E0,-9.256152E-3,-2.7795702E-3,4.6550293E-4,1.1775487E-2,-4.975737E-3,1.3920647E-3,1.2494466E-2,9.984811E-4,-6.0389965E-4,1.0239783E-2],"categories":[],"categories_nodes":[],"categories_segments":[],"categories_sizes":[],"default_left":[0,0,0,0,0,0,0,0,0,0,0,0,0,0,0,0,0,0,0,0,0,0,0,0,0,0,0,0,0],"id":9,"left_children":[1,3,5,7,9,11,13,15,17,19,21,23,25,27,-1,-1,-1,-1,-1,-1,-1,-1,-1,-1,-1,-1,-1,-1,-1],"loss_changes":[1.5921226E1,2.8446746E0,2.5066786E0,1.5347576E-1,1.0259378E0,3.136619E-1,9.3459606E-1,2.6095104E-1,1.8795747E-1,4.2645097E-1,4.337563E-1,1.644306E-1,3.7124154E-1,6.0778904E-1,0E0,0E0,0E0,0E0,0E0,0E0,0E0,0E0,0E0,0E0,0E0,0E0,0E0,0E0,0E0],"parents":[2147483647,0,0,1,1,2,2,3,3,4,4,5,5,6,6,7,7,8,8,9,9,10,10,11,11,12,12,13,13],"right_children":[2,4,6,8,10,12,14,16,18,20,22,24,26,28,-1,-1,-1,-1,-1,-1,-1,-1,-1,-1,-1,-1,-1,-1,-1],"split_conditions":[9.558623E-1,4.8E-1,1.5986667E1,1.5938889E1,8.329003E-1,1.2987302E1,1.3775162E0,7.448754E-2,8.848207E-1,1.1991542E1,1.9824583E1,1.1206969E0,3.4529462E-1,4.9E-1,1.97874E-2,-0E0,-1.0322731E-2,-6.4302334E-3,-0E0,-9.256152E-3,-2.7795702E-3,4.6550293E-4,1.1775487E-2,-4.975737E-3,1.3920647E-3,1.2494466E-2,9.984811E-4,-6.0389965E-4,1.0239783E-2],"split_indices":[0,5,7,7,0,7,0,2,0,7,7,0,2,5,0,0,0,0,0,0,0,0,0,0,0,0,0,0,0],"split_type":[0,0,0,0,0,0,0,0,0,0,0,0,0,0,0,0,0,0,0,0,0,0,0,0,0,0,0,0,0],"sum_hessian":[8.8E2,5.6E2,3.2E2,2.46E2,3.14E2,8.7E1,2.33E2,2.09E2,3.7E1,2.03E2,1.11E2,3E1,5.7E1,1.99E2,3.4E1,7E0,2.02E2,2.8E1,9E0,3.6E1,1.67E2,1.03E2,8E0,2.2E1,8E0,8E0,4.9E1,9E0,1.9E2],"tree_param":{"num_deleted":"0","num_feature":"8","num_nodes":"29","size_leaf_vector":"1"}},{"base_weights":[8.925777E-3,-1.0201301E-1,1.428456E-1,-1.606258E-1,-8.5506676E-4,4.0665222E-3,2.147314E-1,-1.9457388E-1,-7.8460544E-2,-8.3491795E-2,3.9765704E-2,-1.2934537E-1,2.295323E-2,1.7878172E-1,1.9186644E-2,-1.075505E-2,-4.4425786E-3,-6.1931624E-3,-1.1958632E-3,-5.023685E-3,8.459777E-4,-3.459713E-3,3.1117513E-3,-0E0,-1.0368117E-2,-0E0,4.3647955E-3,-0E0,9.669109E-3],"categories":[],"categories_nodes":[],"categories_segments":[],"categories_sizes":[],"default_left":[0,0,0,0,0,0,0,0,0,0,0,0,0,0,0,0,0,0,0,0,0,0,0,0,0,0,0,0,0],"id":10,"left_children":[1,3,5,7,9,11,13,15,17,19,21,23,25,27,-1,-1,-1,-1,-1,-1,-1,-1,-1,-1,-1,-1,-1,-1,-1],"loss_changes":[1.3465344E1,2.8420544E0,3.9990673E0,6.9486094E-1,6.52862E-1,3.1809992E-1,1.2158556E0,2.720461E-1,1.6287321E-1,1.577186E-1,3.0382025E-1,1.7903799E-1,2.3527873E-1,5.657587E-1,0E0,0E0,0E0,0E0,0E0,0E0,0E0,0E0,0E0,0E0,0E0,0E0,0E0,0E0,0E0],"parents":[2147483647,0,0,1,1,2,2,3,3,4,4,5,5,6,6,7,7,8,8,9,9,10,10,11,11,12,12,13,13],"right_children":[2,4,6,8,10,12,14,16,18,20,22,24,26,28,-1,-1,-1,-1,-1,-1,-1,-1,-1,-1,-1,-1,-1,-1,-1],"split_conditions":[1.1542019E-1,5.1E-1,9.1792583E-1,7.917726E-1,1.2907031E1,6.2527776E-1,1.3775162E0,7.2734915E-2,4.046942E-2,1.1206969E0,5.3087693E-2,1.570122E1,1.8451826E1,1.4933333E1,1.9186644E-2,-1.075505E-2,-4.4425786E-3,-6.1931624E-3,-1.1958632E-3,-5.023685E-3,8.459777E-4,-3.459713E-3,3.1117513E-3,-0E0,-1.0368117E-2,-0E0,4.3647955E-3,-0E0,9.669109E-3],"split_indices":[4,6,0,0,7,0,0,4,4,0,4,7,7,7,0,0,0,0,0,0,0,0,0,0,0,0,0,0,0],"split_type":[0,0,0,0,0,0,0,0,0,0,0,0,0,0,0,0,0,0,0,0,0,0,0,0,0,0,0,0,0],"sum_hessian":[9.01E2,4.91E2,4.1E2,3.07E2,1.84E2,1.43E2,2.67E2,2.11E2,9.6E1,6.4E1,1.2E2,1.3E1,1.3E2,2.26E2,4.1E1,1.71E2,4E1,4.6E1,5E1,5.9E1,5E0,1.6E1,1.04E2,5E0,8E0,9.2E1,3.8E1,1.8E1,2.08E2],"tree_param":{"num_deleted":"0","num_feature":"8","num_nodes":"29","size_leaf_vector":"1"}},{"base_weights":[1.6905712E-3,-1.182576E-1,1.2031393E-1,-1.5239663E-1,-1.1317352E-2,1.688598E-2,1.8470138E-1,-1.5929899E-1,-0E0,-9.00071E-2,6.921811E-3,-5.4934498E-2,4.0734347E-2,-1.4508379E-2,2.1014675E-1,-9.317869E-3,-5.650573E-3,-8.8254217E-4,3.7545364E-3,6.4414635E-4,-8.770284E-3,4.4279965E-3,-2.2339098E-4,-5.8425167E-3,1.2531174E-4,2.9375744E-3,-3.1972819E-3,1.9410495E-3,-3.7892745E-3,5.434349E-3,1.3057888E-2],"categories":[],"categories_nodes":[],"categories_segments":[],"categories_sizes":[],"default_left":[0,0,0,0,0,0,0,0,0,0,0,0,0,0,0,0,0,0,0,0,0,0,0,0,0,0,0,0,0,0,0],"id":11,"left_children":[1,3,5,7,9,11,13,15,17,19,21,23,25,27,29,-1,-1,-1,-1,-1,-1,-1,-1,-1,-1,-1,-1,-1,-1,-1,-1],"loss_changes":[1.2394185E1,1.488205E0,2.823132E0,4.1577482E-1,2.0066452E-1,2.954028E-1,1.4624004E0,1.9896364E-1,4.7289807E-2,3.1423408E-1,1.2280259E-1,1.964609E-1,2.6330334E-1,1.2240247E-1,1.0004444E0,0E0,0E0,0E0,0E0,0E0,0E0,0E0,0E0,0E0,0E0,0E0,0E0,0E0,0E0,0E0,0E0],"parents":[2147483647,0,0,1,1,2,2,3,3,4,4,5,5,6,6,7,7,8,8,9,9,10,10,11,11,12,12,13,13,14,14],"right_children":[2,4,6,8,10,12,14,16,18,20,22,24,26,28,30,-1,-1,-1,-1,-1,-1,-1,-1,-1,-1,-1,-1,-1,-1,-1,-1],"split_conditions":[5.3E-1,5E-1,1.6609903E1,1.8730042E1,2.269973E-1,1.2502957E1,2.7217805E-1,2.7533126E-1,7.906977E-1,1.3816093E-1,2.5861412E-1,5.6E-1,6.1E-1,2.1659607E-1,8.8235295E-1,-9.317869E-3,-5.650573E-3,-8.8254217E-4,3.7545364E-3,6.4414635E-4,-8.770284E-3,4.4279965E-3,-2.2339098E-4,-5.8425167E-3,1.2531174E-4,2.9375744E-3,-3.1972819E-3,1.9410495E-3,-3.7892745E-3,5.434349E-3,1.3057888E-2],"split_indices":[5,6,7,7,2,7,2,2,3,2,2,5,6,2,3,0,0,0,0,0,0,0,0,0,0,0,0,0,0,0,0],"split_type":[0,0,0,0,0,0,0,0,0,0,0,0,0,0,0,0,0,0,0,0,0,0,0,0,0,0,0,0,0,0,0],"sum_hessian":[8.67E2,4.29E2,4.38E2,3.21E2,1.08E2,1.72E2,2.66E2,3.1E2,1.1E1,2.4E1,8.4E1,3.7E1,1.35E2,2.8E1,2.38E2,1.85E2,1.25E2,5E0,6E0,9E0,1.5E1,1.4E1,7E1,2.1E1,1.6E1,1.2E2,1.5E1,1.1E1,1.7E1,8.5E1,1.53E2],"tree_param":{"num_deleted":"0","num_feature":"8","num_nodes":"31","size_leaf_vector":"1"}},{"base_weights":[-5.8898344E-3,-1.1294583E-1,1.097206E-1,-1.5419586E-1,-4.5965496E-3,3.344163E-2,2.0999548E-1,-1.7209783E-1,-8.2784064E-2,-3.0493652E-2,1.3934502E-1,1.9867066E-3,1.435205E-1,1.3140817E-1,2.7784538E-1,-1.0952196E-2,-6.988735E-3,-0E0,-5.6299074E-3,-3.206793E-3,3.054748E-3,9.499648E-3,5.414051E-4,-1.5218607E-3,2.3923942E-3,1.2954612E-3,1.123112E-2,4.4822926E-3,1.2389398E-2,-0E0,1.4626632E-2],"categories":[],"categories_nodes":[],"categories_segments":[],"categories_sizes":[],"default_left":[0,0,0,0,0,0,0,0,0,0,0,0,0,0,0,0,0,0,0,0,0,0,0,0,0,0,0,0,0,0,0],"id":12,"left_children":[1,3,5,7,9,11,13,15,17,19,21,23,25,27,29,-1,-1,-1,-1,-1,-1,-1,-1,-1,-1,-1,-1,-1,-1,-1,-1],"loss_changes":[1.1153132E1,2.0198102E0,3.1608963E0,2.7488995E-1,4.57308E-1,7.9230684E-1,6.981325E-1,1.5692759E-1,2.456823E-1,3.7602508E-1,1.2639016E-2,3.0901784E-1,3.590964E-1,2.3400342E-1,2.6563597E-1,0E0,0E0,0E0,0E0,0E0,0E0,0E0,0E0,0E0,0E0,0E0,0E0,0E0,0E0,0E0,0E0],"parents":[2147483647,0,0,1,1,2,2,3,3,4,4,5,5,6,6,7,7,8,8,9,9,10,10,11,11,12,12,13,13,14,14],"right_children":[2,4,6,8,10,12,14,16,18,20,22,24,26,28,30,-1,-1,-1,-1,-1,-1,-1,-1,-1,-1,-1,-1,-1,-1,-1,-1],"split_conditions":[1.0949965E-1,5.2E-1,1.0681406E0,7.011187E-2,1.195018E0,1.3043479E0,9.3333334E-1,6.2648183E-1,8.2600504E-2,1.3197969E-1,5.9E-1,8.997173E-1,8.3641833E-1,1.3775162E0,5.4E-1,-1.0952196E-2,-6.988735E-3,-0E0,-5.6299074E-3,-3.206793E-3,3.054748E-3,9.499648E-3,5.414051E-4,-1.5218607E-3,2.3923942E-3,1.2954612E-3,1.123112E-2,4.4822926E-3,1.2389398E-2,-0E0,1.4626632E-2],"split_indices":[4,6,0,4,0,3,3,0,4,1,6,0,0,0,5,0,0,0,0,0,0,0,0,0,0,0,0,0,0,0,0],"split_type":[0,0,0,0,0,0,0,0,0,0,0,0,0,0,0,0,0,0,0,0,0,0,0,0,0,0,0,0,0,0,0],"sum_hessian":[8.97E2,4.68E2,4.29E2,3.35E2,1.33E2,2.48E2,1.81E2,2.6E2,7.5E1,1.17E2,1.6E1,1.98E2,5E1,9E1,9.1E1,9.5E1,1.65E2,1.6E1,5.9E1,9E1,2.7E1,8E0,8E0,1.1E2,8.8E1,2.4E1,2.6E1,7.2E1,1.8E1,6E0,8.5E1],"tree_param":{"num_deleted":"0","num_feature":"8","num_nodes":"31","size_leaf_vector":"1"}},{"base_weights":[5.2800514E-3,-9.364657E-2,1.3325936E-1,-1.393344E-1,-7.3932866E-3,4.6990853E-2,1.8870723E-1,-2.0249136E-1,-1.1350662E-1,-5.3152755E-2,3.8041253E-2,-0E0,1.4083281E-1,7.5517274E-2,2.521313E-1,-1.0726015E-2,-0E0,4.8975744E-3,-6.0987477E-3,-4.6549467E-3,1.7915067E-3,-1.6514224E-3,3.6767886E-3,4.7449037E-3,-1.7447673E-3,-0E0,9.8963035E-3,-1.0516528E-3,7.904275E-3,8.81949E-3,1.673335E-2],"categories":[],"categories_nodes":[],"categories_segments":[],"categories_sizes":[],"default_left":[0,0,0,0,0,0,0,0,0,0,0,0,0,0,0,0,0,0,0,0,0,0,0,0,0,0,0,0,0,0,0],"id":13,"left_children":[1,3,5,7,9,11,13,15,17,19,21,23,25,27,29,-1,-1,-1,-1,-1,-1,-1,-1,-1,-1,-1,-1,-1,-1,-1,-1],"loss_changes":[1.122404E1,1.8831158E0,1.7203779E0,3.1964922E-1,3.8167247E-1,7.023095E-1,1.4636145E0,1.9628286E-1,4.6209264E-1,3.729859E-1,2.3953089E-1,3.5857844E-1,3.5909462E-1,7.8468317E-1,5.328579E-1,0E0,0E0,0E0,0E0,0E0,0E0,0E0,0E0,0E0,0E0,0E0,0E0,0E0,0E0,0E0,0E0],"parents":[2147483647,0,0,1,1,2,2,3,3,4,4,5,5,6,6,7,7,8,8,9,9,10,10,11,11,12,12,13,13,14,14],"right_children":[2,4,6,8,10,12,14,16,18,20,22,24,26,28,30,-1,-1,-1,-1,-1,-1,-1,-1,-1,-1,-1,-1,-1,-1,-1,-1],"split_conditions":[1.1542019E-1,5.1E-1,3.6080948E-1,1.1991542E1,8.4E-1,1.32E0,1.784065E1,3.485878E-1,1.21070175E1,4.6900466E-1,2.0364574E-1,1.5727033E1,2.2480229E-1,7.5E-1,6E-1,-1.0726015E-2,-0E0,4.8975744E-3,-6.0987477E-3,-4.6549467E-3,1.7915067E-3,-1.6514224E-3,3.6767886E-3,4.7449037E-3,-1.7447673E-3,-0E0,9.8963035E-3,-1.0516528E-3,7.904275E-3,8.81949E-3,1.673335E-2],"split_indices":[4,6,2,7,3,3,7,2,7,2,2,7,2,3,6,0,0,0,0,0,0,0,0,0,0,0,0,0,0,0,0],"split_type":[0,0,0,0,0,0,0,0,0,0,0,0,0,0,0,0,0,0,0,0,0,0,0,0,0,0,0,0,0,0,0],"sum_hessian":[8.81E2,4.95E2,3.86E2,3.19E2,1.76E2,1.56E2,2.3E2,8.3E1,2.36E2,9.3E1,8.3E1,1.05E2,5.1E1,8.7E1,1.43E2,7.8E1,5E0,6E0,2.3E2,6.8E1,2.5E1,2.3E1,6E1,2.7E1,7.8E1,1.7E1,3.4E1,3.8E1,4.9E1,8.1E1,6.2E1],"tree_param":{"num_deleted":"0","num_feature":"8","num_nodes":"31","size_leaf_vector":"1"}},{"base_weights":[2.3344401E-3,-9.873168E-2,1.04756005E-1,-1.5552823E-1,-4.6421323E-2,3.190067E-2,1.9592436E-1,-1.6090238E-1,-0E0,-1.04777046E-1,-0E0,-2.1069183E-3,7.902922E-2,4.3844055E-2,2.2379203E-1,-8.268698E-3,-4.884804E-4,-5.9372424E-3,-0E0,4.1581765E-3,-1.2392445E-3,-1.6743274E-3,3.1933566E-3,6.780375E-3,-1.1819983E-3,5.7352814E-3,-0E0,8.739463E-3,1.6124425E-2],"categories":[],"categories_nodes":[],"categories_segments":[],"categories_sizes":[],"default_left":[0,0,0,0,0,0,0,0,0,0,0,0,0,0,0,0,0,0,0,0,0,0,0,0,0,0,0,0,0],"id":14,"left_children":[1,3,5,7,9,11,13,15,-1,17,19,21,23,25,27,-1,-1,-1,-1,-1,-1,-1,-1,-1,-1,-1,-1,-1,-1],"loss_changes":[9.122535E0,1.194818E0,2.7961116E0,1.17305756E-1,6.090587E-1,4.3947628E-1,6.6027784E-1,4.232979E-2,0E0,2.0565236E-1,2.6814097E-1,2.809911E-1,7.07177E-1,1.4323753E-1,4.0761423E-1,0E0,0E0,0E0,0E0,0E0,0E0,0E0,0E0,0E0,0E0,0E0,0E0,0E0,0E0],"parents":[2147483647,0,0,1,1,2,2,3,3,4,4,5,5,6,6,7,7,9,9,10,10,11,11,12,12,13,13,14,14],"right_children":[2,4,6,8,10,12,14,16,-1,18,20,22,24,26,28,-1,-1,-1,-1,-1,-1,-1,-1,-1,-1,-1,-1,-1,-1],"split_conditions":[5.3E-1,3.815731E-2,1.0842835E0,1.764706E-1,7.341695E-1,8.997173E-1,1.1612108E-1,4.461255E-1,-0E0,5.3E-1,2.9276842E-1,1.464433E-1,4.1505536E-1,1.1764706E-1,1.3775162E0,-8.268698E-3,-4.884804E-4,-5.9372424E-3,-0E0,4.1581765E-3,-1.2392445E-3,-1.6743274E-3,3.1933566E-3,6.780375E-3,-1.1819983E-3,5.7352814E-3,-0E0,8.739463E-3,1.6124425E-2],"split_indices":[5,4,0,1,0,0,4,2,0,6,2,4,2,1,0,0,0,0,0,0,0,0,0,0,0,0,0,0,0],"split_type":[0,0,0,0,0,0,0,0,0,0,0,0,0,0,0,0,0,0,0,0,0,0,0,0,0,0,0,0,0],"sum_hessian":[8.77E2,4.39E2,4.38E2,2.04E2,2.35E2,2.48E2,1.9E2,1.95E2,9E0,1E2,1.35E2,1.39E2,1.09E2,3.3E1,1.57E2,1.86E2,9E0,9.2E1,8E0,2.7E1,1.08E2,1E2,3.9E1,7.3E1,3.6E1,1.4E1,1.9E1,1.12E2,4.5E1],"tree_param":{"num_deleted":"0","num_feature":"8","num_nodes":"29","size_leaf_vector":"1"}},{"base_weights":[-3.171761E-3,-8.1229195E-2,1.327441E-1,-1.5845592E-1,-2.1632405E-2,5.1138174E-2,1.9954762E-1,-1.9197036E-1,-9.8898746E-2,-5.0909735E-2,4.1476414E-2,-4.75637E-3,6.640705E-2,-2.958925E-2,2.1703564E-1,-1.01471655E-2,-3.1197115E-3,-6.3558356E-3,-1.506702E-3,-5.2038045E-3,-8.8056707E-4,3.2205603E-4,1.0174096E-2,-1.9587351E-4,4.14729E-3,-0E0,-2.5519256E-3,8.56569E-3,1.4363962E-2],"categories":[],"categories_nodes":[],"categories_segments":[],"categories_sizes":[],"default_left":[0,0,0,0,0,0,0,0,0,0,0,0,0,0,0,0,0,0,0,0,0,0,0,0,0,0,0,0,0],"id":15,"left_children":[1,3,5,7,9,11,13,15,17,19,21,-1,23,25,27,-1,-1,-1,-1,-1,-1,-1,-1,-1,-1,-1,-1,-1,-1],"loss_changes":[9.406208E0,2.512698E0,1.6096511E0,3.016286E-1,6.1127615E-1,3.355039E-1,7.998042E-1,5.2437305E-2,1.0193235E-1,3.409015E-1,4.5433235E-1,0E0,2.0415819E-1,7.7282237E-3,1.9577551E-1,0E0,0E0,0E0,0E0,0E0,0E0,0E0,0E0,0E0,0E0,0E0,0E0,0E0,0E0],"parents":[2147483647,0,0,1,1,2,2,3,3,4,4,5,5,6,6,7,7,8,8,9,9,10,10,12,12,13,13,14,14],"right_children":[2,4,6,8,10,12,14,16,18,20,22,-1,24,26,28,-1,-1,-1,-1,-1,-1,-1,-1,-1,-1,-1,-1,-1,-1],"split_conditions":[9.558623E-1,4.8E-1,1.3985936E-1,2.4181517E-2,1.299639E-1,4.7E-1,1.5374375E1,4.7E-1,7.81042E-1,7.288236E-1,1.9307318E1,-4.75637E-3,1.2760094E1,1.3504839E1,6.2E-1,-1.01471655E-2,-3.1197115E-3,-6.3558356E-3,-1.506702E-3,-5.2038045E-3,-8.8056707E-4,3.2205603E-4,1.0174096E-2,-1.9587351E-4,4.14729E-3,-0E0,-2.5519256E-3,8.56569E-3,1.4363962E-2],"split_indices":[0,5,4,4,1,5,7,5,0,0,7,0,7,7,6,0,0,0,0,0,0,0,0,0,0,0,0,0,0],"split_type":[0,0,0,0,0,0,0,0,0,0,0,0,0,0,0,0,0,0,0,0,0,0,0,0,0,0,0,0,0],"sum_hessian":[8.85E2,5.65E2,3.2E2,2.41E2,3.24E2,1.49E2,1.71E2,1.46E2,9.5E1,2.27E2,9.7E1,1E1,1.39E2,1E1,1.61E2,1.3E2,1.6E1,6.1E1,3.4E1,8E1,1.47E2,8.4E1,1.3E1,2.1E1,1.18E2,5E0,5E0,1.06E2,5.5E1],"tree_param":{"num_deleted":"0","num_feature":"8","num_nodes":"29","size_leaf_vector":"1"}},{"base_weights":[-1.5791898E-4,-9.058979E-2,9.184224E-2,-1.6288754E-1,-6.031441E-2,2.7261728E-2,1.6934338E-1,-0E0,-1.7649727E-1,-6.754512E-2,7.490246E-3,4.8319746E-2,-7.79403E-2,6.5601245E-2,2.1628317E-1,-6.560641E-3,6.105226E-3,-9.764957E-3,-2.1329203E-3,-4.0477584E-3,-0E0,-6.0961227E-4,4.9894634E-3,-6.847441E-3,-0E0,-1.9723345E-3,4.503577E-3,7.837153E-3,1.5573117E-2],"categories":[],"categories_nodes":[],"categories_segments":[],"categories_sizes":[],"default_left":[0,0,0,0,0,0,0,0,0,0,0,0,0,0,0,0,0,0,0,0,0,0,0,0,0,0,0,0,0],"id":16,"left_children":[1,3,5,7,9,11,13,15,17,19,-1,21,23,25,27,-1,-1,-1,-1,-1,-1,-1,-1,-1,-1,-1,-1,-1,-1],"loss_changes":[7.2791524E0,8.4059644E-1,2.049647E0,2.658534E-1,4.66807E-1,5.266202E-1,7.656503E-1,2.2488421E-1,1.5374756E-1,2.451812E-1,0E0,6.8782353E-1,1.3158107E-1,2.02075E-1,3.936305E-1,0E0,0E0,0E0,0E0,0E0,0E0,0E0,0E0,0E0,0E0,0E0,0E0,0E0,0E0],"parents":[2147483647,0,0,1,1,2,2,3,3,4,4,5,5,6,6,7,7,8,8,9,9,11,11,12,12,13,13,14,14],"right_children":[2,4,6,8,10,12,14,16,18,20,-1,22,24,26,28,-1,-1,-1,-1,-1,-1,-1,-1,-1,-1,-1,-1,-1,-1],"split_conditions":[5.3E-1,6.186406E-1,1.0681406E0,7.448754E-2,2.0116026E1,4.1505536E-1,1.7430513E1,6.591577E-2,4.8E-1,5.2E-1,7.490246E-3,8.314985E-1,4.571446E-1,3.7758577E-1,1.3323104E0,-6.560641E-3,6.105226E-3,-9.764957E-3,-2.1329203E-3,-4.0477584E-3,-0E0,-6.0961227E-4,4.9894634E-3,-6.847441E-3,-0E0,-1.9723345E-3,4.503577E-3,7.837153E-3,1.5573117E-2],"split_indices":[5,0,0,2,7,2,7,2,6,6,0,0,2,2,0,0,0,0,0,0,0,0,0,0,0,0,0,0,0],"split_type":[0,0,0,0,0,0,0,0,0,0,0,0,0,0,0,0,0,0,0,0,0,0,0,0,0,0,0,0,0],"sum_hessian":[8.71E2,4.42E2,4.29E2,1.23E2,3.19E2,2.39E2,1.9E2,1E1,1.13E2,3.12E2,7E0,2.04E2,3.5E1,6.4E1,1.26E2,5E0,5E0,9.5E1,1.8E1,2.54E2,5.8E1,9E1,1.14E2,1.7E1,1.8E1,8E0,5.6E1,8.4E1,4.2E1],"tree_param":{"num_deleted":"0","num_feature":"8","num_nodes":"29","size_leaf_vector":"1"}},{"base_weights":[4.792033E-3,-6.6484846E-2,1.2617643E-1,-1.2596177E-1,-1.1358236E-2,3.286236E-2,2.0497717E-1,-1.3904762E-1,-1.9607116E-2,-6.2702715E-2,3.5404623E-2,4.7332933E-4,1.1916702E-2,-0E0,2.2410636E-1,-0E0,-7.2618695E-3,-2.512108E-3,1.6923345E-3,-0E0,-5.352085E-3,-5.5957106E-3,3.4020413E-3,-3.0845942E-3,1.810184E-3,1.9150762E-3,-4.373618E-3,-0E0,1.1564592E-2],"categories":[],"categories_nodes":[],"categories_segments":[],"categories_sizes":[],"default_left":[0,0,0,0,0,0,0,0,0,0,0,0,0,0,0,0,0,0,0,0,0,0,0,0,0,0,0,0,0],"id":17,"left_children":[1,3,5,7,9,11,13,15,17,19,21,23,-1,25,27,-1,-1,-1,-1,-1,-1,-1,-1,-1,-1,-1,-1,-1,-1],"loss_changes":[7.617037E0,1.7317972E0,2.2721105E0,2.770729E-1,7.1918523E-1,9.1190004E-1,7.250643E-1,1.4631462E-1,6.8913385E-2,3.9237922E-1,7.096739E-1,2.9824635E-1,0E0,6.969696E-2,2.5608063E-1,0E0,0E0,0E0,0E0,0E0,0E0,0E0,0E0,0E0,0E0,0E0,0E0,0E0,0E0],"parents":[2147483647,0,0,1,1,2,2,3,3,4,4,5,5,6,6,7,7,8,8,9,9,10,10,11,11,13,13,14,14],"right_children":[2,4,6,8,10,12,14,16,18,20,22,24,-1,26,28,-1,-1,-1,-1,-1,-1,-1,-1,-1,-1,-1,-1,-1,-1],"split_conditions":[9.558623E-1,7.341695E-1,8.8235295E-1,5.3E-1,8.5714287E-1,1.3775162E0,5.3E-1,8.8984095E-2,1.418919E-1,8.955224E-2,1.2987302E1,4.4949305E-1,1.1916702E-2,1.635514E-1,1.2799531E1,-0E0,-7.2618695E-3,-2.512108E-3,1.6923345E-3,-0E0,-5.352085E-3,-5.5957106E-3,3.4020413E-3,-3.0845942E-3,1.810184E-3,1.9150762E-3,-4.373618E-3,-0E0,1.1564592E-2],"split_indices":[0,0,3,5,3,0,5,2,1,1,7,2,0,1,7,0,0,0,0,0,0,0,0,0,0,0,0,0,0],"split_type":[0,0,0,0,0,0,0,0,0,0,0,0,0,0,0,0,0,0,0,0,0,0,0,0,0,0,0,0,0],"sum_hessian":[8.73E2,5.48E2,3.25E2,2.58E2,2.9E2,1.53E2,1.72E2,2.25E2,3.3E1,1.43E2,1.47E2,1.36E2,1.7E1,1.4E1,1.58E2,1.2E1,2.13E2,2.7E1,6E0,6.1E1,8.2E1,2.3E1,1.24E2,4.4E1,9.2E1,9E0,5E0,5E0,1.53E2],"tree_param":{"num_deleted":"0","num_feature":"8","num_nodes":"29","size_leaf_vector":"1"}},{"base_weights":[-8.9759845E-3,-1.0772365E-1,6.622774E-2,-1.4146389E-1,-3.142168E-2,-7.0191952E-3,1.284133E-1,-0E0,-1.4761229E-1,-1.2780546E-1,-4.030691E-3,-4.0209718E-2,1.4562182E-1,-3.117623E-2,1.4229189E-1,-7.6047815E-3,-6.1760313E-4,-7.3497216E-3,-0E0,2.6291474E-3,-2.9213594E-3,-3.5406116E-3,5.6123565E-4,8.336163E-3,-0E0,-0E0,-5.7437695E-3,6.142747E-3,1.4389788E-2],"categories":[],"categories_nodes":[],"categories_segments":[],"categories_sizes":[],"default_left":[0,0,0,0,0,0,0,0,0,0,0,0,0,0,0,0,0,0,0,0,0,0,0,0,0,0,0,0,0],"id":18,"left_children":[1,3,5,7,9,11,13,-1,15,17,19,21,23,25,27,-1,-1,-1,-1,-1,-1,-1,-1,-1,-1,-1,-1,-1,-1],"loss_changes":[6.6888847E0,9.1127586E-1,2.3718352E0,2.7667284E-1,2.683376E-1,1.129305E0,6.8016577E-1,0E0,6.986809E-2,1.8518269E-2,3.324229E-1,3.3674392E-1,9.026629E-2,8.515975E-2,4.564519E-1,0E0,0E0,0E0,0E0,0E0,0E0,0E0,0E0,0E0,0E0,0E0,0E0,0E0,0E0],"parents":[2147483647,0,0,1,1,2,2,3,3,4,4,5,5,6,6,8,8,9,9,10,10,11,11,12,12,13,13,14,14],"right_children":[2,4,6,8,10,12,14,-1,16,18,20,22,24,26,28,-1,-1,-1,-1,-1,-1,-1,-1,-1,-1,-1,-1,-1,-1],"split_conditions":[8.199227E-1,9.6541196E-2,8.148148E-1,7.448754E-2,6.818182E-1,1.2854319E0,6.139631E-2,-0E0,3.485878E-1,5.3E-1,1.2407541E-1,4.7825083E-1,7.3333335E-1,1.418919E-1,1.3442882E0,-7.6047815E-3,-6.1760313E-4,-7.3497216E-3,-0E0,2.6291474E-3,-2.9213594E-3,-3.5406116E-3,5.6123565E-4,8.336163E-3,-0E0,-0E0,-5.7437695E-3,6.142747E-3,1.4389788E-2],"split_indices":[0,4,3,2,3,0,4,0,2,6,4,2,3,1,0,0,0,0,0,0,0,0,0,0,0,0,0,0,0],"split_type":[0,0,0,0,0,0,0,0,0,0,0,0,0,0,0,0,0,0,0,0,0,0,0,0,0,0,0,0,0],"sum_hessian":[8.94E2,3.89E2,5.05E2,2.64E2,1.25E2,2.29E2,2.76E2,9E0,2.55E2,2.2E1,1.03E2,1.92E2,3.7E1,1.9E1,2.57E2,2.43E2,1.2E1,1.7E1,5E0,4.6E1,5.7E1,1.26E2,6.6E1,3.1E1,6E0,1.3E1,6E0,2.33E2,2.4E1],"tree_param":{"num_deleted":"0","num_feature":"8","num_nodes":"29","size_leaf_vector":"1"}},{"base_weights":[4.646698E-3,-1.1430547E-1,6.918189E-2,-2.0888807E-1,-9.030617E-2,1.2359887E-2,1.5130934E-1,-0E0,-1.1270501E-2,-1.0575288E-1,-3.0746188E-2,-4.704717E-2,5.3272408E-2,7.890282E-2,2.2902238E-1,-0E0,-5.6535206E-3,-3.8511113E-3,4.9916236E-4,-4.258553E-3,-6.4182206E-4,4.3423913E-4,7.102304E-3,1.6838912E-3,1.0032631E-2,2.9601688E-3,1.2916374E-2],"categories":[],"categories_nodes":[],"categories_segments":[],"categories_sizes":[],"default_left":[0,0,0,0,0,0,0,0,0,0,0,0,0,0,0,0,0,0,0,0,0,0,0,0,0,0,0],"id":19,"left_children":[1,3,5,7,9,11,13,-1,-1,15,17,19,21,23,25,-1,-1,-1,-1,-1,-1,-1,-1,-1,-1,-1,-1],"loss_changes":[6.802399E0,5.163493E-1,2.6164129E0,1.5495229E-1,1.5984869E-1,8.539366E-1,1.1209712E0,0E0,0E0,1.8439436E-1,1.5191475E-1,1.287956E-1,7.613072E-1,5.685988E-1,3.4811592E-1,0E0,0E0,0E0,0E0,0E0,0E0,0E0,0E0,0E0,0E0,0E0,0E0],"parents":[2147483647,0,0,1,1,2,2,3,3,4,4,5,5,6,6,9,9,10,10,11,11,12,12,13,13,14,14],"right_children":[2,4,6,8,10,12,14,-1,-1,16,18,20,22,24,26,-1,-1,-1,-1,-1,-1,-1,-1,-1,-1,-1,-1],"split_conditions":[5E-1,4.042619E-3,1.061976E0,2.820513E-1,8.479296E-1,8.4615386E-1,9.25E-1,-0E0,-1.1270501E-2,7.448754E-2,1.5814837E1,1.4663889E1,8.953935E-1,1.3775162E0,5.6E-1,-0E0,-5.6535206E-3,-3.8511113E-3,4.9916236E-4,-4.258553E-3,-6.4182206E-4,4.3423913E-4,7.102304E-3,1.6838912E-3,1.0032631E-2,2.9601688E-3,1.2916374E-2],"split_indices":[5,4,0,3,0,3,3,0,0,2,7,7,0,0,5,0,0,0,0,0,0,0,0,0,0,0,0],"split_type":[0,0,0,0,0,0,0,0,0,0,0,0,0,0,0,0,0,0,0,0,0,0,0,0,0,0,0],"sum_hessian":[8.85E2,3.08E2,5.77E2,5.5E1,2.53E2,3.46E2,2.31E2,5E0,5E1,1.93E2,6E1,1.36E2,2.1E2,1.25E2,1.06E2,1E1,1.83E2,3.3E1,2.7E1,5.6E1,8E1,1.45E2,6.5E1,9.6E1,2.9E1,1.9E1,8.7E1],"tree_param":{"num_deleted":"0","num_feature":"8","num_nodes":"27","size_leaf_vector":"1"}},{"base_weights":[-3.268086E-3,-7.6104164E-2,8.087926E-2,-1.3399106E-1,-2.7245315E-2,-1.0171254E-2,1.2679538E-1,-1.3875747E-1,-0E0,-1.5706442E-1,-1.21059995E-2,-2.7210195E-2,9.321897E-3,9.610944E-2,2.6614994E-1,-0E0,-7.1989256E-3,-9.390142E-3,-0E0,-2.1800662E-3,1.2256288E-3,-4.3395963E-3,-0E0,1.2673227E-3,6.6976226E-3,5.467463E-3,1.5544635E-2],"categories":[],"categories_nodes":[],"categories_segments":[],"categories_sizes":[],"default_left":[0,0,0,0,0,0,0,0,0,0,0,0,0,0,0,0,0,0,0,0,0,0,0,0,0,0,0],"id":20,"left_children":[1,3,5,7,9,11,13,15,-1,17,19,21,-1,23,25,-1,-1,-1,-1,-1,-1,-1,-1,-1,-1,-1,-1],"loss_changes":[5.587279E0,1.3035979E0,1.8167801E0,1.1272383E-1,4.5012406E-1,3.961839E-1,9.778824E-1,1.0417509E-1,0E0,5.3397357E-2,3.011637E-1,2.2617996E-1,0E0,5.5089664E-1,5.1624775E-2,0E0,0E0,0E0,0E0,0E0,0E0,0E0,0E0,0E0,0E0,0E0,0E0],"parents":[2147483647,0,0,1,1,2,2,3,3,4,4,5,5,6,6,7,7,9,9,10,10,11,11,13,13,14,14],"right_children":[2,4,6,8,10,12,14,16,-1,18,20,22,-1,24,26,-1,-1,-1,-1,-1,-1,-1,-1,-1,-1,-1,-1],"split_conditions":[1.1357522E-1,3.3261E-2,8.980603E-1,4.461255E-1,5.6727517E-1,2.1111112E0,1.3775162E0,9.940552E-2,-0E0,9.6541196E-2,8.4E-1,5.3E-1,9.321897E-3,8.4615386E-1,1.596837E-1,-0E0,-7.1989256E-3,-9.390142E-3,-0E0,-2.1800662E-3,1.2256288E-3,-4.3395963E-3,-0E0,1.2673227E-3,6.6976226E-3,5.467463E-3,1.5544635E-2],"split_indices":[4,4,0,2,0,3,0,2,0,4,3,5,0,3,4,0,0,0,0,0,0,0,0,0,0,0,0],"split_type":[0,0,0,0,0,0,0,0,0,0,0,0,0,0,0,0,0,0,0,0,0,0,0,0,0,0,0],"sum_hessian":[9.08E2,4.9E2,4.18E2,2.18E2,2.72E2,1.37E2,2.81E2,2.09E2,9E0,2.3E1,2.49E2,1.3E2,7E0,2.36E2,4.5E1,1E1,1.99E2,1.7E1,6E0,1.41E2,1.08E2,4.1E1,8.9E1,8.8E1,1.48E2,1.4E1,3.1E1],"tree_param":{"num_deleted":"0","num_feature":"8","num_nodes":"27","size_leaf_vector":"1"}},{"base_weights":[-3.8292762E-3,-6.0869087E-2,8.900611E-2,-1.0256333E-1,-1.6358713E-2,2.8510058E-2,1.7043656E-1,-1.22595266E-1,-1.5357602E-2,-8.3661824E-2,-0E0,-4.798798E-2,8.51127E-2,1.1450429E-1,2.5765312E-1,-6.3311676E-3,-0E0,-4.6010097E-3,6.231316E-4,-6.912719E-3,2.0639335E-3,2.290574E-3,-3.3545417E-3,-3.95559E-3,9.1723836E-4,-0E0,4.926963E-3,-0E0,6.264001E-3,5.8406712E-3,1.8983085E-2],"categories":[],"categories_nodes":[],"categories_segments":[],"categories_sizes":[],"default_left":[0,0,0,0,0,0,0,0,0,0,0,0,0,0,0,0,0,0,0,0,0,0,0,0,0,0,0,0,0,0,0],"id":21,"left_children":[1,3,5,7,9,11,13,15,17,19,21,23,25,27,29,-1,-1,-1,-1,-1,-1,-1,-1,-1,-1,-1,-1,-1,-1,-1,-1],"loss_changes":[4.7625484E0,9.8015785E-1,1.5657232E0,4.233775E-1,3.4502792E-1,8.970593E-1,4.427457E-1,1.4670825E-1,1.7003866E-1,4.6915093E-1,6.791234E-1,2.0464197E-1,1.2111783E-1,1.6182268E-1,5.2224565E-1,0E0,0E0,0E0,0E0,0E0,0E0,0E0,0E0,0E0,0E0,0E0,0E0,0E0,0E0,0E0,0E0],"parents":[2147483647,0,0,1,1,2,2,3,3,4,4,5,5,6,6,7,7,8,8,9,9,10,10,11,11,12,12,13,13,14,14],"right_children":[2,4,6,8,10,12,14,16,18,20,22,24,26,28,30,-1,-1,-1,-1,-1,-1,-1,-1,-1,-1,-1,-1,-1,-1,-1,-1],"split_conditions":[9.3403184E-1,7.341695E-1,9.3333334E-1,5.1E-1,1.2799531E1,1.5986667E1,1.9156061E1,1.9255894E1,8.5E-1,8.6717194E-1,3.319198E-1,1.1902941E0,5.1E-1,5.1E-1,4.826057E-1,-6.3311676E-3,-0E0,-4.6010097E-3,6.231316E-4,-6.912719E-3,2.0639335E-3,2.290574E-3,-3.3545417E-3,-3.95559E-3,9.1723836E-4,-0E0,4.926963E-3,-0E0,6.264001E-3,5.8406712E-3,1.8983085E-2],"split_indices":[0,0,3,6,7,7,7,7,3,0,2,0,6,5,2,0,0,0,0,0,0,0,0,0,0,0,0,0,0,0,0],"split_type":[0,0,0,0,0,0,0,0,0,0,0,0,0,0,0,0,0,0,0,0,0,0,0,0,0,0,0,0,0,0,0],"sum_hessian":[8.98E2,5.6E2,3.38E2,2.82E2,2.78E2,1.99E2,1.39E2,2.24E2,5.8E1,5.8E1,2.2E2,8.1E1,1.18E2,9.1E1,4.8E1,2.19E2,5E0,1.9E1,3.9E1,4.3E1,1.5E1,1.35E2,8.5E1,6E1,2.1E1,1.8E1,1E2,5E0,8.6E1,2.6E1,2.2E1],"tree_param":{"num_deleted":"0","num_feature":"8","num_nodes":"31","size_leaf_vector":"1"}},{"base_weights":[7.4184467E-3,-4.7087364E-2,9.754033E-2,-8.525644E-2,8.226031E-3,3.5008684E-2,1.623717E-1,-9.39599E-2,-0E0,-8.172856E-3,6.7895696E-2,1.1331466E-2,1.7081864E-1,1.13816E-1,2.4421008E-1,-6.1998307E-3,-2.9417397E-3,-3.1319354E-3,3.244208E-3,1.2506003E-3,-3.8259798E-3,-0E0,6.701778E-3,-2.8600658E-3,1.3584106E-3,-0E0,1.058504E-2,6.779324E-3,-2.8678782E-3,-0E0,1.37008745E-2],"categories":[],"categories_nodes":[],"categories_segments":[],"categories_sizes":[],"default_left":[0,0,0,0,0,0,0,0,0,0,0,0,0,0,0,0,0,0,0,0,0,0,0,0,0,0,0,0,0,0,0],"id":22,"left_children":[1,3,5,7,9,11,13,15,17,19,21,23,25,27,29,-1,-1,-1,-1,-1,-1,-1,-1,-1,-1,-1,-1,-1,-1,-1,-1],"loss_changes":[4.347294E0,1.1905553E0,1.2480357E0,2.1144676E-1,2.4526626E-1,4.742153E-1,4.011922E-1,2.0417619E-1,1.5367863E-1,4.083505E-1,2.5410432E-1,1.57404E-1,9.077561E-2,4.571334E-1,4.5871115E-1,0E0,0E0,0E0,0E0,0E0,0E0,0E0,0E0,0E0,0E0,0E0,0E0,0E0,0E0,0E0,0E0],"parents":[2147483647,0,0,1,1,2,2,3,3,4,4,5,5,6,6,7,7,8,8,9,9,10,10,11,11,12,12,13,13,14,14],"right_children":[2,4,6,8,10,12,14,16,18,20,22,24,26,28,30,-1,-1,-1,-1,-1,-1,-1,-1,-1,-1,-1,-1,-1,-1,-1,-1],"split_conditions":[9.398576E-1,9.4367005E-2,8.8235295E-1,1.4814815E-1,1.497361E-1,1.3895448E0,1.195018E0,1.6648956E-2,4.8E-1,1.7472E1,1.1965812E-1,1.2987302E1,1.7699568E1,1.8181661E-1,1.6960127E1,-6.1998307E-3,-2.9417397E-3,-3.1319354E-3,3.244208E-3,1.2506003E-3,-3.8259798E-3,-0E0,6.701778E-3,-2.8600658E-3,1.3584106E-3,-0E0,1.058504E-2,6.779324E-3,-2.8678782E-3,-0E0,1.37008745E-2],"split_indices":[0,4,3,1,4,0,0,4,5,7,1,7,7,4,7,0,0,0,0,0,0,0,0,0,0,0,0,0,0,0,0],"split_type":[0,0,0,0,0,0,0,0,0,0,0,0,0,0,0,0,0,0,0,0,0,0,0,0,0,0,0,0,0,0,0],"sum_hessian":[8.76E2,5.43E2,3.33E2,3.26E2,2.17E2,1.75E2,1.58E2,2.92E2,3.4E1,1.65E2,5.2E1,1.54E2,2.1E1,1.06E2,5.2E1,1.47E2,1.45E2,2E1,1.4E1,1.07E2,5.8E1,2.6E1,2.6E1,2.2E1,1.32E2,6E0,1.5E1,9.7E1,9E0,5E0,4.7E1],"tree_param":{"num_deleted":"0","num_feature":"8","num_nodes":"31","size_leaf_vector":"1"}},{"base_weights":[3.8909377E-3,-5.4684676E-2,7.890877E-2,-8.321066E-2,-3.2835626E-3,5.988635E-2,2.3651849E-1,-1.6239612E-1,-6.5557286E-2,-6.0757212E-2,2.1598319E-2,3.1723265E-2,1.3650008E-1,2.5515395E-1,2.1679145E-4,-0E0,-9.071695E-3,-3.996051E-3,-0E0,1.4411724E-3,-4.0770816E-3,7.1736234E-3,-0E0,-1.0849931E-3,3.1468847E-3,-0E0,9.559403E-3,4.4454457E-3,1.5621008E-2],"categories":[],"categories_nodes":[],"categories_segments":[],"categories_sizes":[],"default_left":[0,0,0,0,0,0,0,0,0,0,0,0,0,0,0,0,0,0,0,0,0,0,0,0,0,0,0,0,0],"id":23,"left_children":[1,3,5,7,9,11,13,15,17,19,21,23,25,27,-1,-1,-1,-1,-1,-1,-1,-1,-1,-1,-1,-1,-1,-1,-1],"loss_changes":[4.0238724E0,7.025366E-1,1.0347092E0,3.1345367E-1,2.9391393E-1,6.969383E-1,4.111576E-2,1.4286995E-1,2.852403E-1,1.5022013E-1,3.3139223E-1,4.8193276E-1,6.4313614E-1,7.698941E-2,0E0,0E0,0E0,0E0,0E0,0E0,0E0,0E0,0E0,0E0,0E0,0E0,0E0,0E0,0E0],"parents":[2147483647,0,0,1,1,2,2,3,3,4,4,5,5,6,6,7,7,8,8,9,9,10,10,11,11,12,12,13,13],"right_children":[2,4,6,8,10,12,14,16,18,20,22,24,26,28,-1,-1,-1,-1,-1,-1,-1,-1,-1,-1,-1,-1,-1,-1,-1],"split_conditions":[1.1542019E-1,8.3641833E-1,1.3775162E0,5.4390305E-1,5E-1,1.2727273E0,1.9059725E-1,7.448754E-2,9.6541196E-2,4.1666666E-1,8.748724E-1,8.997173E-1,8.3641833E-1,1.596837E-1,2.1679145E-4,-0E0,-9.071695E-3,-3.996051E-3,-0E0,1.4411724E-3,-4.0770816E-3,7.1736234E-3,-0E0,-1.0849931E-3,3.1468847E-3,-0E0,9.559403E-3,4.4454457E-3,1.5621008E-2],"split_indices":[4,0,0,0,5,3,4,2,4,3,0,0,0,4,0,0,0,0,0,0,0,0,0,0,0,0,0,0,0],"split_type":[0,0,0,0,0,0,0,0,0,0,0,0,0,0,0,0,0,0,0,0,0,0,0,0,0,0,0,0,0],"sum_hessian":[9.09E2,5.07E2,4.02E2,3.19E2,1.88E2,3.64E2,3.8E1,5E1,2.69E2,6.2E1,1.26E2,2.73E2,9.1E1,3.3E1,5E0,6E0,4.4E1,2.25E2,4.4E1,7E0,5.5E1,1.7E1,1.09E2,9.5E1,1.78E2,2.8E1,6.3E1,1.2E1,2.1E1],"tree_param":{"num_deleted":"0","num_feature":"8","num_nodes":"29","size_leaf_vector":"1"}},{"base_weights":[6.6566686E-3,-4.336538E-2,9.5269494E-2,-7.474147E-2,7.762541E-3,4.5336887E-2,1.6944343E-1,-1.2362406E-1,-5.053838E-2,-7.0907414E-2,3.1111374E-2,7.629432E-3,1.0181529E-1,2.7212265E-1,1.0567232E-1,-6.7246626E-3,-0E0,-6.265147E-3,-1.9613735E-3,-0E0,-6.400972E-3,-0E0,4.1003893E-3,-2.6275588E-3,1.655029E-3,7.048625E-3,-0E0,1.5042217E-2,1.9008644E-3,-0E0,7.5467094E-3],"categories":[],"categories_nodes":[],"categories_segments":[],"categories_sizes":[],"default_left":[0,0,0,0,0,0,0,0,0,0,0,0,0,0,0,0,0,0,0,0,0,0,0,0,0,0,0,0,0,0,0],"id":24,"left_children":[1,3,5,7,9,11,13,15,17,19,21,23,25,27,29,-1,-1,-1,-1,-1,-1,-1,-1,-1,-1,-1,-1,-1,-1,-1,-1],"loss_changes":[3.9747922E0,9.426236E-1,1.0809476E0,3.2279336E-1,3.720897E-1,3.7178504E-1,5.786345E-1,1.0963476E-1,1.184724E-1,2.3766547E-1,2.5338912E-1,1.8996091E-1,2.3605901E-1,1.0354662E-1,4.5165122E-1,0E0,0E0,0E0,0E0,0E0,0E0,0E0,0E0,0E0,0E0,0E0,0E0,0E0,0E0,0E0,0E0],"parents":[2147483647,0,0,1,1,2,2,3,3,4,4,5,5,6,6,7,7,8,8,9,9,10,10,11,11,12,12,13,13,14,14],"right_children":[2,4,6,8,10,12,14,16,18,20,22,24,26,28,30,-1,-1,-1,-1,-1,-1,-1,-1,-1,-1,-1,-1,-1,-1,-1,-1],"split_conditions":[9.558623E-1,9.953801E-2,9.756098E-1,6.186406E-1,7.222222E-1,1.2147108E0,1.3475177E-1,8.3766095E-2,4.1E-1,8.163265E-2,1.3197969E-1,9.0545684E-2,1.6874978E-1,1.8293339E-1,5.6E-1,-6.7246626E-3,-0E0,-6.265147E-3,-1.9613735E-3,-0E0,-6.400972E-3,-0E0,4.1003893E-3,-2.6275588E-3,1.655029E-3,7.048625E-3,-0E0,1.5042217E-2,1.9008644E-3,-0E0,7.5467094E-3],"split_indices":[0,4,3,0,3,0,1,4,5,1,1,4,4,4,6,0,0,0,0,0,0,0,0,0,0,0,0,0,0,0,0],"split_type":[0,0,0,0,0,0,0,0,0,0,0,0,0,0,0,0,0,0,0,0,0,0,0,0,0,0,0,0,0,0,0],"sum_hessian":[8.87E2,5.64E2,3.23E2,3.55E2,2.09E2,1.99E2,1.24E2,1.08E2,2.47E2,4.2E1,1.67E2,1.26E2,7.3E1,4.2E1,8.2E1,9.7E1,1.1E1,2.4E1,2.23E2,1.6E1,2.6E1,1.07E2,6E1,3.1E1,9.5E1,4.9E1,2.4E1,3.5E1,7E0,2.3E1,5.9E1],"tree_param":{"num_deleted":"0","num_feature":"8","num_nodes":"31","size_leaf_vector":"1"}},{"base_weights":[-5.497536E-3,-6.737931E-2,5.557974E-2,-9.6959665E-2,-2.9743731E-2,-2.6202803E-3,9.6379906E-2,-1.0206963E-1,9.359006E-4,-8.7659895E-2,-0E0,-4.8544426E-2,1.0328825E-1,-4.6036113E-3,1.2989986E-1,-4.2361706E-3,-7.0676166E-3,1.7209325E-3,-5.6708828E-3,-7.847193E-4,3.9581857E-3,2.6011108E-3,-3.322367E-3,7.0248144E-3,-0E0,2.8599629E-3,-4.042078E-3,4.320975E-3,1.02161E-2],"categories":[],"categories_nodes":[],"categories_segments":[],"categories_sizes":[],"default_left":[0,0,0,0,0,0,0,0,0,0,0,0,0,0,0,0,0,0,0,0,0,0,0,0,0,0,0,0,0],"id":25,"left_children":[1,3,5,7,9,11,13,15,-1,17,19,21,23,25,27,-1,-1,-1,-1,-1,-1,-1,-1,-1,-1,-1,-1,-1,-1],"loss_changes":[3.4452393E0,4.385333E-1,1.1254399E0,1.915009E-1,3.3585995E-1,8.7758785E-1,9.845543E-1,2.722931E-2,0E0,2.611308E-1,1.626403E-1,2.5358403E-1,1.8466133E-1,3.3204308E-1,4.923818E-1,0E0,0E0,0E0,0E0,0E0,0E0,0E0,0E0,0E0,0E0,0E0,0E0,0E0,0E0],"parents":[2147483647,0,0,1,1,2,2,3,3,4,4,5,5,6,6,7,7,9,9,10,10,11,11,12,12,13,13,14,14],"right_children":[2,4,6,8,10,12,14,16,-1,18,20,22,24,26,28,-1,-1,-1,-1,-1,-1,-1,-1,-1,-1,-1,-1,-1,-1],"split_conditions":[5.3E-1,7.341695E-1,8.5E-1,1.8620689E-1,4.7E-1,1.2308311E0,8.314985E-1,1.2307692E-1,9.359006E-4,4.1666666E-1,1.784065E1,5.2E-1,7.222222E-1,1.173913E0,1.2727273E0,-4.2361706E-3,-7.0676166E-3,1.7209325E-3,-5.6708828E-3,-7.847193E-4,3.9581857E-3,2.6011108E-3,-3.322367E-3,7.0248144E-3,-0E0,2.8599629E-3,-4.042078E-3,4.320975E-3,1.02161E-2],"split_indices":[5,0,3,1,5,0,0,1,0,3,7,6,3,3,3,0,0,0,0,0,0,0,0,0,0,0,0,0,0],"split_type":[0,0,0,0,0,0,0,0,0,0,0,0,0,0,0,0,0,0,0,0,0,0,0,0,0,0,0,0,0],"sum_hessian":[9.06E2,4.54E2,4.52E2,2.45E2,2.09E2,1.82E2,2.7E2,2.39E2,6E0,6.6E1,1.43E2,1.31E2,5.1E1,6.4E1,2.06E2,1.79E2,6E1,8E0,5.8E1,1.24E2,1.9E1,1.5E1,1.16E2,3.6E1,1.5E1,3.2E1,3.2E1,1.37E2,6.9E1],"tree_param":{"num_deleted":"0","num_feature":"8","num_nodes":"29","size_leaf_vector":"1"}},{"base_weights":[4.2830775E-3,-6.004767E-2,7.508319E-2,-8.484267E-2,-2.8658737E-3,1.8489202E-2,1.4067084E-1,-0E0,-8.828175E-2,-2.3615893E-2,9.642058E-3,4.9910597E-3,1.349247E-2,8.844906E-2,2.1147119E-1,-4.79134E-3,-4.9422367E-4,-2.9380114E-3,3.2102873E-4,1.0985442E-3,-3.3506423E-3,9.431985E-3,2.2972801E-3,6.3338126E-3,1.44639015E-2],"categories":[],"categories_nodes":[],"categories_segments":[],"categories_sizes":[],"default_left":[0,0,0,0,0,0,0,0,0,0,0,0,0,0,0,0,0,0,0,0,0,0,0,0,0],"id":26,"left_children":[1,3,5,7,9,11,13,-1,15,17,-1,19,-1,21,23,-1,-1,-1,-1,-1,-1,-1,-1,-1,-1],"loss_changes":[4.0291586E0,6.0643995E-1,1.4890492E0,1.323967E-1,5.214515E-1,6.5382373E-1,5.225165E-1,0E0,1.2684393E-1,1.7154318E-1,0E0,2.5673434E-1,0E0,3.6786997E-1,2.2015333E-1,0E0,0E0,0E0,0E0,0E0,0E0,0E0,0E0,0E0,0E0],"parents":[2147483647,0,0,1,1,2,2,3,3,4,4,5,5,6,6,8,8,9,9,11,11,13,13,14,14],"right_children":[2,4,6,8,10,12,14,-1,16,18,-1,20,-1,22,24,-1,-1,-1,-1,-1,-1,-1,-1,-1,-1],"split_conditions":[1.0949965E-1,8.479296E-1,1.0681406E0,7.448754E-2,1.1333333E0,2.1111112E0,6.1E-1,-0E0,9.6541196E-2,5.3E-1,9.642058E-3,4.139849E-1,1.349247E-2,4.5546812E-1,1.3442882E0,-4.79134E-3,-4.9422367E-4,-2.9380114E-3,3.2102873E-4,1.0985442E-3,-3.3506423E-3,9.431985E-3,2.2972801E-3,6.3338126E-3,1.44639015E-2],"split_indices":[4,0,0,2,3,3,6,0,4,6,0,2,0,2,0,0,0,0,0,0,0,0,0,0,0],"split_type":[0,0,0,0,0,0,0,0,0,0,0,0,0,0,0,0,0,0,0,0,0,0,0,0,0],"sum_hessian":[8.79E2,4.57E2,4.22E2,3.12E2,1.45E2,2.32E2,1.9E2,7E0,3.05E2,1.35E2,1E1,2.24E2,8E0,1.16E2,7.4E1,2.72E2,3.3E1,6.9E1,6.6E1,1.88E2,3.6E1,2.9E1,8.7E1,4.1E1,3.3E1],"tree_param":{"num_deleted":"0","num_feature":"8","num_nodes":"25","size_leaf_vector":"1"}},{"base_weights":[9.154754E-5,-3.2296903E-2,9.8170586E-2,-7.748443E-2,-1.3070492E-3,-1.7650455E-2,1.3808653E-1,-1.2367355E-1,-4.9931794E-2,-2.319199E-2,9.1636725E-2,3.085247E-3,-4.5517296E-2,9.790311E-2,2.0576389E-1,-0E0,-6.8588033E-3,3.583959E-3,-3.5148028E-3,1.5919684E-3,-1.6579034E-3,-0E0,8.21276E-3,-5.7143625E-3,-0E0,5.806494E-3,-0E0,6.451528E-3,1.4478641E-2],"categories":[],"categories_nodes":[],"categories_segments":[],"categories_sizes":[],"default_left":[0,0,0,0,0,0,0,0,0,0,0,0,0,0,0,0,0,0,0,0,0,0,0,0,0,0,0,0,0],"id":27,"left_children":[1,3,5,7,9,11,13,15,17,19,21,-1,23,25,27,-1,-1,-1,-1,-1,-1,-1,-1,-1,-1,-1,-1,-1,-1],"loss_changes":[2.9014196E0,9.056411E-1,1.1191609E0,2.4191225E-1,8.019624E-1,1.23572364E-1,2.7835107E-1,1.923145E-1,4.502061E-1,1.8759738E-1,4.308117E-1,0E0,1.879071E-1,2.2716773E-1,8.8965416E-2,0E0,0E0,0E0,0E0,0E0,0E0,0E0,0E0,0E0,0E0,0E0,0E0,0E0,0E0],"parents":[2147483647,0,0,1,1,2,2,3,3,4,4,5,5,6,6,7,7,8,8,9,9,10,10,12,12,13,13,14,14],"right_children":[2,4,6,8,10,12,14,16,18,20,22,-1,24,26,28,-1,-1,-1,-1,-1,-1,-1,-1,-1,-1,-1,-1,-1,-1],"split_conditions":[1.061976E0,4.8E-1,1.654126E1,6.028903E-1,1.32E0,1.1045619E0,6.2E-1,7.448754E-2,1.8802929E-1,7.3076926E-2,8.3641833E-1,3.085247E-3,1.195018E0,1.6666667E-1,2.0086788E1,-0E0,-6.8588033E-3,3.583959E-3,-3.5148028E-3,1.5919684E-3,-1.6579034E-3,-0E0,8.21276E-3,-5.7143625E-3,-0E0,5.806494E-3,-0E0,6.451528E-3,1.4478641E-2],"split_indices":[0,6,7,0,3,0,6,2,2,1,0,0,0,1,7,0,0,0,0,0,0,0,0,0,0,0,0,0,0],"split_type":[0,0,0,0,0,0,0,0,0,0,0,0,0,0,0,0,0,0,0,0,0,0,0,0,0,0,0,0,0],"sum_hessian":[8.99E2,6.73E2,2.26E2,2.66E2,4.07E2,5.5E1,1.71E2,9E1,1.76E2,3.35E2,7.2E1,9E0,4.6E1,1.15E2,5.6E1,7E0,8.3E1,2.1E1,1.55E2,4.3E1,2.92E2,3.5E1,3.7E1,2E1,2.6E1,9.8E1,1.7E1,3.5E1,2.1E1],"tree_param":{"num_deleted":"0","num_feature":"8","num_nodes":"29","size_leaf_vector":"1"}},{"base_weights":[1.0242573E-3,-6.065603E-2,5.4068413E-2,-8.0143616E-2,9.306204E-3,-1.9336978E-2,7.880752E-2,-1.9160237E-2,-9.07292E-2,-8.360415E-2,6.7675814E-2,-0E0,-8.012113E-3,3.3335265E-2,1.2188947E-1,-3.0618717E-3,1.7497356E-3,-4.8255594E-3,-0E0,-5.6698467E-3,-0E0,-0E0,4.8637902E-3,-1.5751154E-3,2.4014078E-3,3.5174642E-4,8.720001E-3,3.4483615E-3,8.386178E-3],"categories":[],"categories_nodes":[],"categories_segments":[],"categories_sizes":[],"default_left":[0,0,0,0,0,0,0,0,0,0,0,0,0,0,0,0,0,0,0,0,0,0,0,0,0,0,0,0,0],"id":28,"left_children":[1,3,5,7,9,11,13,15,17,19,21,23,-1,25,27,-1,-1,-1,-1,-1,-1,-1,-1,-1,-1,-1,-1,-1,-1],"loss_changes":[2.879159E0,5.8635867E-1,9.008231E-1,1.4879823E-1,4.5889565E-1,3.927704E-1,6.253903E-1,1.4729257E-1,1.2963223E-1,1.11781985E-1,9.3634605E-2,1.6498162E-1,0E0,5.9318805E-1,2.9513526E-1,0E0,0E0,0E0,0E0,0E0,0E0,0E0,0E0,0E0,0E0,0E0,0E0,0E0,0E0],"parents":[2147483647,0,0,1,1,2,2,3,3,4,4,5,5,6,6,7,7,8,8,9,9,10,10,11,11,13,13,14,14],"right_children":[2,4,6,8,10,12,14,16,18,20,22,24,-1,26,28,-1,-1,-1,-1,-1,-1,-1,-1,-1,-1,-1,-1,-1,-1],"split_conditions":[5.2E-1,1.0949965E-1,1.4933333E1,1.5495713E-1,7.187592E-1,1.413067E-1,9.444444E-1,1.3618824E-1,1.7241442E1,1.8856098E1,8.4E-1,1.2760094E1,-8.012113E-3,1.3775162E0,1.061976E0,-3.0618717E-3,1.7497356E-3,-4.8255594E-3,-0E0,-5.6698467E-3,-0E0,-0E0,4.8637902E-3,-1.5751154E-3,2.4014078E-3,3.5174642E-4,8.720001E-3,3.4483615E-3,8.386178E-3],"split_indices":[6,4,7,2,0,4,3,2,7,7,3,7,0,0,0,0,0,0,0,0,0,0,0,0,0,0,0,0,0],"split_type":[0,0,0,0,0,0,0,0,0,0,0,0,0,0,0,0,0,0,0,0,0,0,0,0,0,0,0,0,0],"sum_hessian":[8.77E2,4.01E2,4.76E2,3.19E2,8.2E1,1.15E2,3.61E2,5.5E1,2.64E2,2.8E1,5.4E1,1E2,1.5E1,1.83E2,1.78E2,3.6E1,1.9E1,2.47E2,1.7E1,2.3E1,5E0,1.9E1,3.5E1,5.5E1,4.5E1,1.59E2,2.4E1,9E1,8.8E1],"tree_param":{"num_deleted":"0","num_feature":"8","num_nodes":"29","size_leaf_vector":"1"}},{"base_weights":[-6.9522817E-4,-5.0148044E-2,4.709269E-2,-7.7547215E-2,-6.4753923E-3,-0E0,8.7143496E-2,-1.3467176E-1,-6.428526E-2,-1.7363938E-2,6.6051334E-3,1.919978E-2,-6.290541E-2,-3.2838218E-2,1.0357308E-1,-7.875957E-3,-0E0,-4.758476E-3,-2.019126E-3,1.2374039E-4,-5.1697916E-3,1.7650257E-3,-4.9937842E-3,-5.9809308E-3,-0E0,-0E0,-4.659094E-3,2.9720028E-3,6.7044967E-3],"categories":[],"categories_nodes":[],"categories_segments":[],"categories_sizes":[],"default_left":[0,0,0,0,0,0,0,0,0,0,0,0,0,0,0,0,0,0,0,0,0,0,0,0,0,0,0,0,0],"id":29,"left_children":[1,3,5,7,9,11,13,15,17,19,-1,21,23,25,27,-1,-1,-1,-1,-1,-1,-1,-1,-1,-1,-1,-1,-1,-1],"loss_changes":[2.1071777E0,4.870757E-1,8.44206E-1,8.3966255E-2,2.1882269E-1,2.532471E-1,5.1921225E-1,1.4964616E-1,9.137505E-2,3.4453586E-1,0E0,2.834333E-1,1.6381788E-1,6.639607E-2,1.7954993E-1,0E0,0E0,0E0,0E0,0E0,0E0,0E0,0E0,0E0,0E0,0E0,0E0,0E0,0E0],"parents":[2147483647,0,0,1,1,2,2,3,3,4,4,5,5,6,6,7,7,8,8,9,9,11,11,12,12,13,13,14,14],"right_children":[2,4,6,8,10,12,14,16,18,20,-1,22,24,26,28,-1,-1,-1,-1,-1,-1,-1,-1,-1,-1,-1,-1,-1,-1],"split_conditions":[5.3E-1,7.088675E-2,1.7096104E1,4E-1,2.0116026E1,1.4620462E-1,2.7857345E-1,1.4884259E1,1.2018182E1,1.2939365E-1,6.6051334E-3,6.1E-1,5.8E-1,2.4436073E-1,9.756098E-1,-7.875957E-3,-0E0,-4.758476E-3,-2.019126E-3,1.2374039E-4,-5.1697916E-3,1.7650257E-3,-4.9937842E-3,-5.9809308E-3,-0E0,-0E0,-4.659094E-3,2.9720028E-3,6.7044967E-3],"split_indices":[5,4,7,5,7,4,2,7,7,4,0,5,6,2,3,0,0,0,0,0,0,0,0,0,0,0,0,0,0],"split_type":[0,0,0,0,0,0,0,0,0,0,0,0,0,0,0,0,0,0,0,0,0,0,0,0,0,0,0,0,0],"sum_hessian":[8.87E2,4.41E2,4.46E2,2.63E2,1.78E2,2.06E2,2.4E2,3.9E1,2.24E2,1.7E2,8E0,1.59E2,4.7E1,2.5E1,2.15E2,3.4E1,5E0,8.6E1,1.38E2,1.35E2,3.5E1,1.45E2,1.4E1,2.3E1,2.4E1,1.6E1,9E0,9.7E1,1.18E2],"tree_param":{"num_deleted":"0","num_feature":"8","num_nodes":"29","size_leaf_vector":"1"}},{"base_weights":[-2.2904102E-3,-5.012468E-2,4.5075513E-2,-1.0887925E-1,-2.539437E-2,1.5456148E-2,1.1999917E-1,-5.4891072E-2,-7.0231273E-3,7.018658E-2,-3.4417905E-2,-5.291937E-2,5.55937E-2,6.385928E-2,1.7015597E-1,-4.630531E-3,3.625691E-4,-0E0,5.0884574E-3,-2.838106E-3,-4.1779046E-4,2.4019629E-3,-3.1873335E-3,-0E0,4.080526E-3,3.927814E-3,-0E0,9.582627E-3,-0E0],"categories":[],"categories_nodes":[],"categories_segments":[],"categories_sizes":[],"default_left":[0,0,0,0,0,0,0,0,0,0,0,0,0,0,0,0,0,0,0,0,0,0,0,0,0,0,0,0,0],"id":30,"left_children":[1,3,5,7,9,11,13,15,-1,17,19,21,23,25,27,-1,-1,-1,-1,-1,-1,-1,-1,-1,-1,-1,-1,-1,-1],"loss_changes":[2.032592E0,5.826447E-1,9.161029E-1,1.03453755E-1,2.6811478E-1,9.01904E-1,2.0197177E-1,1.752859E-1,0E0,3.7126683E-2,1.4352292E-1,1.4187217E-1,2.803095E-1,9.902373E-2,1.2052667E-1,0E0,0E0,0E0,0E0,0E0,0E0,0E0,0E0,0E0,0E0,0E0,0E0,0E0,0E0],"parents":[2147483647,0,0,1,1,2,2,3,3,4,4,5,5,6,6,7,7,9,9,10,10,11,11,12,12,13,13,14,14],"right_children":[2,4,6,8,10,12,14,16,-1,18,20,22,24,26,28,-1,-1,-1,-1,-1,-1,-1,-1,-1,-1,-1,-1,-1,-1],"split_conditions":[5.3E-1,6.186406E-1,1.195018E0,1.5495713E-1,6.3576484E-1,8.5E-1,8.888889E-1,1.3618824E-1,-7.0231273E-3,6.2648183E-1,7.714286E-1,5E-1,8.4557456E-1,6.4E-1,6.5E-1,-4.630531E-3,3.625691E-4,-0E0,5.0884574E-3,-2.838106E-3,-4.1779046E-4,2.4019629E-3,-3.1873335E-3,-0E0,4.080526E-3,3.927814E-3,-0E0,9.582627E-3,-0E0],"split_indices":[5,0,0,2,0,3,3,2,0,0,3,6,0,5,6,0,0,0,0,0,0,0,0,0,0,0,0,0,0],"split_type":[0,0,0,0,0,0,0,0,0,0,0,0,0,0,0,0,0,0,0,0,0,0,0,0,0,0,0,0,0],"sum_hessian":[8.92E2,4.49E2,4.43E2,1.25E2,3.24E2,3.24E2,1.19E2,5.4E1,7.1E1,2.2E1,3.02E2,1.15E2,2.09E2,6.3E1,5.6E1,3.8E1,1.6E1,9E0,1.3E1,1.51E2,1.51E2,6E0,1.09E2,7.1E1,1.38E2,5.7E1,6E0,4.7E1,9E0],"tree_param":{"num_deleted":"0","num_feature":"8","num_nodes":"29","size_leaf_vector":"1"}},{"base_weights":[1.1104214E-3,-3.6894415E-2,5.3499773E-2,-5.714683E-2,1.0808184E-2,-1.2756131E-2,7.171083E-2,3.5165373E-2,-6.1808154E-2,-1.440581E-2,1.3337684E-1,-3.899304E-2,7.891424E-2,-6.407317E-3,8.455697E-2,-9.7382365E-4,6.2702806E-3,-5.5697584E-3,-2.2048827E-3,-1.8707433E-3,4.084093E-3,1.0211057E-2,-6.940941E-4,-0E0,-5.029452E-3,7.4572833E-3,-0E0,-7.1520754E-3,2.572833E-3,1.5080608E-2,3.731142E-3],"categories":[],"categories_nodes":[],"categories_segments":[],"categories_sizes":[],"default_left":[0,0,0,0,0,0,0,0,0,0,0,0,0,0,0,0,0,0,0,0,0,0,0,0,0,0,0,0,0,0,0],"id":31,"left_children":[1,3,5,7,9,11,13,15,17,19,21,23,25,27,29,-1,-1,-1,-1,-1,-1,-1,-1,-1,-1,-1,-1,-1,-1,-1,-1],"loss_changes":[1.8101673E0,5.2580684E-1,4.9705064E-1,1.777389E-1,5.2380466E-1,1.7620024E-1,3.50245E-1,1.26882E-1,2.28585E-1,2.5370693E-1,4.0338045E-1,2.0167398E-1,9.077104E-2,3.7676117E-1,3.5121322E-1,0E0,0E0,0E0,0E0,0E0,0E0,0E0,0E0,0E0,0E0,0E0,0E0,0E0,0E0,0E0,0E0],"parents":[2147483647,0,0,1,1,2,2,3,3,4,4,5,5,6,6,7,7,8,8,9,9,10,10,11,11,12,12,13,13,14,14],"right_children":[2,4,6,8,10,12,14,16,18,20,22,24,26,28,30,-1,-1,-1,-1,-1,-1,-1,-1,-1,-1,-1,-1,-1,-1,-1,-1],"split_conditions":[1.1542019E-1,8.848207E-1,7E-1,7.448754E-2,1.0344827E0,1.3690803E0,2.2770093E-1,7.177033E-2,5.844204E-1,1.195018E0,1.0387584E-1,1.1320755E-1,1.4252361E0,5.4E-1,2.4671836E-1,-9.7382365E-4,6.2702806E-3,-5.5697584E-3,-2.2048827E-3,-1.8707433E-3,4.084093E-3,1.0211057E-2,-6.940941E-4,-0E0,-5.029452E-3,7.4572833E-3,-0E0,-7.1520754E-3,2.572833E-3,1.5080608E-2,3.731142E-3],"split_indices":[4,0,3,2,3,0,2,1,0,0,4,1,0,5,2,0,0,0,0,0,0,0,0,0,0,0,0,0,0,0,0],"split_type":[0,0,0,0,0,0,0,0,0,0,0,0,0,0,0,0,0,0,0,0,0,0,0,0,0,0,0,0,0,0,0],"sum_hessian":[9.01E2,5.17E2,3.84E2,3.7E2,1.47E2,7.7E1,3.07E2,1.2E1,3.58E2,1.2E2,2.7E1,6.5E1,1.2E1,3.8E1,2.69E2,5E0,7E0,8.4E1,2.74E2,1.02E2,1.8E1,2E1,7E0,3.7E1,2.8E1,6E0,6E0,1.3E1,2.5E1,7E0,2.62E2],"tree_param":{"num_deleted":"0","num_feature":"8","num_nodes":"31","size_leaf_vector":"1"}},{"base_weights":[5.234464E-4,-4.188791E-2,5.6502588E-2,-1.16245374E-1,-2.8781394E-2,2.0951504E-2,9.335922E-2,-0E0,-1.328942E-1,-5.5181682E-2,-9.094649E-3,-2.0695837E-2,5.3530283E-2,5.0282028E-2,1.3259257E-1,-1.0872199E-2,-4.5691635E-3,8.842285E-4,-3.2679476E-3,-1.388312E-3,2.3334888E-3,1.2720086E-3,-3.748633E-3,5.486186E-3,-0E0,3.2312989E-3,-0E0,3.8435683E-3,1.101931E-2],"categories":[],"categories_nodes":[],"categories_segments":[],"categories_sizes":[],"default_left":[0,0,0,0,0,0,0,0,0,0,0,0,0,0,0,0,0,0,0,0,0,0,0,0,0,0,0,0,0],"id":32,"left_children":[1,3,5,7,9,11,13,-1,15,17,19,21,23,25,27,-1,-1,-1,-1,-1,-1,-1,-1,-1,-1,-1,-1,-1,-1],"loss_changes":[2.1274097E0,4.1100258E-1,4.4994676E-1,1.6257763E-1,1.9346291E-1,3.0085137E-1,2.0620024E-1,0E0,2.3448706E-2,1.5592533E-1,2.6697826E-1,2.4393485E-1,4.151939E-1,8.0524966E-2,2.5287342E-1,0E0,0E0,0E0,0E0,0E0,0E0,0E0,0E0,0E0,0E0,0E0,0E0,0E0,0E0],"parents":[2147483647,0,0,1,1,2,2,3,3,4,4,5,5,6,6,8,8,9,9,10,10,11,11,12,12,13,13,14,14],"right_children":[2,4,6,8,10,12,14,-1,16,18,20,22,24,26,28,-1,-1,-1,-1,-1,-1,-1,-1,-1,-1,-1,-1,-1,-1],"split_conditions":[1.1542019E-1,4.042619E-3,1.8185232E1,3.5E-1,4.7E-1,8.5E-1,1.0526316E0,-0E0,5.7894737E-1,4.8827403E-3,1.0344827E0,1.14285715E-1,1.1428572E0,1.738779E-1,6.2E-1,-1.0872199E-2,-4.5691635E-3,8.842285E-4,-3.2679476E-3,-1.388312E-3,2.3334888E-3,1.2720086E-3,-3.748633E-3,5.486186E-3,-0E0,3.2312989E-3,-0E0,3.8435683E-3,1.101931E-2],"split_indices":[4,4,7,3,6,3,3,0,3,4,3,1,3,4,6,0,0,0,0,0,0,0,0,0,0,0,0,0,0],"split_type":[0,0,0,0,0,0,0,0,0,0,0,0,0,0,0,0,0,0,0,0,0,0,0,0,0,0,0,0,0],"sum_hessian":[8.89E2,5.01E2,3.88E2,6.7E1,4.34E2,2.06E2,1.82E2,7E0,6E1,1.73E2,2.61E2,8.4E1,1.22E2,9.5E1,8.7E1,1.3E1,4.7E1,1.5E1,1.58E2,2.03E2,5.8E1,4.1E1,4.3E1,6.2E1,6E1,7.6E1,1.9E1,5.9E1,2.8E1],"tree_param":{"num_deleted":"0","num_feature":"8","num_nodes":"29","size_leaf_vector":"1"}},{"base_weights":[-0E0,-3.3344507E-2,6.054865E-2,-5.3240336E-2,1.0599256E-3,3.8504638E-2,1.7819081E-1,-1.0934013E-1,-4.1462723E-2,-6.827597E-2,1.9487245E-2,1.5184624E-1,2.1096243E-2,2.8163454E-2,2.3113091E-1,-0E0,-7.371773E-3,-0E0,-2.3305381E-3,-5.224334E-3,-0E0,4.5278083E-4,8.298192E-3,1.0594721E-2,2.1836886E-4,-9.4123714E-4,2.093081E-3,2.3828088E-3,-0E0,-0E0,1.2952973E-2],"categories":[],"categories_nodes":[],"categories_segments":[],"categories_sizes":[],"default_left":[0,0,0,0,0,0,0,0,0,0,0,0,0,0,0,0,0,0,0,0,0,0,0,0,0,0,0,0,0,0,0],"id":33,"left_children":[1,3,5,7,9,11,13,15,17,19,21,23,25,27,29,-1,-1,-1,-1,-1,-1,-1,-1,-1,-1,-1,-1,-1,-1,-1,-1],"loss_changes":[1.8349292E0,4.2458475E-1,7.181606E-1,1.6528428E-1,2.4146768E-1,4.5761567E-1,2.306298E-1,1.8803853E-1,7.910055E-2,1.2854795E-1,1.692427E-1,1.8226087E-1,2.1868011E-1,1.1498157E-2,1.02530956E-1,0E0,0E0,0E0,0E0,0E0,0E0,0E0,0E0,0E0,0E0,0E0,0E0,0E0,0E0,0E0,0E0],"parents":[2147483647,0,0,1,1,2,2,3,3,4,4,5,5,6,6,7,7,8,8,9,9,10,10,11,11,12,12,13,13,14,14],"right_children":[2,4,6,8,10,12,14,16,18,20,22,24,26,28,30,-1,-1,-1,-1,-1,-1,-1,-1,-1,-1,-1,-1,-1,-1,-1,-1],"split_conditions":[9.558623E-1,1.051479E-1,1.3775162E0,5.5192024E-1,7.2727275E-1,3.4529462E-1,1.591298E-1,4.6389523E-1,1.5714861E-1,1.4322285E-1,2.2666667E0,1.0281227E0,7E-1,6.4E-1,1.12068966E-1,-0E0,-7.371773E-3,-0E0,-2.3305381E-3,-5.224334E-3,-0E0,4.5278083E-4,8.298192E-3,1.0594721E-2,2.1836886E-4,-9.4123714E-4,2.093081E-3,2.3828088E-3,-0E0,-0E0,1.2952973E-2],"split_indices":[0,4,0,0,3,2,4,0,2,4,3,0,3,6,1,0,0,0,0,0,0,0,0,0,0,0,0,0,0,0,0],"split_type":[0,0,0,0,0,0,0,0,0,0,0,0,0,0,0,0,0,0,0,0,0,0,0,0,0,0,0,0,0,0,0],"sum_hessian":[9.02E2,5.8E2,3.22E2,3.76E2,2.04E2,2.77E2,4.5E1,5.5E1,3.21E2,3.6E1,1.68E2,3.1E1,2.46E2,1.5E1,3E1,1.7E1,3.8E1,3.1E1,2.9E2,2.6E1,1E1,1.62E2,6E0,1.9E1,1.2E1,7.6E1,1.7E2,9E0,6E0,5E0,2.5E1],"tree_param":{"num_deleted":"0","num_feature":"8","num_nodes":"31","size_leaf_vector":"1"}},{"base_weights":[-3.1386495E-3,-6.0470667E-2,2.6050963E-2,-1.2257816E-1,-4.2512413E-2,1.6998969E-2,1.2878217E-1,-1.433342E-1,5.014513E-4,8.7990975E-3,-5.6050483E-2,-3.6930887E-3,4.2126704E-2,1.6356891E-1,-0E0,-1.2894835E-3,-8.609077E-3,-1.1453932E-3,5.118157E-3,-6.9583976E-3,-2.090251E-3,-9.6130755E-4,3.668359E-3,6.9066737E-4,4.7903857E-3,3.006391E-3,1.2613031E-2,-0E0,1.5127301E-3],"categories":[],"categories_nodes":[],"categories_segments":[],"categories_sizes":[],"default_left":[0,0,0,0,0,0,0,0,0,0,0,0,0,0,0,0,0,0,0,0,0,0,0,0,0,0,0,0,0],"id":34,"left_children":[1,3,5,7,9,11,13,15,-1,17,19,21,23,25,27,-1,-1,-1,-1,-1,-1,-1,-1,-1,-1,-1,-1,-1,-1],"loss_changes":[1.5214894E0,2.5167334E-1,4.7138512E-1,2.4017638E-1,1.9758213E-1,3.0497754E-1,1.4300478E-1,8.541155E-2,0E0,1.8088253E-1,1.4060724E-1,3.252693E-1,3.3619407E-1,1.0704982E-1,7.3227277E-3,0E0,0E0,0E0,0E0,0E0,0E0,0E0,0E0,0E0,0E0,0E0,0E0,0E0,0E0],"parents":[2147483647,0,0,1,1,2,2,3,3,4,4,5,5,6,6,7,7,9,9,10,10,11,11,12,12,13,13,14,14],"right_children":[2,4,6,8,10,12,14,16,-1,18,20,22,24,26,28,-1,-1,-1,-1,-1,-1,-1,-1,-1,-1,-1,-1,-1,-1],"split_conditions":[7.011187E-2,4.246485E-3,2.046469E1,1.4204472E1,6.412162E-3,3.852112E-1,1.738779E-1,1.6777343E-1,5.014513E-4,4.7E-1,1.0752047E1,1.5469173E-1,9.756098E-1,4.571446E-1,1.8002538E-1,-1.2894835E-3,-8.609077E-3,-1.1453932E-3,5.118157E-3,-6.9583976E-3,-2.090251E-3,-9.6130755E-4,3.668359E-3,6.9066737E-4,4.7903857E-3,3.006391E-3,1.2613031E-2,-0E0,1.5127301E-3],"split_indices":[4,4,7,7,4,2,4,2,0,6,7,4,3,2,4,0,0,0,0,0,0,0,0,0,0,0,0,0,0],"split_type":[0,0,0,0,0,0,0,0,0,0,0,0,0,0,0,0,0,0,0,0,0,0,0,0,0,0,0,0,0],"sum_hessian":[8.95E2,3.07E2,5.88E2,6E1,2.47E2,5.47E2,4.1E1,5.5E1,5E0,4.4E1,2.03E2,2.9E2,2.57E2,3E1,1.1E1,1.5E1,4E1,3E1,1.4E1,2.2E1,1.81E2,2.48E2,4.2E1,1.76E2,8.1E1,1.8E1,1.2E1,5E0,6E0],"tree_param":{"num_deleted":"0","num_feature":"8","num_nodes":"29","size_leaf_vector":"1"}},{"base_weights":[1.9052001E-3,-4.8124135E-2,4.5176405E-2,-5.4990232E-2,5.063218E-2,2.9925479E-2,1.595003E-1,-8.24326E-2,-3.9543618E-2,-1.4991873E-3,1.6192007E-1,1.8648598E-1,2.2536995E-2,1.7842878E-1,-0E0,-4.466041E-3,-0E0,1.4189311E-3,-2.211268E-3,1.1787429E-2,-0E0,1.7776072E-4,1.4637276E-2,3.610468E-4,4.525479E-3,4.1558696E-3,1.3472541E-2],"categories":[],"categories_nodes":[],"categories_segments":[],"categories_sizes":[],"default_left":[0,0,0,0,0,0,0,0,0,0,0,0,0,0,0,0,0,0,0,0,0,0,0,0,0,0,0],"id":35,"left_children":[1,3,5,7,9,11,13,15,17,-1,19,21,23,25,-1,-1,-1,-1,-1,-1,-1,-1,-1,-1,-1,-1,-1],"loss_changes":[2.0118363E0,2.9660553E-1,7.744876E-1,1.03744745E-1,2.9099596E-1,4.0877473E-1,1.9262254E-1,1.1627495E-1,9.756392E-2,0E0,1.0378373E-1,1.8021643E-1,4.0373507E-1,2.1269572E-1,0E0,0E0,0E0,0E0,0E0,0E0,0E0,0E0,0E0,0E0,0E0,0E0,0E0],"parents":[2147483647,0,0,1,1,2,2,3,3,4,4,5,5,6,6,7,7,8,8,10,10,11,11,12,12,13,13],"right_children":[2,4,6,8,10,12,14,16,18,-1,20,22,24,26,-1,-1,-1,-1,-1,-1,-1,-1,-1,-1,-1,-1,-1],"split_conditions":[8.329003E-1,1.9018444E1,2.0116026E1,6.186406E-1,1.489905E-1,2.2770093E-1,1.869581E-1,5.4E-1,1.4028873E-1,-1.4991873E-3,1.9650406E1,1.051479E-1,1.2854319E0,6.2E-1,-0E0,-4.466041E-3,-0E0,1.4189311E-3,-2.211268E-3,1.1787429E-2,-0E0,1.7776072E-4,1.4637276E-2,3.610468E-4,4.525479E-3,4.1558696E-3,1.3472541E-2],"split_indices":[0,7,7,0,4,2,4,5,2,0,7,4,0,6,0,0,0,0,0,0,0,0,0,0,0,0,0],"split_type":[0,0,0,0,0,0,0,0,0,0,0,0,0,0,0,0,0,0,0,0,0,0,0,0,0,0,0],"sum_hessian":[9.26E2,4.24E2,5.02E2,4.02E2,2.2E1,4.49E2,5.3E1,1.3E2,2.72E2,1.1E1,1.1E1,1.5E1,4.34E2,4.8E1,5E0,1.25E2,5E0,1E1,2.62E2,6E0,5E0,8E0,7E0,3.62E2,7.2E1,2.8E1,2E1],"tree_param":{"num_deleted":"0","num_feature":"8","num_nodes":"27","size_leaf_vector":"1"}},{"base_weights":[-1.8821921E-3,-2.5129424E-2,6.7079715E-2,-1.0997804E-1,-1.5926855E-2,9.3712965E-3,1.1295592E-1,-0E0,-1.1723114E-1,-7.4401316E-3,-7.440414E-2,4.9753092E-2,-1.9323505E-2,4.601387E-2,1.6093755E-1,-6.937469E-3,-1.1698161E-3,-9.169259E-4,3.4994434E-3,-5.702432E-3,-1.0929428E-3,5.192623E-3,-0E0,-3.1928592E-3,1.1343629E-3,4.59885E-3,-2.457054E-3,4.798868E-3,1.219134E-2],"categories":[],"categories_nodes":[],"categories_segments":[],"categories_sizes":[],"default_left":[0,0,0,0,0,0,0,0,0,0,0,0,0,0,0,0,0,0,0,0,0,0,0,0,0,0,0,0,0],"id":36,"left_children":[1,3,5,7,9,11,13,-1,15,17,19,21,23,25,27,-1,-1,-1,-1,-1,-1,-1,-1,-1,-1,-1,-1,-1,-1],"loss_changes":[1.4060143E0,4.574782E-1,5.165094E-1,3.0162454E-2,2.6219067E-1,1.3764736E-1,2.5751638E-1,0E0,2.3488522E-2,4.3664074E-1,7.287946E-2,1.7574544E-1,1.263816E-1,2.7538037E-1,1.22517824E-1,0E0,0E0,0E0,0E0,0E0,0E0,0E0,0E0,0E0,0E0,0E0,0E0,0E0,0E0],"parents":[2147483647,0,0,1,1,2,2,3,3,4,4,5,5,6,6,8,8,9,9,10,10,11,11,12,12,13,13,14,14],"right_children":[2,4,6,8,10,12,14,-1,16,18,20,22,24,26,28,-1,-1,-1,-1,-1,-1,-1,-1,-1,-1,-1,-1,-1,-1],"split_conditions":[1.0681406E0,4.042619E-3,1.8059465E1,2.820513E-1,4.2327228E-1,5.8E-1,1.205619E0,-0E0,1.2799531E1,9.398576E-1,6.4285713E-1,5.005834E-1,1.6699791E1,5.1278174E-1,6.3E-1,-6.937469E-3,-1.1698161E-3,-9.169259E-4,3.4994434E-3,-5.702432E-3,-1.0929428E-3,5.192623E-3,-0E0,-3.1928592E-3,1.1343629E-3,4.59885E-3,-2.457054E-3,4.798868E-3,1.219134E-2],"split_indices":[0,4,7,3,2,6,0,0,7,0,3,2,7,2,6,0,0,0,0,0,0,0,0,0,0,0,0,0,0],"split_type":[0,0,0,0,0,0,0,0,0,0,0,0,0,0,0,0,0,0,0,0,0,0,0,0,0,0,0,0,0],"sum_hessian":[8.86E2,6.69E2,2.17E2,5.8E1,6.11E2,1.02E2,1.15E2,5E0,5.3E1,5.43E2,6.8E1,4.9E1,5.3E1,5.4E1,6.1E1,3.8E1,1.5E1,4.83E2,6E1,3.2E1,3.6E1,2.6E1,2.3E1,3.1E1,2.2E1,4E1,1.4E1,4E1,2.1E1],"tree_param":{"num_deleted":"0","num_feature":"8","num_nodes":"29","size_leaf_vector":"1"}},{"base_weights":[3.0001036E-3,-4.452022E-2,4.0162068E-2,-5.7768542E-2,3.4200355E-2,2.7169855E-2,1.6575336E-1,4.2061275E-3,-6.2318217E-2,1.0253564E-2,-0E0,-4.6941366E-2,3.8422868E-2,1.9460501E-1,-0E0,-0E0,-3.4541395E-3,-2.3624373E-3,1.6472094E-3,-4.698051E-3,-0E0,7.092061E-3,1.546084E-3,2.1349727E-3,1.12336185E-2],"categories":[],"categories_nodes":[],"categories_segments":[],"categories_sizes":[],"default_left":[0,0,0,0,0,0,0,0,0,0,0,0,0,0,0,0,0,0,0,0,0,0,0,0,0],"id":37,"left_children":[1,3,5,7,9,11,13,-1,15,-1,17,19,21,23,-1,-1,-1,-1,-1,-1,-1,-1,-1,-1,-1],"loss_changes":[1.5907508E0,4.2247248E-1,7.299664E-1,2.1907246E-1,2.756113E-1,3.91316E-1,1.1662507E-1,0E0,1.1553073E-1,0E0,7.274358E-2,1.4808989E-1,2.2678721E-1,6.9862604E-3,0E0,0E0,0E0,0E0,0E0,0E0,0E0,0E0,0E0,0E0,0E0],"parents":[2147483647,0,0,1,1,2,2,3,3,4,4,5,5,6,6,8,8,10,10,11,11,12,12,13,13],"right_children":[2,4,6,8,10,12,14,-1,16,-1,18,20,22,24,-1,-1,-1,-1,-1,-1,-1,-1,-1,-1,-1],"split_conditions":[9.4367005E-2,9.7956944E-1,1.3775162E0,7.448754E-2,3.37359E-1,5E-1,1.7741935E-1,4.2061275E-3,5.5555556E-2,1.0253564E-2,9.448819E-2,7.341695E-1,1.7742431E-1,1.5177926E-1,-0E0,-0E0,-3.4541395E-3,-2.3624373E-3,1.6472094E-3,-4.698051E-3,-0E0,7.092061E-3,1.546084E-3,2.1349727E-3,1.12336185E-2],"split_indices":[4,0,0,2,2,5,1,0,1,0,1,0,2,4,0,0,0,0,0,0,0,0,0,0,0],"split_type":[0,0,0,0,0,0,0,0,0,0,0,0,0,0,0,0,0,0,0,0,0,0,0,0,0],"sum_hessian":[8.98E2,3.88E2,5.1E2,3.38E2,5E1,4.68E2,4.2E1,6E0,3.32E2,6E0,4.4E1,5.5E1,4.13E2,3.3E1,9E0,3.8E1,2.94E2,1.6E1,2.8E1,2.9E1,2.6E1,2.1E1,3.92E2,9E0,2.4E1],"tree_param":{"num_deleted":"0","num_feature":"8","num_nodes":"25","size_leaf_vector":"1"}},{"base_weights":[1.6252777E-3,-4.477192E-2,3.8605545E-2,-1.0044663E-1,-3.3172067E-2,1.20784715E-2,1.0939277E-1,-5.9578638E-3,5.8152422E-5,2.5183009E-2,-4.052506E-2,-7.0508663E-3,6.887462E-2,1.5960532E-1,3.54842E-2,6.027133E-3,-0E0,-3.1486244E-3,-1.0257808E-3,4.472025E-3,-7.6143787E-4,4.839025E-3,-1.4411119E-3,-0E0,1.0246519E-2,4.0078526E-3,-0E0],"categories":[],"categories_nodes":[],"categories_segments":[],"categories_sizes":[],"default_left":[0,0,0,0,0,0,0,0,0,0,0,0,0,0,0,0,0,0,0,0,0,0,0,0,0,0,0],"id":38,"left_children":[1,3,5,7,9,11,13,-1,-1,15,17,19,21,23,25,-1,-1,-1,-1,-1,-1,-1,-1,-1,-1,-1,-1],"loss_changes":[1.532566E0,1.7904156E-1,8.830218E-1,1.71444E-1,1.5302634E-1,4.3822396E-1,3.8099873E-1,0E0,0E0,9.658456E-2,9.266603E-2,1.8261962E-1,3.14916E-1,5.087327E-1,1.300572E-1,0E0,0E0,0E0,0E0,0E0,0E0,0E0,0E0,0E0,0E0,0E0,0E0],"parents":[2147483647,0,0,1,1,2,2,3,3,4,4,5,5,6,6,9,9,10,10,11,11,12,12,13,13,14,14],"right_children":[2,4,6,8,10,12,14,-1,-1,16,18,20,22,24,26,-1,-1,-1,-1,-1,-1,-1,-1,-1,-1,-1,-1],"split_conditions":[8.246369E-1,5.4390305E-1,1.1224489E0,5.1E-1,1.4321049E-1,1.178686E0,1.503268E-1,-5.9578638E-3,5.8152422E-5,5.564516E-1,2.3768774E-1,2.5937334E-1,6.2E-1,8.848207E-1,4.3152812E-1,6.027133E-3,-0E0,-3.1486244E-3,-1.0257808E-3,4.472025E-3,-7.6143787E-4,4.839025E-3,-1.4411119E-3,-0E0,1.0246519E-2,4.0078526E-3,-0E0],"split_indices":[0,0,3,6,2,0,1,0,0,0,2,2,5,0,2,0,0,0,0,0,0,0,0,0,0,0,0],"split_type":[0,0,0,0,0,0,0,0,0,0,0,0,0,0,0,0,0,0,0,0,0,0,0,0,0,0,0],"sum_hessian":[8.91E2,3.89E2,5.02E2,5.7E1,3.32E2,3.72E2,1.3E2,5.2E1,5E0,2.9E1,3.03E2,2.73E2,9.9E1,7.2E1,5.8E1,6E0,2.3E1,1.29E2,1.74E2,1.5E1,2.58E2,8.1E1,1.8E1,1.7E1,5.5E1,3E1,2.8E1],"tree_param":{"num_deleted":"0","num_feature":"8","num_nodes":"27","size_leaf_vector":"1"}},{"base_weights":[-7.576813E-4,-1.6241683E-2,1.1656321E-1,-5.5714183E-2,1.1016451E-2,2.6789999E-2,1.862875E-1,-1.1061759E-1,-3.9126284E-2,3.9527945E-2,-7.905788E-3,-4.9765244E-2,8.1410594E-2,-0E0,2.0369875E-1,-0E0,-6.5940246E-3,1.497293E-3,-2.720095E-3,-1.2571595E-3,2.723574E-3,-4.1660853E-3,6.794794E-4,-0E0,-5.163617E-3,8.966847E-3,-0E0,-0E0,1.1183991E-2],"categories":[],"categories_nodes":[],"categories_segments":[],"categories_sizes":[],"default_left":[0,0,0,0,0,0,0,0,0,0,0,0,0,0,0,0,0,0,0,0,0,0,0,0,0,0,0,0,0],"id":39,"left_children":[1,3,5,7,9,11,13,15,17,19,21,23,25,-1,27,-1,-1,-1,-1,-1,-1,-1,-1,-1,-1,-1,-1,-1,-1],"loss_changes":[1.48865E0,8.3268833E-1,4.7812045E-1,2.0335257E-1,2.5327712E-1,2.204557E-1,1.3204157E-1,2.134065E-1,2.813763E-1,1.9715658E-1,4.5050952E-1,8.5880265E-2,3.346636E-1,0E0,8.408034E-2,0E0,0E0,0E0,0E0,0E0,0E0,0E0,0E0,0E0,0E0,0E0,0E0,0E0,0E0],"parents":[2147483647,0,0,1,1,2,2,3,3,4,4,5,5,6,6,7,7,8,8,9,9,10,10,11,11,12,12,14,14],"right_children":[2,4,6,8,10,12,14,16,18,20,22,24,26,-1,28,-1,-1,-1,-1,-1,-1,-1,-1,-1,-1,-1,-1,-1,-1],"split_conditions":[1.9461868E1,7.720061E-2,1.0973532E0,4.042619E-3,1.14285715E-1,1.3084112E-1,6.296296E-1,3.5E-1,6.131276E-3,1.2987302E1,7.777778E-1,1.413067E-1,1.0120136E0,-0E0,5.7E-1,-0E0,-6.5940246E-3,1.497293E-3,-2.720095E-3,-1.2571595E-3,2.723574E-3,-4.1660853E-3,6.794794E-4,-0E0,-5.163617E-3,8.966847E-3,-0E0,-0E0,1.1183991E-2],"split_indices":[7,4,0,4,1,1,3,3,4,7,3,4,0,0,6,0,0,0,0,0,0,0,0,0,0,0,0,0,0],"split_type":[0,0,0,0,0,0,0,0,0,0,0,0,0,0,0,0,0,0,0,0,0,0,0,0,0,0,0,0,0],"sum_hessian":[8.43E2,7.5E2,9.3E1,3.13E2,4.37E2,4.5E1,4.8E1,6.3E1,2.5E2,1.84E2,2.53E2,1.5E1,3E1,5E0,4.3E1,7E0,5.6E1,3.9E1,2.11E2,2.8E1,1.56E2,6E1,1.93E2,5E0,1E1,1.5E1,1.5E1,6E0,3.7E1],"tree_param":{"num_deleted":"0","num_feature":"8","num_nodes":"29","size_leaf_vector":"1"}},{"base_weights":[5.96168E-3,-2.3805674E-2,5.802294E-2,-3.111593E-2,8.8233635E-2,1.6245578E-1,4.4571515E-2,-7.540602E-2,-2.0124141E-2,-0E0,1.2809521E-1,-0E0,9.547179E-3,-6.098672E-3,6.356914E-2,-4.7245356E-3,-0E0,-2.625566E-3,-3.015542E-4,-5.973147E-4,3.9213696E-3,9.508668E-3,-0E0,-1.9780984E-3,5.2864314E-4,1.7800415E-3,5.9069027E-3],"categories":[],"categories_nodes":[],"categories_segments":[],"categories_sizes":[],"default_left":[0,0,0,0,0,0,0,0,0,0,0,0,0,0,0,0,0,0,0,0,0,0,0,0,0,0,0],"id":40,"left_children":[1,3,5,7,9,11,13,15,17,19,21,-1,-1,23,25,-1,-1,-1,-1,-1,-1,-1,-1,-1,-1,-1,-1],"loss_changes":[1.4099754E0,4.4050643E-1,3.4979308E-1,2.106263E-1,5.4010496E-2,1.499325E-1,3.2021987E-1,1.5380234E-1,1.7183937E-1,4.448313E-2,1.7480597E-1,0E0,0E0,5.828822E-2,2.611664E-1,0E0,0E0,0E0,0E0,0E0,0E0,0E0,0E0,0E0,0E0,0E0,0E0],"parents":[2147483647,0,0,1,1,2,2,3,3,4,4,5,5,6,6,7,7,8,8,9,9,10,10,13,13,14,14],"right_children":[2,4,6,8,10,12,14,16,18,20,22,-1,-1,24,26,-1,-1,-1,-1,-1,-1,-1,-1,-1,-1,-1,-1],"split_conditions":[9.558623E-1,1.9307318E1,3.4529462E-1,5.844204E-1,1.489905E-1,1.3041936E1,1.056758E0,4.8E-1,1.2714912E1,8.6246604E-1,8.848207E-1,-0E0,9.547179E-3,1.1612108E-1,1.9018444E1,-4.7245356E-3,-0E0,-2.625566E-3,-3.015542E-4,-5.973147E-4,3.9213696E-3,9.508668E-3,-0E0,-1.9780984E-3,5.2864314E-4,1.7800415E-3,5.9069027E-3],"split_indices":[0,7,2,0,4,7,0,6,7,0,0,0,0,4,7,0,0,0,0,0,0,0,0,0,0,0,0],"split_type":[0,0,0,0,0,0,0,0,0,0,0,0,0,0,0,0,0,0,0,0,0,0,0,0,0,0,0],"sum_hessian":[8.95E2,5.64E2,3.31E2,5.35E2,2.9E1,3.1E1,3E2,9.5E1,4.4E2,1.3E1,1.6E1,5E0,2.6E1,7.5E1,2.25E2,7.7E1,1.8E1,1.21E2,3.19E2,8E0,5E0,1.1E1,5E0,3.4E1,4.1E1,1.57E2,6.8E1],"tree_param":{"num_deleted":"0","num_feature":"8","num_nodes":"27","size_leaf_vector":"1"}},{"base_weights":[3.6381015E-3,-3.425095E-2,3.4040425E-2,-2.8947523E-2,-8.973063E-3,2.329527E-2,1.4421356E-1,-4.1759048E-2,3.3390196E-3,-1.2147608E-2,3.76593E-2,2.277569E-1,-0E0,-1.4271141E-3,-5.325256E-3,-5.345572E-3,1.6596199E-3,-0E0,-6.782985E-3,4.873616E-3,9.4985263E-4,1.1666021E-3,1.5698379E-2,2.1280393E-3,-1.5879101E-4],"categories":[],"categories_nodes":[],"categories_segments":[],"categories_sizes":[],"default_left":[0,0,0,0,0,0,0,0,0,0,0,0,0,0,0,0,0,0,0,0,0,0,0,0,0],"id":41,"left_children":[1,3,5,7,-1,9,11,13,15,17,19,21,23,-1,-1,-1,-1,-1,-1,-1,-1,-1,-1,-1,-1],"loss_changes":[1.0251272E0,1.8497926E-1,5.0262403E-1,1.7708564E-1,0E0,2.4938524E-1,4.1305506E-1,1.694248E-1,2.9608124E-1,2.0239705E-1,3.1758535E-1,2.3966551E-1,1.4612394E-2,0E0,0E0,0E0,0E0,0E0,0E0,0E0,0E0,0E0,0E0,0E0,0E0],"parents":[2147483647,0,0,1,1,2,2,3,3,5,5,6,6,7,7,8,8,9,9,10,10,11,11,12,12],"right_children":[2,4,6,8,-1,10,12,14,16,18,20,22,24,-1,-1,-1,-1,-1,-1,-1,-1,-1,-1,-1,-1],"split_conditions":[8.199227E-1,8.141892E-1,1.3775162E0,7.341695E-1,-8.973063E-3,1.4933333E1,7.181106E-1,2.797065E-1,1.2433712E1,1.4283289E-1,3.4392622E-1,1.596837E-1,1.6327061E-1,-1.4271141E-3,-5.325256E-3,-5.345572E-3,1.6596199E-3,-0E0,-6.782985E-3,4.873616E-3,9.4985263E-4,1.1666021E-3,1.5698379E-2,2.1280393E-3,-1.5879101E-4],"split_indices":[0,0,0,0,0,7,2,2,7,4,2,4,4,0,0,0,0,0,0,0,0,0,0,0,0],"split_type":[0,0,0,0,0,0,0,0,0,0,0,0,0,0,0,0,0,0,0,0,0,0,0,0,0],"sum_hessian":[8.86E2,3.87E2,4.99E2,3.79E2,8E0,4.61E2,3.8E1,2.82E2,9.7E1,1.23E2,3.38E2,2.2E1,1.6E1,2.43E2,3.9E1,1.6E1,8.1E1,1.13E2,1E1,7.2E1,2.66E2,9E0,1.3E1,6E0,1E1],"tree_param":{"num_deleted":"0","num_feature":"8","num_nodes":"25","size_leaf_vector":"1"}},{"base_weights":[5.752528E-3,-1.9351674E-2,3.9944626E-2,-3.0345695E-2,1.0907487E-2,-0E0,5.8460996E-2,-1.8888824E-2,-1.4028177E-1,-2.0242333E-2,8.287888E-2,1.0188862E-1,-1.28424205E-2,-6.2580235E-2,6.583277E-2,-2.8771337E-3,-1.2313841E-4,-8.347017E-3,-0E0,5.6009967E-4,-3.2981045E-3,6.1988044E-3,-0E0,-0E0,8.224276E-3,-4.723112E-3,1.4927809E-3,-5.852927E-3,-0E0,3.7680336E-3,-6.301547E-4],"categories":[],"categories_nodes":[],"categories_segments":[],"categories_sizes":[],"default_left":[0,0,0,0,0,0,0,0,0,0,0,0,0,0,0,0,0,0,0,0,0,0,0,0,0,0,0,0,0,0,0],"id":42,"left_children":[1,3,5,7,9,11,13,15,17,19,21,23,25,27,29,-1,-1,-1,-1,-1,-1,-1,-1,-1,-1,-1,-1,-1,-1,-1,-1],"loss_changes":[7.800795E-1,1.7971005E-1,2.660988E-1,4.012912E-1,3.1491062E-1,2.0582992E-1,2.4096882E-1,1.95749E-1,1.22737825E-1,1.4961854E-1,1.9647908E-1,1.3780259E-1,4.3871942E-1,4.8923474E-2,2.193631E-1,0E0,0E0,0E0,0E0,0E0,0E0,0E0,0E0,0E0,0E0,0E0,0E0,0E0,0E0,0E0,0E0],"parents":[2147483647,0,0,1,1,2,2,3,3,4,4,5,5,6,6,7,7,8,8,9,9,10,10,11,11,12,12,13,13,14,14],"right_children":[2,4,6,8,10,12,14,16,18,20,22,24,26,28,30,-1,-1,-1,-1,-1,-1,-1,-1,-1,-1,-1,-1,-1,-1,-1,-1],"split_conditions":[1.1542019E-1,1.299639E-1,8.5E-1,1.2307692E-1,5.3E-1,8.163265E-2,5E-1,5.217391E-1,1.0328213E-1,2.7330127E-1,1.0387584E-1,6.4935066E-2,4.571446E-1,2.941922E-1,6.5E-1,-2.8771337E-3,-1.2313841E-4,-8.347017E-3,-0E0,5.6009967E-4,-3.2981045E-3,6.1988044E-3,-0E0,-0E0,8.224276E-3,-4.723112E-3,1.4927809E-3,-5.852927E-3,-0E0,3.7680336E-3,-6.301547E-4],"split_indices":[4,1,3,1,6,1,5,3,4,2,4,1,2,2,6,0,0,0,0,0,0,0,0,0,0,0,0,0,0,0,0],"split_type":[0,0,0,0,0,0,0,0,0,0,0,0,0,0,0,0,0,0,0,0,0,0,0,0,0,0,0,0,0,0,0],"sum_hessian":[8.93E2,5.07E2,3.86E2,3.84E2,1.23E2,1.29E2,2.57E2,3.54E2,3E1,8.2E1,4.1E1,1.6E1,1.13E2,1E1,2.47E2,9.5E1,2.59E2,2.5E1,5E0,4.3E1,3.9E1,3E1,1.1E1,6E0,1E1,4.2E1,7.1E1,5E0,5E0,2.26E2,2.1E1],"tree_param":{"num_deleted":"0","num_feature":"8","num_nodes":"31","size_leaf_vector":"1"}},{"base_weights":[4.715832E-3,-3.011854E-2,3.426743E-2,-4.3262217E-2,2.622958E-3,1.2756129E-2,7.014857E-2,-7.176851E-2,-2.7346166E-2,-1.5033262E-2,7.456978E-2,5.3315028E-3,8.038314E-3,-0E0,9.017011E-2,-1.0363245E-3,-6.857323E-3,7.7412886E-5,-2.5800634E-3,3.59414E-3,-2.1197444E-3,-0E0,7.6335403E-3,-2.3025528E-3,9.241455E-4,2.5120866E-3,-2.7716958E-3,6.2643276E-3,1.15012E-3],"categories":[],"categories_nodes":[],"categories_segments":[],"categories_sizes":[],"default_left":[0,0,0,0,0,0,0,0,0,0,0,0,0,0,0,0,0,0,0,0,0,0,0,0,0,0,0,0,0],"id":43,"left_children":[1,3,5,7,9,11,13,15,17,19,21,23,-1,25,27,-1,-1,-1,-1,-1,-1,-1,-1,-1,-1,-1,-1,-1,-1],"loss_changes":[9.275206E-1,1.9483581E-1,3.3805192E-1,8.262974E-2,1.6793337E-1,2.6689124E-1,2.1531165E-1,2.3239556E-1,1.7025958E-1,1.8636046E-1,1.2956288E-1,1.9740166E-1,0E0,1.2906393E-1,2.3379767E-1,0E0,0E0,0E0,0E0,0E0,0E0,0E0,0E0,0E0,0E0,0E0,0E0,0E0,0E0],"parents":[2147483647,0,0,1,1,2,2,3,3,4,4,5,5,6,6,7,7,8,8,9,9,10,10,11,11,13,13,14,14],"right_children":[2,4,6,8,10,12,14,16,18,20,22,24,-1,26,28,-1,-1,-1,-1,-1,-1,-1,-1,-1,-1,-1,-1,-1,-1],"split_conditions":[9.6541196E-2,8.479296E-1,1.0931948E0,1.1991542E1,8.4E-1,2.1111112E0,1.6960127E1,1.1308943E1,1.3746847E1,8.953427E-3,6.729754E-2,6.666667E-1,8.038314E-3,1.464433E-1,1.503268E-1,-1.0363245E-3,-6.857323E-3,7.7412886E-5,-2.5800634E-3,3.59414E-3,-2.1197444E-3,-0E0,7.6335403E-3,-2.3025528E-3,9.241455E-4,2.5120866E-3,-2.7716958E-3,6.2643276E-3,1.15012E-3],"split_indices":[4,0,0,7,3,3,7,7,7,4,4,3,0,4,1,0,0,0,0,0,0,0,0,0,0,0,0,0,0],"split_type":[0,0,0,0,0,0,0,0,0,0,0,0,0,0,0,0,0,0,0,0,0,0,0,0,0,0,0,0,0],"sum_hessian":[8.95E2,4.03E2,4.92E2,2.98E2,1.05E2,3.18E2,1.74E2,9.3E1,2.05E2,8E1,2.5E1,3.08E2,1E1,4.3E1,1.31E2,5.8E1,3.5E1,8.5E1,1.2E2,1.4E1,6.6E1,1.5E1,1E1,5.4E1,2.54E2,2.6E1,1.7E1,8E1,5.1E1],"tree_param":{"num_deleted":"0","num_feature":"8","num_nodes":"29","size_leaf_vector":"1"}},{"base_weights":[7.440346E-4,-2.9842226E-2,2.9346766E-2,-6.455294E-2,-1.271294E-2,1.06888125E-2,1.14896156E-1,-8.055843E-3,-4.8166532E-2,1.1300339E-1,-2.1786062E-2,4.1736732E-4,8.844631E-2,1.4408356E-1,-0E0,9.956995E-4,-3.0279006E-3,-0E0,9.567812E-3,-7.476378E-5,-3.848409E-3,6.699387E-3,-1.230647E-4,6.71458E-3,-0E0,9.140493E-3,1.0706832E-3,-2.0560368E-3,2.8346386E-3],"categories":[],"categories_nodes":[],"categories_segments":[],"categories_sizes":[],"default_left":[0,0,0,0,0,0,0,0,0,0,0,0,0,0,0,0,0,0,0,0,0,0,0,0,0,0,0,0,0],"id":44,"left_children":[1,3,5,7,9,11,13,-1,15,17,19,21,23,25,27,-1,-1,-1,-1,-1,-1,-1,-1,-1,-1,-1,-1,-1,-1],"loss_changes":[7.608741E-1,2.0468846E-1,6.658002E-1,7.921183E-2,2.8781933E-1,2.6138946E-1,2.4987757E-1,0E0,1.1974999E-1,1.2523866E-1,2.6733276E-1,1.9946112E-1,2.1790561E-1,1.7984259E-1,4.7526695E-2,0E0,0E0,0E0,0E0,0E0,0E0,0E0,0E0,0E0,0E0,0E0,0E0,0E0,0E0],"parents":[2147483647,0,0,1,1,2,2,3,3,4,4,5,5,6,6,8,8,9,9,10,10,11,11,12,12,13,13,14,14],"right_children":[2,4,6,8,10,12,14,-1,16,18,20,22,24,26,28,-1,-1,-1,-1,-1,-1,-1,-1,-1,-1,-1,-1,-1,-1],"split_conditions":[8.4557456E-1,6.186406E-1,1.2727273E0,1.0283929E1,1.4028873E-1,1.3690803E0,4.6167412E-1,-8.055843E-3,4.9295776E-2,4.4323277E-2,1.1304348E0,2.5178218E-1,1.7693563E-1,1.5833334E0,1.6874978E-1,9.956995E-4,-3.0279006E-3,-0E0,9.567812E-3,-7.476378E-5,-3.848409E-3,6.699387E-3,-1.230647E-4,6.71458E-3,-0E0,9.140493E-3,1.0706832E-3,-2.0560368E-3,2.8346386E-3],"split_indices":[0,0,3,7,2,0,2,0,1,4,3,2,4,3,4,0,0,0,0,0,0,0,0,0,0,0,0,0,0],"split_type":[0,0,0,0,0,0,0,0,0,0,0,0,0,0,0,0,0,0,0,0,0,0,0,0,0,0,0,0,0],"sum_hessian":[8.66E2,4.1E2,4.56E2,1.24E2,2.86E2,3.81E2,7.5E1,1.1E1,1.13E2,1.4E1,2.72E2,3.44E2,3.7E1,5.9E1,1.6E1,1.1E1,1.02E2,7E0,7E0,2.07E2,6.5E1,9E0,3.35E2,2.7E1,1E1,4.1E1,1.8E1,9E0,7E0],"tree_param":{"num_deleted":"0","num_feature":"8","num_nodes":"29","size_leaf_vector":"1"}},{"base_weights":[-4.469984E-3,-4.1908205E-2,1.9200154E-2,-6.788327E-2,-2.3230352E-2,5.7071224E-3,7.428723E-2,-8.828861E-2,-1.9662637E-2,-2.4444712E-3,-8.1801705E-2,-2.625524E-2,2.4494587E-2,9.895659E-2,-0E0,-4.9448223E-3,-0E0,2.9864992E-4,-3.0230682E-3,-2.689758E-3,8.132704E-4,-0E0,-1.0218778E-2,1.0849099E-3,-2.1643632E-3,6.58659E-3,7.4751605E-4,-0E0,5.9233312E-3,-3.0229832E-3,2.5245126E-3],"categories":[],"categories_nodes":[],"categories_segments":[],"categories_sizes":[],"default_left":[0,0,0,0,0,0,0,0,0,0,0,0,0,0,0,0,0,0,0,0,0,0,0,0,0,0,0,0,0,0,0],"id":45,"left_children":[1,3,5,7,9,11,13,15,17,19,21,23,25,27,29,-1,-1,-1,-1,-1,-1,-1,-1,-1,-1,-1,-1,-1,-1,-1,-1],"loss_changes":[7.98108E-1,1.2206507E-1,3.5755923E-1,7.538682E-2,2.2410011E-1,2.6462227E-1,2.0340079E-1,1.2384713E-1,8.026151E-2,1.8384497E-1,4.1058102E-1,1.384516E-1,2.1748821E-1,1.6800928E-1,8.1766374E-2,0E0,0E0,0E0,0E0,0E0,0E0,0E0,0E0,0E0,0E0,0E0,0E0,0E0,0E0,0E0,0E0],"parents":[2147483647,0,0,1,1,2,2,3,3,4,4,5,5,6,6,7,7,8,8,9,9,10,10,11,11,12,12,13,13,14,14],"right_children":[2,4,6,8,10,12,14,16,18,20,22,24,26,28,30,-1,-1,-1,-1,-1,-1,-1,-1,-1,-1,-1,-1,-1,-1,-1,-1],"split_conditions":[1.4820576E1,6.7741936E-1,1.2857143E0,3.815731E-2,1.1538461E0,5.2E-1,1.6521859E-1,1.3197969E-1,7.5187966E-2,4.5E-1,1.3591666E1,1.5595139E1,5.2E-1,9.252883E-2,6.2E-1,-4.9448223E-3,-0E0,2.9864992E-4,-3.0230682E-3,-2.689758E-3,8.132704E-4,-0E0,-1.0218778E-2,1.0849099E-3,-2.1643632E-3,6.58659E-3,7.4751605E-4,-0E0,5.9233312E-3,-3.0229832E-3,2.5245126E-3],"split_indices":[7,3,3,4,3,6,4,1,1,5,7,7,5,4,6,0,0,0,0,0,0,0,0,0,0,0,0,0,0,0,0],"split_type":[0,0,0,0,0,0,0,0,0,0,0,0,0,0,0,0,0,0,0,0,0,0,0,0,0,0,0,0,0,0,0],"sum_hessian":[8.84E2,3.5E2,5.34E2,1.33E2,2.17E2,4.38E2,9.6E1,8.5E1,4.8E1,1.68E2,4.9E1,1.52E2,2.86E2,7.4E1,2.2E1,8E1,5E0,2.3E1,2.5E1,5.1E1,1.17E2,3.3E1,1.6E1,3.2E1,1.2E2,1.7E1,2.69E2,1.1E1,6.3E1,1.2E1,1E1],"tree_param":{"num_deleted":"0","num_feature":"8","num_nodes":"31","size_leaf_vector":"1"}},{"base_weights":[3.1085717E-3,-1.4584391E-2,5.4403983E-2,-4.4486847E-2,1.7699385E-3,6.876947E-2,-4.0905148E-2,-0E0,-5.513721E-2,-1.2094869E-2,3.4679204E-2,5.07105E-2,1.6056938E-2,-1.263637E-1,1.667408E-2,-2.0298478E-3,4.8021087E-3,-3.0151221E-3,-0E0,1.3186156E-3,-1.2575679E-3,3.5026167E-3,-2.064254E-4,5.3449445E-3,1.3316859E-3,-9.183833E-3,-0E0,4.3691853E-3,-8.8375557E-4],"categories":[],"categories_nodes":[],"categories_segments":[],"categories_sizes":[],"default_left":[0,0,0,0,0,0,0,0,0,0,0,0,0,0,0,0,0,0,0,0,0,0,0,0,0,0,0,0,0],"id":46,"left_children":[1,3,5,7,9,11,13,15,17,19,21,23,-1,25,27,-1,-1,-1,-1,-1,-1,-1,-1,-1,-1,-1,-1,-1,-1],"loss_changes":[8.401229E-1,3.4672397E-1,3.4678787E-1,1.3636929E-1,2.042252E-1,7.522589E-1,1.9683664E-1,1.9538084E-1,8.2235694E-2,1.448608E-1,2.2023435E-1,2.0216513E-1,0E0,9.7854435E-2,7.43756E-2,0E0,0E0,0E0,0E0,0E0,0E0,0E0,0E0,0E0,0E0,0E0,0E0,0E0,0E0],"parents":[2147483647,0,0,1,1,2,2,3,3,4,4,5,5,6,6,7,7,8,8,9,9,10,10,11,11,13,13,14,14],"right_children":[2,4,6,8,10,12,14,16,18,20,22,24,-1,26,28,-1,-1,-1,-1,-1,-1,-1,-1,-1,-1,-1,-1,-1,-1],"split_conditions":[1.056758E0,4.8E-1,6.5E-1,1.5495713E-1,1.299639E-1,6.4E-1,5.8787864E-1,1.3618824E-1,4.5305434E-1,5.1E-1,3.4232593E-1,4.5546812E-1,1.6056938E-2,6.4E-1,6.5E-1,-2.0298478E-3,4.8021087E-3,-3.0151221E-3,-0E0,1.3186156E-3,-1.2575679E-3,3.5026167E-3,-2.064254E-4,5.3449445E-3,1.3316859E-3,-9.183833E-3,-0E0,4.3691853E-3,-8.8375557E-4],"split_indices":[0,5,6,2,1,6,2,2,2,5,2,2,0,5,5,0,0,0,0,0,0,0,0,0,0,0,0,0,0],"split_type":[0,0,0,0,0,0,0,0,0,0,0,0,0,0,0,0,0,0,0,0,0,0,0,0,0,0,0,0,0],"sum_hessian":[9E2,6.63E2,2.37E2,2.44E2,4.19E2,2.11E2,2.6E1,4.1E1,2.03E2,2.85E2,1.34E2,2.01E2,1E1,1.3E1,1.3E1,2.7E1,1.4E1,1.92E2,1.1E1,6.2E1,2.23E2,7.6E1,5.8E1,5.2E1,1.49E2,8E0,5E0,8E0,5E0],"tree_param":{"num_deleted":"0","num_feature":"8","num_nodes":"29","size_leaf_vector":"1"}},{"base_weights":[4.1237585E-3,-2.0004835E-3,1.3032344E-1,-7.1738693E-3,9.535786E-2,1.881284E-1,3.6933623E-2,-4.1833293E-2,5.3429576E-3,-0E0,1.6388267E-1,-0E0,1.5494435E-2,-0E0,6.327731E-2,-1.1552538E-3,-6.740658E-3,-0E0,2.8858108E-3,2.2289723E-3,-0E0,1.1559687E-2,-0E0,-0E0,2.2315886E-3,3.815579E-3,-0E0],"categories":[],"categories_nodes":[],"categories_segments":[],"categories_sizes":[],"default_left":[0,0,0,0,0,0,0,0,0,0,0,0,0,0,0,0,0,0,0,0,0,0,0,0,0,0,0],"id":47,"left_children":[1,3,5,7,9,11,13,15,17,19,21,23,-1,-1,25,-1,-1,-1,-1,-1,-1,-1,-1,-1,-1,-1,-1],"loss_changes":[7.5254375E-1,3.8388658E-1,1.1650032E-1,3.705251E-1,1.9161198E-1,3.989879E-1,3.6694188E-2,3.0835554E-1,1.7311902E-1,1.3911286E-2,2.1115708E-1,1.3943965E-2,0E0,0E0,1.8131658E-3,0E0,0E0,0E0,0E0,0E0,0E0,0E0,0E0,0E0,0E0,0E0,0E0],"parents":[2147483647,0,0,1,1,2,2,3,3,4,4,5,5,6,6,7,7,8,8,9,9,10,10,11,11,14,14],"right_children":[2,4,6,8,10,12,14,16,18,20,22,24,-1,-1,26,-1,-1,-1,-1,-1,-1,-1,-1,-1,-1,-1,-1],"split_conditions":[1.3775162E0,1.6666666E0,1.4084508E-1,2.4565893E-1,8.141892E-1,1.2068965E-1,1.5175097E-1,1.2857143E0,1.2857143E0,1.2758932E-1,3.4529462E-1,1.5005322E0,1.5494435E-2,-0E0,6.5E-1,-1.1552538E-3,-6.740658E-3,-0E0,2.8858108E-3,2.2289723E-3,-0E0,1.1559687E-2,-0E0,-0E0,2.2315886E-3,3.815579E-3,-0E0],"split_indices":[0,3,1,2,0,1,1,3,3,2,2,0,0,0,6,0,0,0,0,0,0,0,0,0,0,0,0],"split_type":[0,0,0,0,0,0,0,0,0,0,0,0,0,0,0,0,0,0,0,0,0,0,0,0,0,0,0],"sum_hessian":[8.88E2,8.45E2,4.3E1,8.09E2,3.6E1,2.2E1,2.1E1,2.24E2,5.85E2,1.8E1,1.8E1,1.1E1,1.1E1,6E0,1.5E1,1.93E2,3.1E1,5.3E2,5.5E1,5E0,1.3E1,1.2E1,6E0,6E0,5E0,1E1,5E0],"tree_param":{"num_deleted":"0","num_feature":"8","num_nodes":"27","size_leaf_vector":"1"}},{"base_weights":[-3.4050264E-3,-1.49410255E-2,6.4896315E-2,-4.3453503E-2,-9.487436E-4,8.392131E-2,-0E0,-6.227974E-2,-5.9698652E-3,-3.2523092E-2,1.2840866E-2,1.0957825E-2,6.1721373E-2,6.5671746E-3,-3.3133824E-3,-7.83919E-4,-4.730937E-3,-5.4822075E-3,2.3218911E-4,-2.6835394E-3,7.908147E-4,-0E0,3.32634E-3,5.8853294E-4,6.0236324E-3,2.1998435E-3,-4.7170903E-4],"categories":[],"categories_nodes":[],"categories_segments":[],"categories_sizes":[],"default_left":[0,0,0,0,0,0,0,0,0,0,0,0,0,0,0,0,0,0,0,0,0,0,0,0,0,0,0],"id":48,"left_children":[1,3,5,7,9,11,13,15,17,19,21,-1,23,25,-1,-1,-1,-1,-1,-1,-1,-1,-1,-1,-1,-1,-1],"loss_changes":[6.797901E-1,2.8531045E-1,1.792174E-1,1.3590515E-1,2.4187267E-1,1.2972689E-1,3.1645488E-2,1.709547E-1,1.5475184E-1,1.974771E-1,2.5044745E-1,0E0,1.9809714E-1,3.0688936E-2,0E0,0E0,0E0,0E0,0E0,0E0,0E0,0E0,0E0,0E0,0E0,0E0,0E0],"parents":[2147483647,0,0,1,1,2,2,3,3,4,4,5,5,6,6,7,7,8,8,9,9,10,10,12,12,13,13],"right_children":[2,4,6,8,10,12,14,16,18,20,22,-1,24,26,-1,-1,-1,-1,-1,-1,-1,-1,-1,-1,-1,-1,-1],"split_conditions":[1.195018E0,7.222222E-1,6.2E-1,9.4367005E-2,2.2843103E-1,1.2147108E0,1.0344827E0,2.8472587E-1,4.9E-1,5.4E-1,1.2857143E0,1.0957825E-2,1.3690803E0,6.5E-1,-3.3133824E-3,-7.83919E-4,-4.730937E-3,-5.4822075E-3,2.3218911E-4,-2.6835394E-3,7.908147E-4,-0E0,3.32634E-3,5.8853294E-4,6.0236324E-3,2.1998435E-3,-4.7170903E-4],"split_indices":[0,3,5,4,2,0,3,2,5,5,3,0,0,5,0,0,0,0,0,0,0,0,0,0,0,0,0],"split_type":[0,0,0,0,0,0,0,0,0,0,0,0,0,0,0,0,0,0,0,0,0,0,0,0,0,0,0],"sum_hessian":[8.9E2,7.69E2,1.21E2,2.4E2,5.29E2,9.7E1,2.4E1,1.5E2,9E1,1.71E2,3.58E2,8E0,8.9E1,1.9E1,5E0,6.9E1,8.1E1,1.1E1,7.9E1,1.26E2,4.5E1,2.9E2,6.8E1,5.4E1,3.5E1,1.4E1,5E0],"tree_param":{"num_deleted":"0","num_feature":"8","num_nodes":"27","size_leaf_vector":"1"}},{"base_weights":[2.5362498E-3,-1.4183413E-2,3.413753E-2,-4.2760145E-2,-0E0,4.439514E-2,-2.1326242E-2,-2.4824233E-3,-7.970186E-2,-9.520626E-2,6.9344216E-3,9.692388E-3,9.986284E-2,-1.0045891E-1,7.636082E-2,-3.0980944E-3,7.4198394E-4,-0E0,-4.7671343E-3,-4.975854E-4,-9.372489E-3,1.4486818E-3,-8.544323E-4,2.6208202E-3,-9.2051754E-4,8.1036715E-3,1.9229585E-3,-0E0,-7.458967E-3,8.060254E-3,-0E0],"categories":[],"categories_nodes":[],"categories_segments":[],"categories_sizes":[],"default_left":[0,0,0,0,0,0,0,0,0,0,0,0,0,0,0,0,0,0,0,0,0,0,0,0,0,0,0,0,0,0,0],"id":49,"left_children":[1,3,5,7,9,11,13,15,17,19,21,23,25,27,29,-1,-1,-1,-1,-1,-1,-1,-1,-1,-1,-1,-1,-1,-1,-1,-1],"loss_changes":[4.8594353E-1,2.2543944E-1,1.9662213E-1,2.3675475E-1,2.8051037E-1,4.8225343E-1,3.6752176E-1,1.2637042E-1,9.460968E-2,1.2562951E-1,2.0124072E-1,2.3505217E-1,2.7690303E-1,1.402592E-1,7.695199E-2,0E0,0E0,0E0,0E0,0E0,0E0,0E0,0E0,0E0,0E0,0E0,0E0,0E0,0E0,0E0,0E0],"parents":[2147483647,0,0,1,1,2,2,3,3,4,4,5,5,6,6,7,7,8,8,9,9,10,10,11,11,12,12,13,13,14,14],"right_children":[2,4,6,8,10,12,14,16,18,20,22,24,26,28,30,-1,-1,-1,-1,-1,-1,-1,-1,-1,-1,-1,-1,-1,-1,-1,-1],"split_conditions":[9.558623E-1,7.222222E-1,1.6666667E-1,8.163265E-2,1.0752047E1,1E0,1.2685586E0,5.8478387E-3,8.953427E-3,1.1764706E-1,1.0416666E0,1.0674157E-1,1.3580246E-1,9.655172E-1,1.4849567E-1,-3.0980944E-3,7.4198394E-4,-0E0,-4.7671343E-3,-4.975854E-4,-9.372489E-3,1.4486818E-3,-8.544323E-4,2.6208202E-3,-9.2051754E-4,8.1036715E-3,1.9229585E-3,-0E0,-7.458967E-3,8.060254E-3,-0E0],"split_indices":[0,3,1,1,7,3,0,4,4,1,3,1,1,3,4,0,0,0,0,0,0,0,0,0,0,0,0,0,0,0,0],"split_type":[0,0,0,0,0,0,0,0,0,0,0,0,0,0,0,0,0,0,0,0,0,0,0,0,0,0,0,0,0,0,0],"sum_hessian":[8.97E2,5.77E2,3.2E2,1.85E2,3.92E2,2.78E2,4.2E1,9.6E1,8.9E1,2.7E1,3.65E2,1.78E2,1E2,2.6E1,1.6E1,2.7E1,6.9E1,1.7E1,7.2E1,1.8E1,9E0,2.01E2,1.64E2,7.7E1,1.01E2,4.4E1,5.6E1,9E0,1.7E1,5E0,1.1E1],"tree_param":{"num_deleted":"0","num_feature":"8","num_nodes":"31","size_leaf_vector":"1"}},{"base_weights":[2.5001639E-3,-2.4192434E-2,2.6740454E-2,-3.5804234E-2,-0E0,1.8200897E-2,1.08016506E-1,-4.572293E-2,1.4468984E-2,5.568497E-2,-3.3636723E-2,5.4102793E-2,5.5612028E-3,-0E0,1.4973225E-1,-1.3949828E-3,-6.1728405E-3,-1.2199468E-3,4.1360096E-3,3.757619E-3,-3.8369503E-4,3.1942574E-3,-2.9540497E-3,3.416526E-4,5.526316E-3,-8.701359E-4,1.8542744E-3,1.4029364E-2,9.0404256E-4],"categories":[],"categories_nodes":[],"categories_segments":[],"categories_sizes":[],"default_left":[0,0,0,0,0,0,0,0,0,0,0,0,0,0,0,0,0,0,0,0,0,0,0,0,0,0,0,0,0],"id":50,"left_children":[1,3,5,7,9,11,13,15,17,19,21,23,25,-1,27,-1,-1,-1,-1,-1,-1,-1,-1,-1,-1,-1,-1,-1,-1],"loss_changes":[5.732538E-1,1.3121596E-1,2.6125044E-1,1.6155717E-1,2.4383675E-1,1.6741823E-1,1.7271775E-1,2.6518655E-1,1.4196128E-1,9.903121E-2,1.8628694E-1,2.1452376E-1,2.5364575E-1,0E0,3.228824E-1,0E0,0E0,0E0,0E0,0E0,0E0,0E0,0E0,0E0,0E0,0E0,0E0,0E0,0E0],"parents":[2147483647,0,0,1,1,2,2,3,3,4,4,5,5,6,6,7,7,8,8,9,9,10,10,11,11,12,12,14,14],"right_children":[2,4,6,8,10,12,14,16,18,20,22,24,26,-1,28,-1,-1,-1,-1,-1,-1,-1,-1,-1,-1,-1,-1,-1,-1],"split_conditions":[9.953801E-2,8.479296E-1,1.3775162E0,1.4166667E-1,3.56086E-1,2.6956013E-1,1.2804878E-1,1.22340426E-1,4.8E-1,5.6E-1,8.953427E-3,2.2770093E-1,1.061976E0,-0E0,1.5789473E-1,-1.3949828E-3,-6.1728405E-3,-1.2199468E-3,4.1360096E-3,3.757619E-3,-3.8369503E-4,3.1942574E-3,-2.9540497E-3,3.416526E-4,5.526316E-3,-8.701359E-4,1.8542744E-3,1.4029364E-2,9.0404256E-4],"split_indices":[4,0,0,1,2,2,1,1,5,6,4,2,0,0,1,0,0,0,0,0,0,0,0,0,0,0,0,0,0],"split_type":[0,0,0,0,0,0,0,0,0,0,0,0,0,0,0,0,0,0,0,0,0,0,0,0,0,0,0,0,0],"sum_hessian":[8.8E2,4.09E2,4.71E2,2.88E2,1.21E2,4.34E2,3.7E1,2.49E2,3.9E1,5E1,7.1E1,1.01E2,3.33E2,1.1E1,2.6E1,2.1E2,3.9E1,2.1E1,1.8E1,4.4E1,6E0,1E1,6.1E1,6.1E1,4E1,1.84E2,1.49E2,1E1,1.6E1],"tree_param":{"num_deleted":"0","num_feature":"8","num_nodes":"29","size_leaf_vector":"1"}},{"base_weights":[-1.7883044E-3,-3.0421475E-2,1.7501382E-2,1.687418E-2,-4.004305E-2,1.1728008E-2,1.1905696E-2,5.1543523E-2,-1.7088339E-2,-6.6670075E-2,-8.29924E-3,-7.194922E-2,1.863356E-2,-0E0,5.459502E-3,1.9722776E-3,-3.3884186E-3,-3.743245E-3,1.1841909E-3,4.098154E-3,-2.329296E-3,-0E0,-4.714821E-3,5.92128E-4,3.5734163E-3],"categories":[],"categories_nodes":[],"categories_segments":[],"categories_sizes":[],"default_left":[0,0,0,0,0,0,0,0,0,0,0,0,0,0,0,0,0,0,0,0,0,0,0,0,0],"id":51,"left_children":[1,3,5,7,9,11,-1,13,15,17,19,21,23,-1,-1,-1,-1,-1,-1,-1,-1,-1,-1,-1,-1],"loss_changes":[4.9854168E-1,1.8085247E-1,5.343541E-1,8.3749376E-2,2.2850549E-1,2.7245402E-1,0E0,1.5738603E-1,8.25408E-2,1.498276E-1,5.256039E-1,7.296337E-2,1.2923503E-1,0E0,0E0,0E0,0E0,0E0,0E0,0E0,0E0,0E0,0E0,0E0,0E0],"parents":[2147483647,0,0,1,1,2,2,3,3,4,4,5,5,7,7,8,8,9,9,10,10,11,11,12,12],"right_children":[2,4,6,8,10,12,-1,14,16,18,20,22,24,-1,-1,-1,-1,-1,-1,-1,-1,-1,-1,-1,-1],"split_conditions":[1.4933333E1,1.5162791E-1,2.1111112E0,8.6206895E-1,1.2907031E1,6.2527776E-1,1.1905696E-2,4.5E-1,1.1536404E1,6E-1,1.3636842E1,1.5233929E1,6.2608695E-1,-0E0,5.459502E-3,1.9722776E-3,-3.3884186E-3,-3.743245E-3,1.1841909E-3,4.098154E-3,-2.329296E-3,-0E0,-4.714821E-3,5.92128E-4,3.5734163E-3],"split_indices":[7,2,3,3,7,0,0,5,7,5,7,7,2,0,0,0,0,0,0,0,0,0,0,0,0],"split_type":[0,0,0,0,0,0,0,0,0,0,0,0,0,0,0,0,0,0,0,0,0,0,0,0,0],"sum_hessian":[8.87E2,3.67E2,5.2E2,5.3E1,3.14E2,5.11E2,9E0,3.3E1,2E1,1.61E2,1.53E2,3.2E1,4.79E2,1.4E1,1.9E1,5E0,1.5E1,1.53E2,8E0,4.1E1,1.12E2,6E0,2.6E1,4.35E2,4.4E1],"tree_param":{"num_deleted":"0","num_feature":"8","num_nodes":"25","size_leaf_vector":"1"}},{"base_weights":[2.097872E-3,-1.1175755E-2,3.9315015E-2,-3.078138E-2,6.530188E-3,2.3455406E-2,1.08112216E-1,-3.9661095E-2,3.3106804E-2,6.1309796E-2,-6.054898E-3,-4.259192E-3,5.4338805E-2,-0E0,1.3306606E-1,-1.1531069E-3,-4.7055404E-3,4.827072E-3,-9.537414E-4,-2.2915786E-3,5.7999804E-3,-1.7553213E-3,1.4738465E-3,1.6875111E-4,-4.8339735E-3,6.446072E-3,5.7089387E-4,-0E0,8.2543E-3],"categories":[],"categories_nodes":[],"categories_segments":[],"categories_sizes":[],"default_left":[0,0,0,0,0,0,0,0,0,0,0,0,0,0,0,0,0,0,0,0,0,0,0,0,0,0,0,0,0],"id":52,"left_children":[1,3,5,7,9,11,13,15,17,19,21,23,25,-1,27,-1,-1,-1,-1,-1,-1,-1,-1,-1,-1,-1,-1,-1,-1],"loss_changes":[4.6153027E-1,2.4094318E-1,1.9973657E-1,1.9084588E-1,2.5863153E-1,2.0524612E-1,9.9080384E-2,2.0279238E-1,1.5496048E-1,4.5588475E-1,2.7946392E-1,1.2068264E-1,2.7261114E-1,0E0,1.1472416E-1,0E0,0E0,0E0,0E0,0E0,0E0,0E0,0E0,0E0,0E0,0E0,0E0,0E0,0E0],"parents":[2147483647,0,0,1,1,2,2,3,3,4,4,5,5,6,6,7,7,8,8,9,9,10,10,11,11,12,12,14,14],"right_children":[2,4,6,8,10,12,14,16,18,20,22,24,26,-1,28,-1,-1,-1,-1,-1,-1,-1,-1,-1,-1,-1,-1,-1,-1],"split_conditions":[5.7E-1,